digraph Tree {
node [shape=box, style="filled, rounded", color="black", fontname="helvetica"] ;
edge [fontname="helvetica"] ;
0 [label=<redshift &le; 0.004<br/>gini = 0.564<br/>samples = 80000<br/>value = [47585, 15164, 17251]<br/>class = GALAXY>, fillcolor="#f2c29f"] ;
1 [label=<redshift &le; -0.0<br/>gini = 0.045<br/>samples = 17662<br/>value = [409, 2, 17251]<br/>class = STAR>, fillcolor="#843ee6"] ;
0 -> 1 [labeldistance=2.5, labelangle=45, headlabel="True"] ;
2 [label=<redshift &le; -0.004<br/>gini = 0.006<br/>samples = 10934<br/>value = [34, 0, 10900]<br/>class = STAR>, fillcolor="#813ae5"] ;
1 -> 2 ;
3 [label=<gini = 0.0<br/>samples = 6<br/>value = [6, 0, 0]<br/>class = GALAXY>, fillcolor="#e58139"] ;
2 -> 3 ;
4 [label=<g &le; 27.338<br/>gini = 0.005<br/>samples = 10928<br/>value = [28, 0, 10900]<br/>class = STAR>, fillcolor="#813ae5"] ;
2 -> 4 ;
5 [label=<i &le; 22.2<br/>gini = 0.005<br/>samples = 10925<br/>value = [27, 0, 10898]<br/>class = STAR>, fillcolor="#8139e5"] ;
4 -> 5 ;
6 [label=<z &le; 21.509<br/>gini = 0.004<br/>samples = 10878<br/>value = [23, 0, 10855]<br/>class = STAR>, fillcolor="#8139e5"] ;
5 -> 6 ;
7 [label=<spec_obj_ID &le; 1.2732948831285543e+19<br/>gini = 0.003<br/>samples = 10551<br/>value = [18, 0, 10533]<br/>class = STAR>, fillcolor="#8139e5"] ;
6 -> 7 ;
8 [label=<MJD &le; 51791.5<br/>gini = 0.003<br/>samples = 10467<br/>value = [16, 0, 10451]<br/>class = STAR>, fillcolor="#8139e5"] ;
7 -> 8 ;
9 [label=<MJD &le; 51789.5<br/>gini = 0.054<br/>samples = 36<br/>value = [1, 0, 35]<br/>class = STAR>, fillcolor="#853fe6"] ;
8 -> 9 ;
10 [label=<gini = 0.0<br/>samples = 35<br/>value = [0, 0, 35]<br/>class = STAR>, fillcolor="#8139e5"] ;
9 -> 10 ;
11 [label=<gini = 0.0<br/>samples = 1<br/>value = [1, 0, 0]<br/>class = GALAXY>, fillcolor="#e58139"] ;
9 -> 11 ;
12 [label=<r &le; 20.304<br/>gini = 0.003<br/>samples = 10431<br/>value = [15.0, 0.0, 10416.0]<br/>class = STAR>, fillcolor="#8139e5"] ;
8 -> 12 ;
13 [label=<u &le; 25.069<br/>gini = 0.001<br/>samples = 7703<br/>value = [5, 0, 7698]<br/>class = STAR>, fillcolor="#8139e5"] ;
12 -> 13 ;
14 [label=<run_ID &le; 8106.5<br/>gini = 0.001<br/>samples = 7617<br/>value = [4, 0, 7613]<br/>class = STAR>, fillcolor="#8139e5"] ;
13 -> 14 ;
15 [label=<redshift &le; -0.0<br/>gini = 0.001<br/>samples = 7478<br/>value = [3, 0, 7475]<br/>class = STAR>, fillcolor="#8139e5"] ;
14 -> 15 ;
16 [label=<delta &le; 1.198<br/>gini = 0.001<br/>samples = 7220<br/>value = [2, 0, 7218]<br/>class = STAR>, fillcolor="#8139e5"] ;
15 -> 16 ;
17 [label=<delta &le; 1.197<br/>gini = 0.003<br/>samples = 1479<br/>value = [2, 0, 1477]<br/>class = STAR>, fillcolor="#8139e5"] ;
16 -> 17 ;
18 [label=<fiber_ID &le; 164.0<br/>gini = 0.001<br/>samples = 1478<br/>value = [1, 0, 1477]<br/>class = STAR>, fillcolor="#8139e5"] ;
17 -> 18 ;
19 [label=<fiber_ID &le; 162.5<br/>gini = 0.006<br/>samples = 346<br/>value = [1, 0, 345]<br/>class = STAR>, fillcolor="#813ae5"] ;
18 -> 19 ;
20 [label=<gini = 0.0<br/>samples = 345<br/>value = [0, 0, 345]<br/>class = STAR>, fillcolor="#8139e5"] ;
19 -> 20 ;
21 [label=<gini = 0.0<br/>samples = 1<br/>value = [1, 0, 0]<br/>class = GALAXY>, fillcolor="#e58139"] ;
19 -> 21 ;
22 [label=<gini = 0.0<br/>samples = 1132<br/>value = [0, 0, 1132]<br/>class = STAR>, fillcolor="#8139e5"] ;
18 -> 22 ;
23 [label=<gini = 0.0<br/>samples = 1<br/>value = [1, 0, 0]<br/>class = GALAXY>, fillcolor="#e58139"] ;
17 -> 23 ;
24 [label=<gini = 0.0<br/>samples = 5741<br/>value = [0, 0, 5741]<br/>class = STAR>, fillcolor="#8139e5"] ;
16 -> 24 ;
25 [label=<alpha &le; 277.19<br/>gini = 0.008<br/>samples = 258<br/>value = [1, 0, 257]<br/>class = STAR>, fillcolor="#813ae5"] ;
15 -> 25 ;
26 [label=<gini = 0.0<br/>samples = 227<br/>value = [0, 0, 227]<br/>class = STAR>, fillcolor="#8139e5"] ;
25 -> 26 ;
27 [label=<alpha &le; 282.382<br/>gini = 0.062<br/>samples = 31<br/>value = [1, 0, 30]<br/>class = STAR>, fillcolor="#8540e6"] ;
25 -> 27 ;
28 [label=<gini = 0.0<br/>samples = 1<br/>value = [1, 0, 0]<br/>class = GALAXY>, fillcolor="#e58139"] ;
27 -> 28 ;
29 [label=<gini = 0.0<br/>samples = 30<br/>value = [0, 0, 30]<br/>class = STAR>, fillcolor="#8139e5"] ;
27 -> 29 ;
30 [label=<delta &le; 20.786<br/>gini = 0.014<br/>samples = 139<br/>value = [1, 0, 138]<br/>class = STAR>, fillcolor="#823ae5"] ;
14 -> 30 ;
31 [label=<MJD &le; 55093.0<br/>gini = 0.165<br/>samples = 11<br/>value = [1, 0, 10]<br/>class = STAR>, fillcolor="#8e4de8"] ;
30 -> 31 ;
32 [label=<gini = 0.0<br/>samples = 1<br/>value = [1, 0, 0]<br/>class = GALAXY>, fillcolor="#e58139"] ;
31 -> 32 ;
33 [label=<gini = 0.0<br/>samples = 10<br/>value = [0, 0, 10]<br/>class = STAR>, fillcolor="#8139e5"] ;
31 -> 33 ;
34 [label=<gini = 0.0<br/>samples = 128<br/>value = [0, 0, 128]<br/>class = STAR>, fillcolor="#8139e5"] ;
30 -> 34 ;
35 [label=<u &le; 25.089<br/>gini = 0.023<br/>samples = 86<br/>value = [1, 0, 85]<br/>class = STAR>, fillcolor="#823be5"] ;
13 -> 35 ;
36 [label=<gini = 0.0<br/>samples = 1<br/>value = [1, 0, 0]<br/>class = GALAXY>, fillcolor="#e58139"] ;
35 -> 36 ;
37 [label=<gini = 0.0<br/>samples = 85<br/>value = [0, 0, 85]<br/>class = STAR>, fillcolor="#8139e5"] ;
35 -> 37 ;
38 [label=<r &le; 20.306<br/>gini = 0.007<br/>samples = 2728<br/>value = [10, 0, 2718]<br/>class = STAR>, fillcolor="#813ae5"] ;
12 -> 38 ;
39 [label=<gini = 0.0<br/>samples = 1<br/>value = [1, 0, 0]<br/>class = GALAXY>, fillcolor="#e58139"] ;
38 -> 39 ;
40 [label=<spec_obj_ID &le; 4.1462256378723697e+18<br/>gini = 0.007<br/>samples = 2727<br/>value = [9, 0, 2718]<br/>class = STAR>, fillcolor="#813ae5"] ;
38 -> 40 ;
41 [label=<spec_obj_ID &le; 4.145739103977079e+18<br/>gini = 0.031<br/>samples = 384<br/>value = [6, 0, 378]<br/>class = STAR>, fillcolor="#833ce5"] ;
40 -> 41 ;
42 [label=<alpha &le; 91.846<br/>gini = 0.026<br/>samples = 383<br/>value = [5, 0, 378]<br/>class = STAR>, fillcolor="#833ce5"] ;
41 -> 42 ;
43 [label=<redshift &le; -0.0<br/>gini = 0.121<br/>samples = 77<br/>value = [5.0, 0.0, 72.0]<br/>class = STAR>, fillcolor="#8a47e7"] ;
42 -> 43 ;
44 [label=<alpha &le; 89.834<br/>gini = 0.078<br/>samples = 74<br/>value = [3, 0, 71]<br/>class = STAR>, fillcolor="#8641e6"] ;
43 -> 44 ;
45 [label=<alpha &le; 47.492<br/>gini = 0.053<br/>samples = 73<br/>value = [2, 0, 71]<br/>class = STAR>, fillcolor="#853fe6"] ;
44 -> 45 ;
46 [label=<gini = 0.0<br/>samples = 50<br/>value = [0, 0, 50]<br/>class = STAR>, fillcolor="#8139e5"] ;
45 -> 46 ;
47 [label=<alpha &le; 48.203<br/>gini = 0.159<br/>samples = 23<br/>value = [2, 0, 21]<br/>class = STAR>, fillcolor="#8d4ce7"] ;
45 -> 47 ;
48 [label=<gini = 0.0<br/>samples = 1<br/>value = [1, 0, 0]<br/>class = GALAXY>, fillcolor="#e58139"] ;
47 -> 48 ;
49 [label=<delta &le; -0.735<br/>gini = 0.087<br/>samples = 22<br/>value = [1, 0, 21]<br/>class = STAR>, fillcolor="#8742e6"] ;
47 -> 49 ;
50 [label=<gini = 0.0<br/>samples = 1<br/>value = [1, 0, 0]<br/>class = GALAXY>, fillcolor="#e58139"] ;
49 -> 50 ;
51 [label=<gini = 0.0<br/>samples = 21<br/>value = [0, 0, 21]<br/>class = STAR>, fillcolor="#8139e5"] ;
49 -> 51 ;
52 [label=<gini = 0.0<br/>samples = 1<br/>value = [1, 0, 0]<br/>class = GALAXY>, fillcolor="#e58139"] ;
44 -> 52 ;
53 [label=<delta &le; 1.118<br/>gini = 0.444<br/>samples = 3<br/>value = [2, 0, 1]<br/>class = GALAXY>, fillcolor="#f2c09c"] ;
43 -> 53 ;
54 [label=<gini = 0.0<br/>samples = 2<br/>value = [2, 0, 0]<br/>class = GALAXY>, fillcolor="#e58139"] ;
53 -> 54 ;
55 [label=<gini = 0.0<br/>samples = 1<br/>value = [0, 0, 1]<br/>class = STAR>, fillcolor="#8139e5"] ;
53 -> 55 ;
56 [label=<gini = 0.0<br/>samples = 306<br/>value = [0, 0, 306]<br/>class = STAR>, fillcolor="#8139e5"] ;
42 -> 56 ;
57 [label=<gini = 0.0<br/>samples = 1<br/>value = [1, 0, 0]<br/>class = GALAXY>, fillcolor="#e58139"] ;
41 -> 57 ;
58 [label=<i &le; 20.138<br/>gini = 0.003<br/>samples = 2343<br/>value = [3, 0, 2340]<br/>class = STAR>, fillcolor="#8139e5"] ;
40 -> 58 ;
59 [label=<i &le; 20.138<br/>gini = 0.013<br/>samples = 452<br/>value = [3, 0, 449]<br/>class = STAR>, fillcolor="#823ae5"] ;
58 -> 59 ;
60 [label=<spec_obj_ID &le; 5.317162915378233e+18<br/>gini = 0.009<br/>samples = 451<br/>value = [2, 0, 449]<br/>class = STAR>, fillcolor="#823ae5"] ;
59 -> 60 ;
61 [label=<spec_obj_ID &le; 5.315487259657503e+18<br/>gini = 0.044<br/>samples = 88<br/>value = [2, 0, 86]<br/>class = STAR>, fillcolor="#843ee6"] ;
60 -> 61 ;
62 [label=<run_ID &le; 7772.5<br/>gini = 0.023<br/>samples = 87<br/>value = [1, 0, 86]<br/>class = STAR>, fillcolor="#823be5"] ;
61 -> 62 ;
63 [label=<gini = 0.0<br/>samples = 79<br/>value = [0, 0, 79]<br/>class = STAR>, fillcolor="#8139e5"] ;
62 -> 63 ;
64 [label=<i &le; 20.021<br/>gini = 0.219<br/>samples = 8<br/>value = [1, 0, 7]<br/>class = STAR>, fillcolor="#9355e9"] ;
62 -> 64 ;
65 [label=<gini = 0.0<br/>samples = 7<br/>value = [0, 0, 7]<br/>class = STAR>, fillcolor="#8139e5"] ;
64 -> 65 ;
66 [label=<gini = 0.0<br/>samples = 1<br/>value = [1, 0, 0]<br/>class = GALAXY>, fillcolor="#e58139"] ;
64 -> 66 ;
67 [label=<gini = 0.0<br/>samples = 1<br/>value = [1, 0, 0]<br/>class = GALAXY>, fillcolor="#e58139"] ;
61 -> 67 ;
68 [label=<gini = 0.0<br/>samples = 363<br/>value = [0, 0, 363]<br/>class = STAR>, fillcolor="#8139e5"] ;
60 -> 68 ;
69 [label=<gini = 0.0<br/>samples = 1<br/>value = [1, 0, 0]<br/>class = GALAXY>, fillcolor="#e58139"] ;
59 -> 69 ;
70 [label=<gini = 0.0<br/>samples = 1891<br/>value = [0, 0, 1891]<br/>class = STAR>, fillcolor="#8139e5"] ;
58 -> 70 ;
71 [label=<spec_obj_ID &le; 1.2732993911262282e+19<br/>gini = 0.046<br/>samples = 84<br/>value = [2, 0, 82]<br/>class = STAR>, fillcolor="#843ee6"] ;
7 -> 71 ;
72 [label=<gini = 0.0<br/>samples = 1<br/>value = [1, 0, 0]<br/>class = GALAXY>, fillcolor="#e58139"] ;
71 -> 72 ;
73 [label=<MJD &le; 58422.0<br/>gini = 0.024<br/>samples = 83<br/>value = [1, 0, 82]<br/>class = STAR>, fillcolor="#833be5"] ;
71 -> 73 ;
74 [label=<i &le; 19.033<br/>gini = 0.142<br/>samples = 13<br/>value = [1, 0, 12]<br/>class = STAR>, fillcolor="#8c49e7"] ;
73 -> 74 ;
75 [label=<i &le; 18.252<br/>gini = 0.5<br/>samples = 2<br/>value = [1, 0, 1]<br/>class = GALAXY>, fillcolor="#ffffff"] ;
74 -> 75 ;
76 [label=<gini = 0.0<br/>samples = 1<br/>value = [0, 0, 1]<br/>class = STAR>, fillcolor="#8139e5"] ;
75 -> 76 ;
77 [label=<gini = 0.0<br/>samples = 1<br/>value = [1, 0, 0]<br/>class = GALAXY>, fillcolor="#e58139"] ;
75 -> 77 ;
78 [label=<gini = 0.0<br/>samples = 11<br/>value = [0, 0, 11]<br/>class = STAR>, fillcolor="#8139e5"] ;
74 -> 78 ;
79 [label=<gini = 0.0<br/>samples = 70<br/>value = [0, 0, 70]<br/>class = STAR>, fillcolor="#8139e5"] ;
73 -> 79 ;
80 [label=<z &le; 21.51<br/>gini = 0.03<br/>samples = 327<br/>value = [5, 0, 322]<br/>class = STAR>, fillcolor="#833ce5"] ;
6 -> 80 ;
81 [label=<gini = 0.0<br/>samples = 1<br/>value = [1, 0, 0]<br/>class = GALAXY>, fillcolor="#e58139"] ;
80 -> 81 ;
82 [label=<redshift &le; -0.002<br/>gini = 0.024<br/>samples = 326<br/>value = [4, 0, 322]<br/>class = STAR>, fillcolor="#833be5"] ;
80 -> 82 ;
83 [label=<field_ID &le; 334.5<br/>gini = 0.278<br/>samples = 6<br/>value = [1, 0, 5]<br/>class = STAR>, fillcolor="#9a61ea"] ;
82 -> 83 ;
84 [label=<gini = 0.0<br/>samples = 5<br/>value = [0, 0, 5]<br/>class = STAR>, fillcolor="#8139e5"] ;
83 -> 84 ;
85 [label=<gini = 0.0<br/>samples = 1<br/>value = [1, 0, 0]<br/>class = GALAXY>, fillcolor="#e58139"] ;
83 -> 85 ;
86 [label=<u &le; 21.981<br/>gini = 0.019<br/>samples = 320<br/>value = [3, 0, 317]<br/>class = STAR>, fillcolor="#823be5"] ;
82 -> 86 ;
87 [label=<u &le; 21.967<br/>gini = 0.105<br/>samples = 36<br/>value = [2, 0, 34]<br/>class = STAR>, fillcolor="#8845e7"] ;
86 -> 87 ;
88 [label=<g &le; 21.603<br/>gini = 0.056<br/>samples = 35<br/>value = [1, 0, 34]<br/>class = STAR>, fillcolor="#853fe6"] ;
87 -> 88 ;
89 [label=<gini = 0.0<br/>samples = 29<br/>value = [0, 0, 29]<br/>class = STAR>, fillcolor="#8139e5"] ;
88 -> 89 ;
90 [label=<g &le; 21.607<br/>gini = 0.278<br/>samples = 6<br/>value = [1, 0, 5]<br/>class = STAR>, fillcolor="#9a61ea"] ;
88 -> 90 ;
91 [label=<gini = 0.0<br/>samples = 1<br/>value = [1, 0, 0]<br/>class = GALAXY>, fillcolor="#e58139"] ;
90 -> 91 ;
92 [label=<gini = 0.0<br/>samples = 5<br/>value = [0, 0, 5]<br/>class = STAR>, fillcolor="#8139e5"] ;
90 -> 92 ;
93 [label=<gini = 0.0<br/>samples = 1<br/>value = [1, 0, 0]<br/>class = GALAXY>, fillcolor="#e58139"] ;
87 -> 93 ;
94 [label=<r &le; 20.341<br/>gini = 0.007<br/>samples = 284<br/>value = [1, 0, 283]<br/>class = STAR>, fillcolor="#813ae5"] ;
86 -> 94 ;
95 [label=<r &le; 20.256<br/>gini = 0.142<br/>samples = 13<br/>value = [1, 0, 12]<br/>class = STAR>, fillcolor="#8c49e7"] ;
94 -> 95 ;
96 [label=<gini = 0.0<br/>samples = 12<br/>value = [0, 0, 12]<br/>class = STAR>, fillcolor="#8139e5"] ;
95 -> 96 ;
97 [label=<gini = 0.0<br/>samples = 1<br/>value = [1, 0, 0]<br/>class = GALAXY>, fillcolor="#e58139"] ;
95 -> 97 ;
98 [label=<gini = 0.0<br/>samples = 271<br/>value = [0, 0, 271]<br/>class = STAR>, fillcolor="#8139e5"] ;
94 -> 98 ;
99 [label=<i &le; 22.222<br/>gini = 0.156<br/>samples = 47<br/>value = [4, 0, 43]<br/>class = STAR>, fillcolor="#8d4be7"] ;
5 -> 99 ;
100 [label=<gini = 0.0<br/>samples = 2<br/>value = [2, 0, 0]<br/>class = GALAXY>, fillcolor="#e58139"] ;
99 -> 100 ;
101 [label=<redshift &le; -0.003<br/>gini = 0.085<br/>samples = 45<br/>value = [2, 0, 43]<br/>class = STAR>, fillcolor="#8742e6"] ;
99 -> 101 ;
102 [label=<gini = 0.0<br/>samples = 1<br/>value = [1, 0, 0]<br/>class = GALAXY>, fillcolor="#e58139"] ;
101 -> 102 ;
103 [label=<run_ID &le; 1571.0<br/>gini = 0.044<br/>samples = 44<br/>value = [1, 0, 43]<br/>class = STAR>, fillcolor="#843ee6"] ;
101 -> 103 ;
104 [label=<alpha &le; 120.354<br/>gini = 0.375<br/>samples = 4<br/>value = [1, 0, 3]<br/>class = STAR>, fillcolor="#ab7bee"] ;
103 -> 104 ;
105 [label=<gini = 0.0<br/>samples = 1<br/>value = [1, 0, 0]<br/>class = GALAXY>, fillcolor="#e58139"] ;
104 -> 105 ;
106 [label=<gini = 0.0<br/>samples = 3<br/>value = [0, 0, 3]<br/>class = STAR>, fillcolor="#8139e5"] ;
104 -> 106 ;
107 [label=<gini = 0.0<br/>samples = 40<br/>value = [0, 0, 40]<br/>class = STAR>, fillcolor="#8139e5"] ;
103 -> 107 ;
108 [label=<u &le; 24.01<br/>gini = 0.444<br/>samples = 3<br/>value = [1, 0, 2]<br/>class = STAR>, fillcolor="#c09cf2"] ;
4 -> 108 ;
109 [label=<gini = 0.0<br/>samples = 1<br/>value = [1, 0, 0]<br/>class = GALAXY>, fillcolor="#e58139"] ;
108 -> 109 ;
110 [label=<gini = 0.0<br/>samples = 2<br/>value = [0, 0, 2]<br/>class = STAR>, fillcolor="#8139e5"] ;
108 -> 110 ;
111 [label=<redshift &le; 0.0<br/>gini = 0.106<br/>samples = 6728<br/>value = [375.0, 2.0, 6351.0]<br/>class = STAR>, fillcolor="#8845e7"] ;
1 -> 111 ;
112 [label=<spec_obj_ID &le; 3.644057236990329e+18<br/>gini = 0.128<br/>samples = 350<br/>value = [326, 0, 24]<br/>class = GALAXY>, fillcolor="#e78a48"] ;
111 -> 112 ;
113 [label=<delta &le; 12.577<br/>gini = 0.282<br/>samples = 100<br/>value = [83, 0, 17]<br/>class = GALAXY>, fillcolor="#ea9b62"] ;
112 -> 113 ;
114 [label=<delta &le; 10.108<br/>gini = 0.456<br/>samples = 37<br/>value = [24, 0, 13]<br/>class = GALAXY>, fillcolor="#f3c5a4"] ;
113 -> 114 ;
115 [label=<i &le; 17.629<br/>gini = 0.415<br/>samples = 34<br/>value = [24, 0, 10]<br/>class = GALAXY>, fillcolor="#f0b58b"] ;
114 -> 115 ;
116 [label=<redshift &le; 0.0<br/>gini = 0.188<br/>samples = 19<br/>value = [17, 0, 2]<br/>class = GALAXY>, fillcolor="#e89050"] ;
115 -> 116 ;
117 [label=<gini = 0.0<br/>samples = 17<br/>value = [17, 0, 0]<br/>class = GALAXY>, fillcolor="#e58139"] ;
116 -> 117 ;
118 [label=<gini = 0.0<br/>samples = 2<br/>value = [0, 0, 2]<br/>class = STAR>, fillcolor="#8139e5"] ;
116 -> 118 ;
119 [label=<alpha &le; 228.978<br/>gini = 0.498<br/>samples = 15<br/>value = [7, 0, 8]<br/>class = STAR>, fillcolor="#efe6fc"] ;
115 -> 119 ;
120 [label=<field_ID &le; 578.5<br/>gini = 0.219<br/>samples = 8<br/>value = [1, 0, 7]<br/>class = STAR>, fillcolor="#9355e9"] ;
119 -> 120 ;
121 [label=<gini = 0.0<br/>samples = 7<br/>value = [0, 0, 7]<br/>class = STAR>, fillcolor="#8139e5"] ;
120 -> 121 ;
122 [label=<gini = 0.0<br/>samples = 1<br/>value = [1, 0, 0]<br/>class = GALAXY>, fillcolor="#e58139"] ;
120 -> 122 ;
123 [label=<field_ID &le; 88.0<br/>gini = 0.245<br/>samples = 7<br/>value = [6, 0, 1]<br/>class = GALAXY>, fillcolor="#e9965a"] ;
119 -> 123 ;
124 [label=<gini = 0.0<br/>samples = 1<br/>value = [0, 0, 1]<br/>class = STAR>, fillcolor="#8139e5"] ;
123 -> 124 ;
125 [label=<gini = 0.0<br/>samples = 6<br/>value = [6, 0, 0]<br/>class = GALAXY>, fillcolor="#e58139"] ;
123 -> 125 ;
126 [label=<gini = 0.0<br/>samples = 3<br/>value = [0, 0, 3]<br/>class = STAR>, fillcolor="#8139e5"] ;
114 -> 126 ;
127 [label=<redshift &le; 0.0<br/>gini = 0.119<br/>samples = 63<br/>value = [59, 0, 4]<br/>class = GALAXY>, fillcolor="#e78a46"] ;
113 -> 127 ;
128 [label=<gini = 0.0<br/>samples = 59<br/>value = [59, 0, 0]<br/>class = GALAXY>, fillcolor="#e58139"] ;
127 -> 128 ;
129 [label=<gini = 0.0<br/>samples = 4<br/>value = [0, 0, 4]<br/>class = STAR>, fillcolor="#8139e5"] ;
127 -> 129 ;
130 [label=<redshift &le; 0.0<br/>gini = 0.054<br/>samples = 250<br/>value = [243, 0, 7]<br/>class = GALAXY>, fillcolor="#e6853f"] ;
112 -> 130 ;
131 [label=<redshift &le; -0.0<br/>gini = 0.016<br/>samples = 245<br/>value = [243, 0, 2]<br/>class = GALAXY>, fillcolor="#e5823b"] ;
130 -> 131 ;
132 [label=<gini = 0.0<br/>samples = 1<br/>value = [0, 0, 1]<br/>class = STAR>, fillcolor="#8139e5"] ;
131 -> 132 ;
133 [label=<field_ID &le; 478.0<br/>gini = 0.008<br/>samples = 244<br/>value = [243, 0, 1]<br/>class = GALAXY>, fillcolor="#e5823a"] ;
131 -> 133 ;
134 [label=<gini = 0.0<br/>samples = 227<br/>value = [227, 0, 0]<br/>class = GALAXY>, fillcolor="#e58139"] ;
133 -> 134 ;
135 [label=<field_ID &le; 511.0<br/>gini = 0.111<br/>samples = 17<br/>value = [16, 0, 1]<br/>class = GALAXY>, fillcolor="#e78945"] ;
133 -> 135 ;
136 [label=<gini = 0.0<br/>samples = 1<br/>value = [0, 0, 1]<br/>class = STAR>, fillcolor="#8139e5"] ;
135 -> 136 ;
137 [label=<gini = 0.0<br/>samples = 16<br/>value = [16, 0, 0]<br/>class = GALAXY>, fillcolor="#e58139"] ;
135 -> 137 ;
138 [label=<gini = 0.0<br/>samples = 5<br/>value = [0, 0, 5]<br/>class = STAR>, fillcolor="#8139e5"] ;
130 -> 138 ;
139 [label=<redshift &le; 0.002<br/>gini = 0.016<br/>samples = 6378<br/>value = [49, 2, 6327]<br/>class = STAR>, fillcolor="#823be5"] ;
111 -> 139 ;
140 [label=<redshift &le; 0.001<br/>gini = 0.009<br/>samples = 6294<br/>value = [27, 2, 6265]<br/>class = STAR>, fillcolor="#823ae5"] ;
139 -> 140 ;
141 [label=<fiber_ID &le; 999.5<br/>gini = 0.006<br/>samples = 6087<br/>value = [17, 1, 6069]<br/>class = STAR>, fillcolor="#813ae5"] ;
140 -> 141 ;
142 [label=<MJD &le; 58522.5<br/>gini = 0.006<br/>samples = 6079<br/>value = [16, 1, 6062]<br/>class = STAR>, fillcolor="#813ae5"] ;
141 -> 142 ;
143 [label=<alpha &le; 357.782<br/>gini = 0.005<br/>samples = 6061<br/>value = [15, 1, 6045]<br/>class = STAR>, fillcolor="#813ae5"] ;
142 -> 143 ;
144 [label=<g &le; 25.114<br/>gini = 0.005<br/>samples = 6037<br/>value = [14, 1, 6022]<br/>class = STAR>, fillcolor="#8139e5"] ;
143 -> 144 ;
145 [label=<i &le; 21.408<br/>gini = 0.005<br/>samples = 6011<br/>value = [13, 1, 5997]<br/>class = STAR>, fillcolor="#8139e5"] ;
144 -> 145 ;
146 [label=<field_ID &le; 105.5<br/>gini = 0.004<br/>samples = 5763<br/>value = [10, 1, 5752]<br/>class = STAR>, fillcolor="#8139e5"] ;
145 -> 146 ;
147 [label=<alpha &le; 87.528<br/>gini = 0.009<br/>samples = 2075<br/>value = [9, 0, 2066]<br/>class = STAR>, fillcolor="#823ae5"] ;
146 -> 147 ;
148 [label=<alpha &le; 87.47<br/>gini = 0.035<br/>samples = 281<br/>value = [5.0, 0.0, 276.0]<br/>class = STAR>, fillcolor="#833de5"] ;
147 -> 148 ;
149 [label=<z &le; 15.934<br/>gini = 0.028<br/>samples = 280<br/>value = [4, 0, 276]<br/>class = STAR>, fillcolor="#833ce5"] ;
148 -> 149 ;
150 [label=<z &le; 15.914<br/>gini = 0.117<br/>samples = 48<br/>value = [3, 0, 45]<br/>class = STAR>, fillcolor="#8946e7"] ;
149 -> 150 ;
151 [label=<spec_obj_ID &le; 1.4086086730385981e+18<br/>gini = 0.081<br/>samples = 47<br/>value = [2, 0, 45]<br/>class = STAR>, fillcolor="#8742e6"] ;
150 -> 151 ;
152 [label=<redshift &le; 0.0<br/>gini = 0.32<br/>samples = 10<br/>value = [2, 0, 8]<br/>class = STAR>, fillcolor="#a06aec"] ;
151 -> 152 ;
153 [label=<run_ID &le; 3857.5<br/>gini = 0.444<br/>samples = 3<br/>value = [2, 0, 1]<br/>class = GALAXY>, fillcolor="#f2c09c"] ;
152 -> 153 ;
154 [label=<gini = 0.0<br/>samples = 2<br/>value = [2, 0, 0]<br/>class = GALAXY>, fillcolor="#e58139"] ;
153 -> 154 ;
155 [label=<gini = 0.0<br/>samples = 1<br/>value = [0, 0, 1]<br/>class = STAR>, fillcolor="#8139e5"] ;
153 -> 155 ;
156 [label=<gini = 0.0<br/>samples = 7<br/>value = [0, 0, 7]<br/>class = STAR>, fillcolor="#8139e5"] ;
152 -> 156 ;
157 [label=<gini = 0.0<br/>samples = 37<br/>value = [0, 0, 37]<br/>class = STAR>, fillcolor="#8139e5"] ;
151 -> 157 ;
158 [label=<gini = 0.0<br/>samples = 1<br/>value = [1, 0, 0]<br/>class = GALAXY>, fillcolor="#e58139"] ;
150 -> 158 ;
159 [label=<z &le; 19.828<br/>gini = 0.009<br/>samples = 232<br/>value = [1, 0, 231]<br/>class = STAR>, fillcolor="#823ae5"] ;
149 -> 159 ;
160 [label=<gini = 0.0<br/>samples = 205<br/>value = [0, 0, 205]<br/>class = STAR>, fillcolor="#8139e5"] ;
159 -> 160 ;
161 [label=<alpha &le; 52.348<br/>gini = 0.071<br/>samples = 27<br/>value = [1, 0, 26]<br/>class = STAR>, fillcolor="#8641e6"] ;
159 -> 161 ;
162 [label=<gini = 0.0<br/>samples = 26<br/>value = [0, 0, 26]<br/>class = STAR>, fillcolor="#8139e5"] ;
161 -> 162 ;
163 [label=<gini = 0.0<br/>samples = 1<br/>value = [1, 0, 0]<br/>class = GALAXY>, fillcolor="#e58139"] ;
161 -> 163 ;
164 [label=<gini = 0.0<br/>samples = 1<br/>value = [1, 0, 0]<br/>class = GALAXY>, fillcolor="#e58139"] ;
148 -> 164 ;
165 [label=<field_ID &le; 104.5<br/>gini = 0.004<br/>samples = 1794<br/>value = [4, 0, 1790]<br/>class = STAR>, fillcolor="#8139e5"] ;
147 -> 165 ;
166 [label=<redshift &le; 0.0<br/>gini = 0.003<br/>samples = 1778<br/>value = [3, 0, 1775]<br/>class = STAR>, fillcolor="#8139e5"] ;
165 -> 166 ;
167 [label=<redshift &le; 0.0<br/>gini = 0.039<br/>samples = 50<br/>value = [1, 0, 49]<br/>class = STAR>, fillcolor="#843de6"] ;
166 -> 167 ;
168 [label=<gini = 0.0<br/>samples = 49<br/>value = [0, 0, 49]<br/>class = STAR>, fillcolor="#8139e5"] ;
167 -> 168 ;
169 [label=<gini = 0.0<br/>samples = 1<br/>value = [1, 0, 0]<br/>class = GALAXY>, fillcolor="#e58139"] ;
167 -> 169 ;
170 [label=<z &le; 20.419<br/>gini = 0.002<br/>samples = 1728<br/>value = [2, 0, 1726]<br/>class = STAR>, fillcolor="#8139e5"] ;
166 -> 170 ;
171 [label=<gini = 0.0<br/>samples = 1540<br/>value = [0, 0, 1540]<br/>class = STAR>, fillcolor="#8139e5"] ;
170 -> 171 ;
172 [label=<z &le; 20.422<br/>gini = 0.021<br/>samples = 188<br/>value = [2, 0, 186]<br/>class = STAR>, fillcolor="#823be5"] ;
170 -> 172 ;
173 [label=<gini = 0.0<br/>samples = 1<br/>value = [1, 0, 0]<br/>class = GALAXY>, fillcolor="#e58139"] ;
172 -> 173 ;
174 [label=<field_ID &le; 91.5<br/>gini = 0.011<br/>samples = 187<br/>value = [1.0, 0.0, 186.0]<br/>class = STAR>, fillcolor="#823ae5"] ;
172 -> 174 ;
175 [label=<gini = 0.0<br/>samples = 157<br/>value = [0, 0, 157]<br/>class = STAR>, fillcolor="#8139e5"] ;
174 -> 175 ;
176 [label=<field_ID &le; 92.5<br/>gini = 0.064<br/>samples = 30<br/>value = [1, 0, 29]<br/>class = STAR>, fillcolor="#8540e6"] ;
174 -> 176 ;
177 [label=<MJD &le; 55828.5<br/>gini = 0.5<br/>samples = 2<br/>value = [1, 0, 1]<br/>class = GALAXY>, fillcolor="#ffffff"] ;
176 -> 177 ;
178 [label=<gini = 0.0<br/>samples = 1<br/>value = [0, 0, 1]<br/>class = STAR>, fillcolor="#8139e5"] ;
177 -> 178 ;
179 [label=<gini = 0.0<br/>samples = 1<br/>value = [1, 0, 0]<br/>class = GALAXY>, fillcolor="#e58139"] ;
177 -> 179 ;
180 [label=<gini = 0.0<br/>samples = 28<br/>value = [0, 0, 28]<br/>class = STAR>, fillcolor="#8139e5"] ;
176 -> 180 ;
181 [label=<delta &le; -0.954<br/>gini = 0.117<br/>samples = 16<br/>value = [1, 0, 15]<br/>class = STAR>, fillcolor="#8946e7"] ;
165 -> 181 ;
182 [label=<gini = 0.0<br/>samples = 1<br/>value = [1, 0, 0]<br/>class = GALAXY>, fillcolor="#e58139"] ;
181 -> 182 ;
183 [label=<gini = 0.0<br/>samples = 15<br/>value = [0, 0, 15]<br/>class = STAR>, fillcolor="#8139e5"] ;
181 -> 183 ;
184 [label=<alpha &le; 261.044<br/>gini = 0.001<br/>samples = 3688<br/>value = [1, 1, 3686]<br/>class = STAR>, fillcolor="#8139e5"] ;
146 -> 184 ;
185 [label=<gini = 0.0<br/>samples = 3446<br/>value = [0, 0, 3446]<br/>class = STAR>, fillcolor="#8139e5"] ;
184 -> 185 ;
186 [label=<alpha &le; 261.18<br/>gini = 0.016<br/>samples = 242<br/>value = [1, 1, 240]<br/>class = STAR>, fillcolor="#823be5"] ;
184 -> 186 ;
187 [label=<gini = 0.0<br/>samples = 1<br/>value = [1, 0, 0]<br/>class = GALAXY>, fillcolor="#e58139"] ;
186 -> 187 ;
188 [label=<redshift &le; 0.0<br/>gini = 0.008<br/>samples = 241<br/>value = [0, 1, 240]<br/>class = STAR>, fillcolor="#823ae5"] ;
186 -> 188 ;
189 [label=<gini = 0.0<br/>samples = 237<br/>value = [0, 0, 237]<br/>class = STAR>, fillcolor="#8139e5"] ;
188 -> 189 ;
190 [label=<redshift &le; 0.0<br/>gini = 0.375<br/>samples = 4<br/>value = [0, 1, 3]<br/>class = STAR>, fillcolor="#ab7bee"] ;
188 -> 190 ;
191 [label=<gini = 0.0<br/>samples = 1<br/>value = [0, 1, 0]<br/>class = QSO>, fillcolor="#39e581"] ;
190 -> 191 ;
192 [label=<gini = 0.0<br/>samples = 3<br/>value = [0, 0, 3]<br/>class = STAR>, fillcolor="#8139e5"] ;
190 -> 192 ;
193 [label=<i &le; 21.413<br/>gini = 0.024<br/>samples = 248<br/>value = [3, 0, 245]<br/>class = STAR>, fillcolor="#833be5"] ;
145 -> 193 ;
194 [label=<gini = 0.0<br/>samples = 1<br/>value = [1, 0, 0]<br/>class = GALAXY>, fillcolor="#e58139"] ;
193 -> 194 ;
195 [label=<alpha &le; 14.617<br/>gini = 0.016<br/>samples = 247<br/>value = [2, 0, 245]<br/>class = STAR>, fillcolor="#823be5"] ;
193 -> 195 ;
196 [label=<redshift &le; 0.001<br/>gini = 0.18<br/>samples = 10<br/>value = [1, 0, 9]<br/>class = STAR>, fillcolor="#8f4fe8"] ;
195 -> 196 ;
197 [label=<gini = 0.0<br/>samples = 9<br/>value = [0, 0, 9]<br/>class = STAR>, fillcolor="#8139e5"] ;
196 -> 197 ;
198 [label=<gini = 0.0<br/>samples = 1<br/>value = [1, 0, 0]<br/>class = GALAXY>, fillcolor="#e58139"] ;
196 -> 198 ;
199 [label=<delta &le; 51.162<br/>gini = 0.008<br/>samples = 237<br/>value = [1.0, 0.0, 236.0]<br/>class = STAR>, fillcolor="#823ae5"] ;
195 -> 199 ;
200 [label=<gini = 0.0<br/>samples = 226<br/>value = [0, 0, 226]<br/>class = STAR>, fillcolor="#8139e5"] ;
199 -> 200 ;
201 [label=<delta &le; 51.501<br/>gini = 0.165<br/>samples = 11<br/>value = [1, 0, 10]<br/>class = STAR>, fillcolor="#8e4de8"] ;
199 -> 201 ;
202 [label=<gini = 0.0<br/>samples = 1<br/>value = [1, 0, 0]<br/>class = GALAXY>, fillcolor="#e58139"] ;
201 -> 202 ;
203 [label=<gini = 0.0<br/>samples = 10<br/>value = [0, 0, 10]<br/>class = STAR>, fillcolor="#8139e5"] ;
201 -> 203 ;
204 [label=<g &le; 25.114<br/>gini = 0.074<br/>samples = 26<br/>value = [1, 0, 25]<br/>class = STAR>, fillcolor="#8641e6"] ;
144 -> 204 ;
205 [label=<z &le; 20.686<br/>gini = 0.5<br/>samples = 2<br/>value = [1, 0, 1]<br/>class = GALAXY>, fillcolor="#ffffff"] ;
204 -> 205 ;
206 [label=<gini = 0.0<br/>samples = 1<br/>value = [1, 0, 0]<br/>class = GALAXY>, fillcolor="#e58139"] ;
205 -> 206 ;
207 [label=<gini = 0.0<br/>samples = 1<br/>value = [0, 0, 1]<br/>class = STAR>, fillcolor="#8139e5"] ;
205 -> 207 ;
208 [label=<gini = 0.0<br/>samples = 24<br/>value = [0, 0, 24]<br/>class = STAR>, fillcolor="#8139e5"] ;
204 -> 208 ;
209 [label=<alpha &le; 357.848<br/>gini = 0.08<br/>samples = 24<br/>value = [1, 0, 23]<br/>class = STAR>, fillcolor="#8642e6"] ;
143 -> 209 ;
210 [label=<gini = 0.0<br/>samples = 1<br/>value = [1, 0, 0]<br/>class = GALAXY>, fillcolor="#e58139"] ;
209 -> 210 ;
211 [label=<gini = 0.0<br/>samples = 23<br/>value = [0, 0, 23]<br/>class = STAR>, fillcolor="#8139e5"] ;
209 -> 211 ;
212 [label=<alpha &le; 122.559<br/>gini = 0.105<br/>samples = 18<br/>value = [1, 0, 17]<br/>class = STAR>, fillcolor="#8845e7"] ;
142 -> 212 ;
213 [label=<gini = 0.0<br/>samples = 1<br/>value = [1, 0, 0]<br/>class = GALAXY>, fillcolor="#e58139"] ;
212 -> 213 ;
214 [label=<gini = 0.0<br/>samples = 17<br/>value = [0, 0, 17]<br/>class = STAR>, fillcolor="#8139e5"] ;
212 -> 214 ;
215 [label=<g &le; 22.044<br/>gini = 0.219<br/>samples = 8<br/>value = [1, 0, 7]<br/>class = STAR>, fillcolor="#9355e9"] ;
141 -> 215 ;
216 [label=<gini = 0.0<br/>samples = 7<br/>value = [0, 0, 7]<br/>class = STAR>, fillcolor="#8139e5"] ;
215 -> 216 ;
217 [label=<gini = 0.0<br/>samples = 1<br/>value = [1, 0, 0]<br/>class = GALAXY>, fillcolor="#e58139"] ;
215 -> 217 ;
218 [label=<delta &le; 50.807<br/>gini = 0.101<br/>samples = 207<br/>value = [10, 1, 196]<br/>class = STAR>, fillcolor="#8844e6"] ;
140 -> 218 ;
219 [label=<r &le; 23.528<br/>gini = 0.061<br/>samples = 193<br/>value = [5, 1, 187]<br/>class = STAR>, fillcolor="#853fe6"] ;
218 -> 219 ;
220 [label=<redshift &le; 0.001<br/>gini = 0.051<br/>samples = 192<br/>value = [4, 1, 187]<br/>class = STAR>, fillcolor="#843ee6"] ;
219 -> 220 ;
221 [label=<gini = 0.0<br/>samples = 1<br/>value = [1, 0, 0]<br/>class = GALAXY>, fillcolor="#e58139"] ;
220 -> 221 ;
222 [label=<MJD &le; 57897.0<br/>gini = 0.041<br/>samples = 191<br/>value = [3, 1, 187]<br/>class = STAR>, fillcolor="#843de6"] ;
220 -> 222 ;
223 [label=<redshift &le; 0.002<br/>gini = 0.012<br/>samples = 171<br/>value = [0, 1, 170]<br/>class = STAR>, fillcolor="#823ae5"] ;
222 -> 223 ;
224 [label=<gini = 0.0<br/>samples = 159<br/>value = [0, 0, 159]<br/>class = STAR>, fillcolor="#8139e5"] ;
223 -> 224 ;
225 [label=<redshift &le; 0.002<br/>gini = 0.153<br/>samples = 12<br/>value = [0, 1, 11]<br/>class = STAR>, fillcolor="#8c4be7"] ;
223 -> 225 ;
226 [label=<gini = 0.0<br/>samples = 1<br/>value = [0, 1, 0]<br/>class = QSO>, fillcolor="#39e581"] ;
225 -> 226 ;
227 [label=<gini = 0.0<br/>samples = 11<br/>value = [0, 0, 11]<br/>class = STAR>, fillcolor="#8139e5"] ;
225 -> 227 ;
228 [label=<MJD &le; 58073.5<br/>gini = 0.255<br/>samples = 20<br/>value = [3, 0, 17]<br/>class = STAR>, fillcolor="#975cea"] ;
222 -> 228 ;
229 [label=<gini = 0.0<br/>samples = 2<br/>value = [2, 0, 0]<br/>class = GALAXY>, fillcolor="#e58139"] ;
228 -> 229 ;
230 [label=<redshift &le; 0.001<br/>gini = 0.105<br/>samples = 18<br/>value = [1, 0, 17]<br/>class = STAR>, fillcolor="#8845e7"] ;
228 -> 230 ;
231 [label=<z &le; 19.369<br/>gini = 0.5<br/>samples = 2<br/>value = [1, 0, 1]<br/>class = GALAXY>, fillcolor="#ffffff"] ;
230 -> 231 ;
232 [label=<gini = 0.0<br/>samples = 1<br/>value = [0, 0, 1]<br/>class = STAR>, fillcolor="#8139e5"] ;
231 -> 232 ;
233 [label=<gini = 0.0<br/>samples = 1<br/>value = [1, 0, 0]<br/>class = GALAXY>, fillcolor="#e58139"] ;
231 -> 233 ;
234 [label=<gini = 0.0<br/>samples = 16<br/>value = [0, 0, 16]<br/>class = STAR>, fillcolor="#8139e5"] ;
230 -> 234 ;
235 [label=<gini = 0.0<br/>samples = 1<br/>value = [1, 0, 0]<br/>class = GALAXY>, fillcolor="#e58139"] ;
219 -> 235 ;
236 [label=<z &le; 19.947<br/>gini = 0.459<br/>samples = 14<br/>value = [5, 0, 9]<br/>class = STAR>, fillcolor="#c7a7f3"] ;
218 -> 236 ;
237 [label=<gini = 0.0<br/>samples = 3<br/>value = [3, 0, 0]<br/>class = GALAXY>, fillcolor="#e58139"] ;
236 -> 237 ;
238 [label=<z &le; 21.821<br/>gini = 0.298<br/>samples = 11<br/>value = [2, 0, 9]<br/>class = STAR>, fillcolor="#9d65eb"] ;
236 -> 238 ;
239 [label=<gini = 0.0<br/>samples = 8<br/>value = [0, 0, 8]<br/>class = STAR>, fillcolor="#8139e5"] ;
238 -> 239 ;
240 [label=<redshift &le; 0.001<br/>gini = 0.444<br/>samples = 3<br/>value = [2, 0, 1]<br/>class = GALAXY>, fillcolor="#f2c09c"] ;
238 -> 240 ;
241 [label=<gini = 0.0<br/>samples = 2<br/>value = [2, 0, 0]<br/>class = GALAXY>, fillcolor="#e58139"] ;
240 -> 241 ;
242 [label=<gini = 0.0<br/>samples = 1<br/>value = [0, 0, 1]<br/>class = STAR>, fillcolor="#8139e5"] ;
240 -> 242 ;
243 [label=<g &le; 17.079<br/>gini = 0.387<br/>samples = 84<br/>value = [22, 0, 62]<br/>class = STAR>, fillcolor="#ae7fee"] ;
139 -> 243 ;
244 [label=<redshift &le; 0.004<br/>gini = 0.18<br/>samples = 10<br/>value = [9, 0, 1]<br/>class = GALAXY>, fillcolor="#e88f4f"] ;
243 -> 244 ;
245 [label=<gini = 0.0<br/>samples = 9<br/>value = [9, 0, 0]<br/>class = GALAXY>, fillcolor="#e58139"] ;
244 -> 245 ;
246 [label=<gini = 0.0<br/>samples = 1<br/>value = [0, 0, 1]<br/>class = STAR>, fillcolor="#8139e5"] ;
244 -> 246 ;
247 [label=<alpha &le; 147.624<br/>gini = 0.29<br/>samples = 74<br/>value = [13, 0, 61]<br/>class = STAR>, fillcolor="#9c63eb"] ;
243 -> 247 ;
248 [label=<u &le; 25.216<br/>gini = 0.064<br/>samples = 30<br/>value = [1, 0, 29]<br/>class = STAR>, fillcolor="#8540e6"] ;
247 -> 248 ;
249 [label=<gini = 0.0<br/>samples = 28<br/>value = [0, 0, 28]<br/>class = STAR>, fillcolor="#8139e5"] ;
248 -> 249 ;
250 [label=<z &le; 20.791<br/>gini = 0.5<br/>samples = 2<br/>value = [1, 0, 1]<br/>class = GALAXY>, fillcolor="#ffffff"] ;
248 -> 250 ;
251 [label=<gini = 0.0<br/>samples = 1<br/>value = [0, 0, 1]<br/>class = STAR>, fillcolor="#8139e5"] ;
250 -> 251 ;
252 [label=<gini = 0.0<br/>samples = 1<br/>value = [1, 0, 0]<br/>class = GALAXY>, fillcolor="#e58139"] ;
250 -> 252 ;
253 [label=<alpha &le; 196.412<br/>gini = 0.397<br/>samples = 44<br/>value = [12, 0, 32]<br/>class = STAR>, fillcolor="#b083ef"] ;
247 -> 253 ;
254 [label=<alpha &le; 170.67<br/>gini = 0.497<br/>samples = 24<br/>value = [11, 0, 13]<br/>class = STAR>, fillcolor="#ece1fb"] ;
253 -> 254 ;
255 [label=<redshift &le; 0.004<br/>gini = 0.298<br/>samples = 11<br/>value = [2, 0, 9]<br/>class = STAR>, fillcolor="#9d65eb"] ;
254 -> 255 ;
256 [label=<obj_ID &le; 1.2376695931330888e+18<br/>gini = 0.18<br/>samples = 10<br/>value = [1, 0, 9]<br/>class = STAR>, fillcolor="#8f4fe8"] ;
255 -> 256 ;
257 [label=<gini = 0.0<br/>samples = 9<br/>value = [0, 0, 9]<br/>class = STAR>, fillcolor="#8139e5"] ;
256 -> 257 ;
258 [label=<gini = 0.0<br/>samples = 1<br/>value = [1, 0, 0]<br/>class = GALAXY>, fillcolor="#e58139"] ;
256 -> 258 ;
259 [label=<gini = 0.0<br/>samples = 1<br/>value = [1, 0, 0]<br/>class = GALAXY>, fillcolor="#e58139"] ;
255 -> 259 ;
260 [label=<g &le; 17.576<br/>gini = 0.426<br/>samples = 13<br/>value = [9, 0, 4]<br/>class = GALAXY>, fillcolor="#f1b991"] ;
254 -> 260 ;
261 [label=<gini = 0.0<br/>samples = 2<br/>value = [0, 0, 2]<br/>class = STAR>, fillcolor="#8139e5"] ;
260 -> 261 ;
262 [label=<u &le; 22.535<br/>gini = 0.298<br/>samples = 11<br/>value = [9, 0, 2]<br/>class = GALAXY>, fillcolor="#eb9d65"] ;
260 -> 262 ;
263 [label=<gini = 0.0<br/>samples = 8<br/>value = [8, 0, 0]<br/>class = GALAXY>, fillcolor="#e58139"] ;
262 -> 263 ;
264 [label=<obj_ID &le; 1.2376582544194273e+18<br/>gini = 0.444<br/>samples = 3<br/>value = [1, 0, 2]<br/>class = STAR>, fillcolor="#c09cf2"] ;
262 -> 264 ;
265 [label=<gini = 0.0<br/>samples = 1<br/>value = [1, 0, 0]<br/>class = GALAXY>, fillcolor="#e58139"] ;
264 -> 265 ;
266 [label=<gini = 0.0<br/>samples = 2<br/>value = [0, 0, 2]<br/>class = STAR>, fillcolor="#8139e5"] ;
264 -> 266 ;
267 [label=<alpha &le; 354.62<br/>gini = 0.095<br/>samples = 20<br/>value = [1, 0, 19]<br/>class = STAR>, fillcolor="#8843e6"] ;
253 -> 267 ;
268 [label=<gini = 0.0<br/>samples = 18<br/>value = [0, 0, 18]<br/>class = STAR>, fillcolor="#8139e5"] ;
267 -> 268 ;
269 [label=<cam_col &le; 2.5<br/>gini = 0.5<br/>samples = 2<br/>value = [1, 0, 1]<br/>class = GALAXY>, fillcolor="#ffffff"] ;
267 -> 269 ;
270 [label=<gini = 0.0<br/>samples = 1<br/>value = [1, 0, 0]<br/>class = GALAXY>, fillcolor="#e58139"] ;
269 -> 270 ;
271 [label=<gini = 0.0<br/>samples = 1<br/>value = [0, 0, 1]<br/>class = STAR>, fillcolor="#8139e5"] ;
269 -> 271 ;
272 [label=<redshift &le; 1.001<br/>gini = 0.368<br/>samples = 62338<br/>value = [47176, 15162, 0]<br/>class = GALAXY>, fillcolor="#eda979"] ;
0 -> 272 [labeldistance=2.5, labelangle=-45, headlabel="False"] ;
273 [label=<redshift &le; 0.706<br/>gini = 0.117<br/>samples = 49555<br/>value = [46468, 3087, 0]<br/>class = GALAXY>, fillcolor="#e78946"] ;
272 -> 273 ;
274 [label=<z &le; 19.989<br/>gini = 0.07<br/>samples = 42375<br/>value = [40834, 1541, 0]<br/>class = GALAXY>, fillcolor="#e68640"] ;
273 -> 274 ;
275 [label=<spec_obj_ID &le; 8.146086761756361e+18<br/>gini = 0.054<br/>samples = 40018<br/>value = [38913, 1105, 0]<br/>class = GALAXY>, fillcolor="#e6853f"] ;
274 -> 275 ;
276 [label=<u &le; 21.85<br/>gini = 0.041<br/>samples = 37048<br/>value = [36266, 782, 0]<br/>class = GALAXY>, fillcolor="#e6843d"] ;
275 -> 276 ;
277 [label=<redshift &le; 0.348<br/>gini = 0.077<br/>samples = 15237<br/>value = [14627, 610, 0]<br/>class = GALAXY>, fillcolor="#e68641"] ;
276 -> 277 ;
278 [label=<z &le; 17.446<br/>gini = 0.033<br/>samples = 14220<br/>value = [13979, 241, 0]<br/>class = GALAXY>, fillcolor="#e5833c"] ;
277 -> 278 ;
279 [label=<redshift &le; 0.307<br/>gini = 0.018<br/>samples = 12884<br/>value = [12765.0, 119.0, 0.0]<br/>class = GALAXY>, fillcolor="#e5823b"] ;
278 -> 279 ;
280 [label=<u &le; 18.924<br/>gini = 0.017<br/>samples = 12810<br/>value = [12701, 109, 0]<br/>class = GALAXY>, fillcolor="#e5823b"] ;
279 -> 280 ;
281 [label=<redshift &le; 0.19<br/>gini = 0.038<br/>samples = 2785<br/>value = [2731.0, 54.0, 0.0]<br/>class = GALAXY>, fillcolor="#e6833d"] ;
280 -> 281 ;
282 [label=<g &le; 18.07<br/>gini = 0.029<br/>samples = 2769<br/>value = [2728, 41, 0]<br/>class = GALAXY>, fillcolor="#e5833c"] ;
281 -> 282 ;
283 [label=<redshift &le; 0.121<br/>gini = 0.026<br/>samples = 2763<br/>value = [2726, 37, 0]<br/>class = GALAXY>, fillcolor="#e5833c"] ;
282 -> 283 ;
284 [label=<delta &le; -10.464<br/>gini = 0.019<br/>samples = 2653<br/>value = [2628, 25, 0]<br/>class = GALAXY>, fillcolor="#e5823b"] ;
283 -> 284 ;
285 [label=<gini = 0.0<br/>samples = 1<br/>value = [0, 1, 0]<br/>class = QSO>, fillcolor="#39e581"] ;
284 -> 285 ;
286 [label=<fiber_ID &le; 638.5<br/>gini = 0.018<br/>samples = 2652<br/>value = [2628.0, 24.0, 0.0]<br/>class = GALAXY>, fillcolor="#e5823b"] ;
284 -> 286 ;
287 [label=<redshift &le; 0.051<br/>gini = 0.016<br/>samples = 2610<br/>value = [2589, 21, 0]<br/>class = GALAXY>, fillcolor="#e5823b"] ;
286 -> 287 ;
288 [label=<u &le; 17.109<br/>gini = 0.002<br/>samples = 1199<br/>value = [1198, 1, 0]<br/>class = GALAXY>, fillcolor="#e58139"] ;
287 -> 288 ;
289 [label=<u &le; 17.104<br/>gini = 0.009<br/>samples = 228<br/>value = [227, 1, 0]<br/>class = GALAXY>, fillcolor="#e5823a"] ;
288 -> 289 ;
290 [label=<gini = 0.0<br/>samples = 227<br/>value = [227, 0, 0]<br/>class = GALAXY>, fillcolor="#e58139"] ;
289 -> 290 ;
291 [label=<gini = 0.0<br/>samples = 1<br/>value = [0, 1, 0]<br/>class = QSO>, fillcolor="#39e581"] ;
289 -> 291 ;
292 [label=<gini = 0.0<br/>samples = 971<br/>value = [971, 0, 0]<br/>class = GALAXY>, fillcolor="#e58139"] ;
288 -> 292 ;
293 [label=<redshift &le; 0.051<br/>gini = 0.028<br/>samples = 1411<br/>value = [1391, 20, 0]<br/>class = GALAXY>, fillcolor="#e5833c"] ;
287 -> 293 ;
294 [label=<gini = 0.0<br/>samples = 2<br/>value = [0, 2, 0]<br/>class = QSO>, fillcolor="#39e581"] ;
293 -> 294 ;
295 [label=<u &le; 16.408<br/>gini = 0.025<br/>samples = 1409<br/>value = [1391, 18, 0]<br/>class = GALAXY>, fillcolor="#e5833c"] ;
293 -> 295 ;
296 [label=<gini = 0.0<br/>samples = 1<br/>value = [0, 1, 0]<br/>class = QSO>, fillcolor="#39e581"] ;
295 -> 296 ;
297 [label=<MJD &le; 51681.5<br/>gini = 0.024<br/>samples = 1408<br/>value = [1391, 17, 0]<br/>class = GALAXY>, fillcolor="#e5833b"] ;
295 -> 297 ;
298 [label=<field_ID &le; 66.5<br/>gini = 0.444<br/>samples = 3<br/>value = [2, 1, 0]<br/>class = GALAXY>, fillcolor="#f2c09c"] ;
297 -> 298 ;
299 [label=<gini = 0.0<br/>samples = 1<br/>value = [0, 1, 0]<br/>class = QSO>, fillcolor="#39e581"] ;
298 -> 299 ;
300 [label=<gini = 0.0<br/>samples = 2<br/>value = [2, 0, 0]<br/>class = GALAXY>, fillcolor="#e58139"] ;
298 -> 300 ;
301 [label=<u &le; 17.064<br/>gini = 0.023<br/>samples = 1405<br/>value = [1389, 16, 0]<br/>class = GALAXY>, fillcolor="#e5823b"] ;
297 -> 301 ;
302 [label=<r &le; 15.389<br/>gini = 0.245<br/>samples = 14<br/>value = [12, 2, 0]<br/>class = GALAXY>, fillcolor="#e9965a"] ;
301 -> 302 ;
303 [label=<gini = 0.0<br/>samples = 11<br/>value = [11, 0, 0]<br/>class = GALAXY>, fillcolor="#e58139"] ;
302 -> 303 ;
304 [label=<MJD &le; 53013.0<br/>gini = 0.444<br/>samples = 3<br/>value = [1, 2, 0]<br/>class = QSO>, fillcolor="#9cf2c0"] ;
302 -> 304 ;
305 [label=<gini = 0.0<br/>samples = 1<br/>value = [1, 0, 0]<br/>class = GALAXY>, fillcolor="#e58139"] ;
304 -> 305 ;
306 [label=<gini = 0.0<br/>samples = 2<br/>value = [0, 2, 0]<br/>class = QSO>, fillcolor="#39e581"] ;
304 -> 306 ;
307 [label=<u &le; 18.034<br/>gini = 0.02<br/>samples = 1391<br/>value = [1377.0, 14.0, 0.0]<br/>class = GALAXY>, fillcolor="#e5823b"] ;
301 -> 307 ;
308 [label=<u &le; 18.033<br/>gini = 0.054<br/>samples = 217<br/>value = [211, 6, 0]<br/>class = GALAXY>, fillcolor="#e6853f"] ;
307 -> 308 ;
309 [label=<g &le; 17.235<br/>gini = 0.045<br/>samples = 216<br/>value = [211, 5, 0]<br/>class = GALAXY>, fillcolor="#e6843e"] ;
308 -> 309 ;
310 [label=<redshift &le; 0.105<br/>gini = 0.037<br/>samples = 214<br/>value = [210.0, 4.0, 0.0]<br/>class = GALAXY>, fillcolor="#e5833d"] ;
309 -> 310 ;
311 [label=<g &le; 16.93<br/>gini = 0.028<br/>samples = 211<br/>value = [208, 3, 0]<br/>class = GALAXY>, fillcolor="#e5833c"] ;
310 -> 311 ;
312 [label=<alpha &le; 226.267<br/>gini = 0.019<br/>samples = 204<br/>value = [202, 2, 0]<br/>class = GALAXY>, fillcolor="#e5823b"] ;
311 -> 312 ;
313 [label=<gini = 0.0<br/>samples = 164<br/>value = [164, 0, 0]<br/>class = GALAXY>, fillcolor="#e58139"] ;
312 -> 313 ;
314 [label=<alpha &le; 227.717<br/>gini = 0.095<br/>samples = 40<br/>value = [38, 2, 0]<br/>class = GALAXY>, fillcolor="#e68843"] ;
312 -> 314 ;
315 [label=<gini = 0.0<br/>samples = 1<br/>value = [0, 1, 0]<br/>class = QSO>, fillcolor="#39e581"] ;
314 -> 315 ;
316 [label=<redshift &le; 0.056<br/>gini = 0.05<br/>samples = 39<br/>value = [38, 1, 0]<br/>class = GALAXY>, fillcolor="#e6843e"] ;
314 -> 316 ;
317 [label=<redshift &le; 0.055<br/>gini = 0.198<br/>samples = 9<br/>value = [8, 1, 0]<br/>class = GALAXY>, fillcolor="#e89152"] ;
316 -> 317 ;
318 [label=<gini = 0.0<br/>samples = 8<br/>value = [8, 0, 0]<br/>class = GALAXY>, fillcolor="#e58139"] ;
317 -> 318 ;
319 [label=<gini = 0.0<br/>samples = 1<br/>value = [0, 1, 0]<br/>class = QSO>, fillcolor="#39e581"] ;
317 -> 319 ;
320 [label=<gini = 0.0<br/>samples = 30<br/>value = [30, 0, 0]<br/>class = GALAXY>, fillcolor="#e58139"] ;
316 -> 320 ;
321 [label=<g &le; 16.942<br/>gini = 0.245<br/>samples = 7<br/>value = [6, 1, 0]<br/>class = GALAXY>, fillcolor="#e9965a"] ;
311 -> 321 ;
322 [label=<gini = 0.0<br/>samples = 1<br/>value = [0, 1, 0]<br/>class = QSO>, fillcolor="#39e581"] ;
321 -> 322 ;
323 [label=<gini = 0.0<br/>samples = 6<br/>value = [6, 0, 0]<br/>class = GALAXY>, fillcolor="#e58139"] ;
321 -> 323 ;
324 [label=<z &le; 15.239<br/>gini = 0.444<br/>samples = 3<br/>value = [2, 1, 0]<br/>class = GALAXY>, fillcolor="#f2c09c"] ;
310 -> 324 ;
325 [label=<gini = 0.0<br/>samples = 1<br/>value = [0, 1, 0]<br/>class = QSO>, fillcolor="#39e581"] ;
324 -> 325 ;
326 [label=<gini = 0.0<br/>samples = 2<br/>value = [2, 0, 0]<br/>class = GALAXY>, fillcolor="#e58139"] ;
324 -> 326 ;
327 [label=<spec_obj_ID &le; 1.221093184034046e+18<br/>gini = 0.5<br/>samples = 2<br/>value = [1, 1, 0]<br/>class = GALAXY>, fillcolor="#ffffff"] ;
309 -> 327 ;
328 [label=<gini = 0.0<br/>samples = 1<br/>value = [1, 0, 0]<br/>class = GALAXY>, fillcolor="#e58139"] ;
327 -> 328 ;
329 [label=<gini = 0.0<br/>samples = 1<br/>value = [0, 1, 0]<br/>class = QSO>, fillcolor="#39e581"] ;
327 -> 329 ;
330 [label=<gini = 0.0<br/>samples = 1<br/>value = [0, 1, 0]<br/>class = QSO>, fillcolor="#39e581"] ;
308 -> 330 ;
331 [label=<obj_ID &le; 1.2376766025197158e+18<br/>gini = 0.014<br/>samples = 1174<br/>value = [1166, 8, 0]<br/>class = GALAXY>, fillcolor="#e5823a"] ;
307 -> 331 ;
332 [label=<run_ID &le; 1403.0<br/>gini = 0.012<br/>samples = 1163<br/>value = [1156, 7, 0]<br/>class = GALAXY>, fillcolor="#e5823a"] ;
331 -> 332 ;
333 [label=<delta &le; 52.064<br/>gini = 0.089<br/>samples = 43<br/>value = [41, 2, 0]<br/>class = GALAXY>, fillcolor="#e68743"] ;
332 -> 333 ;
334 [label=<gini = 0.0<br/>samples = 37<br/>value = [37, 0, 0]<br/>class = GALAXY>, fillcolor="#e58139"] ;
333 -> 334 ;
335 [label=<r &le; 16.488<br/>gini = 0.444<br/>samples = 6<br/>value = [4, 2, 0]<br/>class = GALAXY>, fillcolor="#f2c09c"] ;
333 -> 335 ;
336 [label=<gini = 0.0<br/>samples = 2<br/>value = [0, 2, 0]<br/>class = QSO>, fillcolor="#39e581"] ;
335 -> 336 ;
337 [label=<gini = 0.0<br/>samples = 4<br/>value = [4, 0, 0]<br/>class = GALAXY>, fillcolor="#e58139"] ;
335 -> 337 ;
338 [label=<run_ID &le; 4511.0<br/>gini = 0.009<br/>samples = 1120<br/>value = [1115, 5, 0]<br/>class = GALAXY>, fillcolor="#e5823a"] ;
332 -> 338 ;
339 [label=<gini = 0.0<br/>samples = 757<br/>value = [757, 0, 0]<br/>class = GALAXY>, fillcolor="#e58139"] ;
338 -> 339 ;
340 [label=<delta &le; 33.166<br/>gini = 0.027<br/>samples = 363<br/>value = [358, 5, 0]<br/>class = GALAXY>, fillcolor="#e5833c"] ;
338 -> 340 ;
341 [label=<spec_obj_ID &le; 3.143620292044128e+18<br/>gini = 0.013<br/>samples = 317<br/>value = [315, 2, 0]<br/>class = GALAXY>, fillcolor="#e5823a"] ;
340 -> 341 ;
342 [label=<u &le; 18.895<br/>gini = 0.007<br/>samples = 303<br/>value = [302, 1, 0]<br/>class = GALAXY>, fillcolor="#e5813a"] ;
341 -> 342 ;
343 [label=<gini = 0.0<br/>samples = 284<br/>value = [284, 0, 0]<br/>class = GALAXY>, fillcolor="#e58139"] ;
342 -> 343 ;
344 [label=<u &le; 18.897<br/>gini = 0.1<br/>samples = 19<br/>value = [18, 1, 0]<br/>class = GALAXY>, fillcolor="#e68844"] ;
342 -> 344 ;
345 [label=<gini = 0.0<br/>samples = 1<br/>value = [0, 1, 0]<br/>class = QSO>, fillcolor="#39e581"] ;
344 -> 345 ;
346 [label=<gini = 0.0<br/>samples = 18<br/>value = [18, 0, 0]<br/>class = GALAXY>, fillcolor="#e58139"] ;
344 -> 346 ;
347 [label=<spec_obj_ID &le; 3.144726125863764e+18<br/>gini = 0.133<br/>samples = 14<br/>value = [13, 1, 0]<br/>class = GALAXY>, fillcolor="#e78b48"] ;
341 -> 347 ;
348 [label=<gini = 0.0<br/>samples = 1<br/>value = [0, 1, 0]<br/>class = QSO>, fillcolor="#39e581"] ;
347 -> 348 ;
349 [label=<gini = 0.0<br/>samples = 13<br/>value = [13, 0, 0]<br/>class = GALAXY>, fillcolor="#e58139"] ;
347 -> 349 ;
350 [label=<delta &le; 33.242<br/>gini = 0.122<br/>samples = 46<br/>value = [43, 3, 0]<br/>class = GALAXY>, fillcolor="#e78a47"] ;
340 -> 350 ;
351 [label=<gini = 0.0<br/>samples = 1<br/>value = [0, 1, 0]<br/>class = QSO>, fillcolor="#39e581"] ;
350 -> 351 ;
352 [label=<fiber_ID &le; 396.5<br/>gini = 0.085<br/>samples = 45<br/>value = [43, 2, 0]<br/>class = GALAXY>, fillcolor="#e68742"] ;
350 -> 352 ;
353 [label=<gini = 0.0<br/>samples = 31<br/>value = [31, 0, 0]<br/>class = GALAXY>, fillcolor="#e58139"] ;
352 -> 353 ;
354 [label=<cam_col &le; 3.5<br/>gini = 0.245<br/>samples = 14<br/>value = [12, 2, 0]<br/>class = GALAXY>, fillcolor="#e9965a"] ;
352 -> 354 ;
355 [label=<gini = 0.0<br/>samples = 11<br/>value = [11, 0, 0]<br/>class = GALAXY>, fillcolor="#e58139"] ;
354 -> 355 ;
356 [label=<i &le; 16.477<br/>gini = 0.444<br/>samples = 3<br/>value = [1, 2, 0]<br/>class = QSO>, fillcolor="#9cf2c0"] ;
354 -> 356 ;
357 [label=<gini = 0.0<br/>samples = 2<br/>value = [0, 2, 0]<br/>class = QSO>, fillcolor="#39e581"] ;
356 -> 357 ;
358 [label=<gini = 0.0<br/>samples = 1<br/>value = [1, 0, 0]<br/>class = GALAXY>, fillcolor="#e58139"] ;
356 -> 358 ;
359 [label=<field_ID &le; 428.5<br/>gini = 0.165<br/>samples = 11<br/>value = [10, 1, 0]<br/>class = GALAXY>, fillcolor="#e88e4d"] ;
331 -> 359 ;
360 [label=<gini = 0.0<br/>samples = 10<br/>value = [10, 0, 0]<br/>class = GALAXY>, fillcolor="#e58139"] ;
359 -> 360 ;
361 [label=<gini = 0.0<br/>samples = 1<br/>value = [0, 1, 0]<br/>class = QSO>, fillcolor="#39e581"] ;
359 -> 361 ;
362 [label=<plate &le; 352.5<br/>gini = 0.133<br/>samples = 42<br/>value = [39, 3, 0]<br/>class = GALAXY>, fillcolor="#e78b48"] ;
286 -> 362 ;
363 [label=<gini = 0.0<br/>samples = 1<br/>value = [0, 1, 0]<br/>class = QSO>, fillcolor="#39e581"] ;
362 -> 363 ;
364 [label=<field_ID &le; 26.5<br/>gini = 0.093<br/>samples = 41<br/>value = [39, 2, 0]<br/>class = GALAXY>, fillcolor="#e68743"] ;
362 -> 364 ;
365 [label=<cam_col &le; 3.5<br/>gini = 0.5<br/>samples = 2<br/>value = [1, 1, 0]<br/>class = GALAXY>, fillcolor="#ffffff"] ;
364 -> 365 ;
366 [label=<gini = 0.0<br/>samples = 1<br/>value = [0, 1, 0]<br/>class = QSO>, fillcolor="#39e581"] ;
365 -> 366 ;
367 [label=<gini = 0.0<br/>samples = 1<br/>value = [1, 0, 0]<br/>class = GALAXY>, fillcolor="#e58139"] ;
365 -> 367 ;
368 [label=<u &le; 16.186<br/>gini = 0.05<br/>samples = 39<br/>value = [38, 1, 0]<br/>class = GALAXY>, fillcolor="#e6843e"] ;
364 -> 368 ;
369 [label=<obj_ID &le; 1.2376657448423916e+18<br/>gini = 0.444<br/>samples = 3<br/>value = [2, 1, 0]<br/>class = GALAXY>, fillcolor="#f2c09c"] ;
368 -> 369 ;
370 [label=<gini = 0.0<br/>samples = 2<br/>value = [2, 0, 0]<br/>class = GALAXY>, fillcolor="#e58139"] ;
369 -> 370 ;
371 [label=<gini = 0.0<br/>samples = 1<br/>value = [0, 1, 0]<br/>class = QSO>, fillcolor="#39e581"] ;
369 -> 371 ;
372 [label=<gini = 0.0<br/>samples = 36<br/>value = [36, 0, 0]<br/>class = GALAXY>, fillcolor="#e58139"] ;
368 -> 372 ;
373 [label=<u &le; 18.291<br/>gini = 0.194<br/>samples = 110<br/>value = [98, 12, 0]<br/>class = GALAXY>, fillcolor="#e89051"] ;
283 -> 373 ;
374 [label=<delta &le; 45.201<br/>gini = 0.473<br/>samples = 13<br/>value = [5, 8, 0]<br/>class = QSO>, fillcolor="#b5f5d0"] ;
373 -> 374 ;
375 [label=<fiber_ID &le; 336.0<br/>gini = 0.32<br/>samples = 10<br/>value = [2, 8, 0]<br/>class = QSO>, fillcolor="#6aeca0"] ;
374 -> 375 ;
376 [label=<alpha &le; 204.407<br/>gini = 0.444<br/>samples = 3<br/>value = [2, 1, 0]<br/>class = GALAXY>, fillcolor="#f2c09c"] ;
375 -> 376 ;
377 [label=<gini = 0.0<br/>samples = 1<br/>value = [0, 1, 0]<br/>class = QSO>, fillcolor="#39e581"] ;
376 -> 377 ;
378 [label=<gini = 0.0<br/>samples = 2<br/>value = [2, 0, 0]<br/>class = GALAXY>, fillcolor="#e58139"] ;
376 -> 378 ;
379 [label=<gini = 0.0<br/>samples = 7<br/>value = [0, 7, 0]<br/>class = QSO>, fillcolor="#39e581"] ;
375 -> 379 ;
380 [label=<gini = 0.0<br/>samples = 3<br/>value = [3, 0, 0]<br/>class = GALAXY>, fillcolor="#e58139"] ;
374 -> 380 ;
381 [label=<u &le; 18.923<br/>gini = 0.079<br/>samples = 97<br/>value = [93, 4, 0]<br/>class = GALAXY>, fillcolor="#e68642"] ;
373 -> 381 ;
382 [label=<redshift &le; 0.122<br/>gini = 0.061<br/>samples = 96<br/>value = [93, 3, 0]<br/>class = GALAXY>, fillcolor="#e6853f"] ;
381 -> 382 ;
383 [label=<gini = 0.0<br/>samples = 1<br/>value = [0, 1, 0]<br/>class = QSO>, fillcolor="#39e581"] ;
382 -> 383 ;
384 [label=<fiber_ID &le; 44.0<br/>gini = 0.041<br/>samples = 95<br/>value = [93, 2, 0]<br/>class = GALAXY>, fillcolor="#e6843d"] ;
382 -> 384 ;
385 [label=<u &le; 18.525<br/>gini = 0.5<br/>samples = 2<br/>value = [1, 1, 0]<br/>class = GALAXY>, fillcolor="#ffffff"] ;
384 -> 385 ;
386 [label=<gini = 0.0<br/>samples = 1<br/>value = [1, 0, 0]<br/>class = GALAXY>, fillcolor="#e58139"] ;
385 -> 386 ;
387 [label=<gini = 0.0<br/>samples = 1<br/>value = [0, 1, 0]<br/>class = QSO>, fillcolor="#39e581"] ;
385 -> 387 ;
388 [label=<u &le; 18.415<br/>gini = 0.021<br/>samples = 93<br/>value = [92, 1, 0]<br/>class = GALAXY>, fillcolor="#e5823b"] ;
384 -> 388 ;
389 [label=<u &le; 18.398<br/>gini = 0.375<br/>samples = 4<br/>value = [3, 1, 0]<br/>class = GALAXY>, fillcolor="#eeab7b"] ;
388 -> 389 ;
390 [label=<gini = 0.0<br/>samples = 3<br/>value = [3, 0, 0]<br/>class = GALAXY>, fillcolor="#e58139"] ;
389 -> 390 ;
391 [label=<gini = 0.0<br/>samples = 1<br/>value = [0, 1, 0]<br/>class = QSO>, fillcolor="#39e581"] ;
389 -> 391 ;
392 [label=<gini = 0.0<br/>samples = 89<br/>value = [89, 0, 0]<br/>class = GALAXY>, fillcolor="#e58139"] ;
388 -> 392 ;
393 [label=<gini = 0.0<br/>samples = 1<br/>value = [0, 1, 0]<br/>class = QSO>, fillcolor="#39e581"] ;
381 -> 393 ;
394 [label=<alpha &le; 210.569<br/>gini = 0.444<br/>samples = 6<br/>value = [2, 4, 0]<br/>class = QSO>, fillcolor="#9cf2c0"] ;
282 -> 394 ;
395 [label=<gini = 0.0<br/>samples = 3<br/>value = [0, 3, 0]<br/>class = QSO>, fillcolor="#39e581"] ;
394 -> 395 ;
396 [label=<MJD &le; 54060.0<br/>gini = 0.444<br/>samples = 3<br/>value = [2, 1, 0]<br/>class = GALAXY>, fillcolor="#f2c09c"] ;
394 -> 396 ;
397 [label=<gini = 0.0<br/>samples = 2<br/>value = [2, 0, 0]<br/>class = GALAXY>, fillcolor="#e58139"] ;
396 -> 397 ;
398 [label=<gini = 0.0<br/>samples = 1<br/>value = [0, 1, 0]<br/>class = QSO>, fillcolor="#39e581"] ;
396 -> 398 ;
399 [label=<u &le; 18.799<br/>gini = 0.305<br/>samples = 16<br/>value = [3, 13, 0]<br/>class = QSO>, fillcolor="#67eb9e"] ;
281 -> 399 ;
400 [label=<gini = 0.0<br/>samples = 12<br/>value = [0, 12, 0]<br/>class = QSO>, fillcolor="#39e581"] ;
399 -> 400 ;
401 [label=<spec_obj_ID &le; 2.1826058976818627e+18<br/>gini = 0.375<br/>samples = 4<br/>value = [3, 1, 0]<br/>class = GALAXY>, fillcolor="#eeab7b"] ;
399 -> 401 ;
402 [label=<gini = 0.0<br/>samples = 3<br/>value = [3, 0, 0]<br/>class = GALAXY>, fillcolor="#e58139"] ;
401 -> 402 ;
403 [label=<gini = 0.0<br/>samples = 1<br/>value = [0, 1, 0]<br/>class = QSO>, fillcolor="#39e581"] ;
401 -> 403 ;
404 [label=<redshift &le; 0.138<br/>gini = 0.011<br/>samples = 10025<br/>value = [9970.0, 55.0, 0.0]<br/>class = GALAXY>, fillcolor="#e5823a"] ;
280 -> 404 ;
405 [label=<field_ID &le; 768.0<br/>gini = 0.004<br/>samples = 6052<br/>value = [6039.0, 13.0, 0.0]<br/>class = GALAXY>, fillcolor="#e58139"] ;
404 -> 405 ;
406 [label=<fiber_ID &le; 81.5<br/>gini = 0.003<br/>samples = 5986<br/>value = [5976, 10, 0]<br/>class = GALAXY>, fillcolor="#e58139"] ;
405 -> 406 ;
407 [label=<fiber_ID &le; 80.5<br/>gini = 0.011<br/>samples = 703<br/>value = [699, 4, 0]<br/>class = GALAXY>, fillcolor="#e5823a"] ;
406 -> 407 ;
408 [label=<cam_col &le; 4.5<br/>gini = 0.009<br/>samples = 697<br/>value = [694, 3, 0]<br/>class = GALAXY>, fillcolor="#e5823a"] ;
407 -> 408 ;
409 [label=<z &le; 17.214<br/>gini = 0.003<br/>samples = 588<br/>value = [587, 1, 0]<br/>class = GALAXY>, fillcolor="#e58139"] ;
408 -> 409 ;
410 [label=<gini = 0.0<br/>samples = 548<br/>value = [548, 0, 0]<br/>class = GALAXY>, fillcolor="#e58139"] ;
409 -> 410 ;
411 [label=<i &le; 16.984<br/>gini = 0.049<br/>samples = 40<br/>value = [39, 1, 0]<br/>class = GALAXY>, fillcolor="#e6843e"] ;
409 -> 411 ;
412 [label=<gini = 0.0<br/>samples = 1<br/>value = [0, 1, 0]<br/>class = QSO>, fillcolor="#39e581"] ;
411 -> 412 ;
413 [label=<gini = 0.0<br/>samples = 39<br/>value = [39, 0, 0]<br/>class = GALAXY>, fillcolor="#e58139"] ;
411 -> 413 ;
414 [label=<u &le; 19.09<br/>gini = 0.036<br/>samples = 109<br/>value = [107, 2, 0]<br/>class = GALAXY>, fillcolor="#e5833d"] ;
408 -> 414 ;
415 [label=<fiber_ID &le; 20.0<br/>gini = 0.219<br/>samples = 8<br/>value = [7, 1, 0]<br/>class = GALAXY>, fillcolor="#e99355"] ;
414 -> 415 ;
416 [label=<gini = 0.0<br/>samples = 1<br/>value = [0, 1, 0]<br/>class = QSO>, fillcolor="#39e581"] ;
415 -> 416 ;
417 [label=<gini = 0.0<br/>samples = 7<br/>value = [7, 0, 0]<br/>class = GALAXY>, fillcolor="#e58139"] ;
415 -> 417 ;
418 [label=<fiber_ID &le; 71.0<br/>gini = 0.02<br/>samples = 101<br/>value = [100, 1, 0]<br/>class = GALAXY>, fillcolor="#e5823b"] ;
414 -> 418 ;
419 [label=<gini = 0.0<br/>samples = 92<br/>value = [92, 0, 0]<br/>class = GALAXY>, fillcolor="#e58139"] ;
418 -> 419 ;
420 [label=<z &le; 17.004<br/>gini = 0.198<br/>samples = 9<br/>value = [8, 1, 0]<br/>class = GALAXY>, fillcolor="#e89152"] ;
418 -> 420 ;
421 [label=<gini = 0.0<br/>samples = 8<br/>value = [8, 0, 0]<br/>class = GALAXY>, fillcolor="#e58139"] ;
420 -> 421 ;
422 [label=<gini = 0.0<br/>samples = 1<br/>value = [0, 1, 0]<br/>class = QSO>, fillcolor="#39e581"] ;
420 -> 422 ;
423 [label=<MJD &le; 53600.0<br/>gini = 0.278<br/>samples = 6<br/>value = [5, 1, 0]<br/>class = GALAXY>, fillcolor="#ea9a61"] ;
407 -> 423 ;
424 [label=<gini = 0.0<br/>samples = 5<br/>value = [5, 0, 0]<br/>class = GALAXY>, fillcolor="#e58139"] ;
423 -> 424 ;
425 [label=<gini = 0.0<br/>samples = 1<br/>value = [0, 1, 0]<br/>class = QSO>, fillcolor="#39e581"] ;
423 -> 425 ;
426 [label=<g &le; 18.914<br/>gini = 0.002<br/>samples = 5283<br/>value = [5277, 6, 0]<br/>class = GALAXY>, fillcolor="#e58139"] ;
406 -> 426 ;
427 [label=<redshift &le; 0.107<br/>gini = 0.002<br/>samples = 5213<br/>value = [5208, 5, 0]<br/>class = GALAXY>, fillcolor="#e58139"] ;
426 -> 427 ;
428 [label=<redshift &le; 0.045<br/>gini = 0.001<br/>samples = 3241<br/>value = [3240, 1, 0]<br/>class = GALAXY>, fillcolor="#e58139"] ;
427 -> 428 ;
429 [label=<redshift &le; 0.044<br/>gini = 0.008<br/>samples = 262<br/>value = [261, 1, 0]<br/>class = GALAXY>, fillcolor="#e5813a"] ;
428 -> 429 ;
430 [label=<gini = 0.0<br/>samples = 261<br/>value = [261, 0, 0]<br/>class = GALAXY>, fillcolor="#e58139"] ;
429 -> 430 ;
431 [label=<gini = 0.0<br/>samples = 1<br/>value = [0, 1, 0]<br/>class = QSO>, fillcolor="#39e581"] ;
429 -> 431 ;
432 [label=<gini = 0.0<br/>samples = 2979<br/>value = [2979, 0, 0]<br/>class = GALAXY>, fillcolor="#e58139"] ;
428 -> 432 ;
433 [label=<redshift &le; 0.107<br/>gini = 0.004<br/>samples = 1972<br/>value = [1968, 4, 0]<br/>class = GALAXY>, fillcolor="#e58139"] ;
427 -> 433 ;
434 [label=<gini = 0.0<br/>samples = 1<br/>value = [0, 1, 0]<br/>class = QSO>, fillcolor="#39e581"] ;
433 -> 434 ;
435 [label=<u &le; 19.396<br/>gini = 0.003<br/>samples = 1971<br/>value = [1968, 3, 0]<br/>class = GALAXY>, fillcolor="#e58139"] ;
433 -> 435 ;
436 [label=<u &le; 19.395<br/>gini = 0.016<br/>samples = 367<br/>value = [364.0, 3.0, 0.0]<br/>class = GALAXY>, fillcolor="#e5823b"] ;
435 -> 436 ;
437 [label=<u &le; 19.285<br/>gini = 0.011<br/>samples = 366<br/>value = [364, 2, 0]<br/>class = GALAXY>, fillcolor="#e5823a"] ;
436 -> 437 ;
438 [label=<gini = 0.0<br/>samples = 255<br/>value = [255, 0, 0]<br/>class = GALAXY>, fillcolor="#e58139"] ;
437 -> 438 ;
439 [label=<u &le; 19.288<br/>gini = 0.035<br/>samples = 111<br/>value = [109, 2, 0]<br/>class = GALAXY>, fillcolor="#e5833d"] ;
437 -> 439 ;
440 [label=<gini = 0.0<br/>samples = 1<br/>value = [0, 1, 0]<br/>class = QSO>, fillcolor="#39e581"] ;
439 -> 440 ;
441 [label=<field_ID &le; 252.5<br/>gini = 0.018<br/>samples = 110<br/>value = [109, 1, 0]<br/>class = GALAXY>, fillcolor="#e5823b"] ;
439 -> 441 ;
442 [label=<gini = 0.0<br/>samples = 79<br/>value = [79, 0, 0]<br/>class = GALAXY>, fillcolor="#e58139"] ;
441 -> 442 ;
443 [label=<field_ID &le; 260.5<br/>gini = 0.062<br/>samples = 31<br/>value = [30, 1, 0]<br/>class = GALAXY>, fillcolor="#e68540"] ;
441 -> 443 ;
444 [label=<gini = 0.0<br/>samples = 1<br/>value = [0, 1, 0]<br/>class = QSO>, fillcolor="#39e581"] ;
443 -> 444 ;
445 [label=<gini = 0.0<br/>samples = 30<br/>value = [30, 0, 0]<br/>class = GALAXY>, fillcolor="#e58139"] ;
443 -> 445 ;
446 [label=<gini = 0.0<br/>samples = 1<br/>value = [0, 1, 0]<br/>class = QSO>, fillcolor="#39e581"] ;
436 -> 446 ;
447 [label=<gini = 0.0<br/>samples = 1604<br/>value = [1604, 0, 0]<br/>class = GALAXY>, fillcolor="#e58139"] ;
435 -> 447 ;
448 [label=<g &le; 18.917<br/>gini = 0.028<br/>samples = 70<br/>value = [69, 1, 0]<br/>class = GALAXY>, fillcolor="#e5833c"] ;
426 -> 448 ;
449 [label=<gini = 0.0<br/>samples = 1<br/>value = [0, 1, 0]<br/>class = QSO>, fillcolor="#39e581"] ;
448 -> 449 ;
450 [label=<gini = 0.0<br/>samples = 69<br/>value = [69, 0, 0]<br/>class = GALAXY>, fillcolor="#e58139"] ;
448 -> 450 ;
451 [label=<alpha &le; 47.223<br/>gini = 0.087<br/>samples = 66<br/>value = [63, 3, 0]<br/>class = GALAXY>, fillcolor="#e68742"] ;
405 -> 451 ;
452 [label=<gini = 0.0<br/>samples = 1<br/>value = [0, 1, 0]<br/>class = QSO>, fillcolor="#39e581"] ;
451 -> 452 ;
453 [label=<u &le; 19.006<br/>gini = 0.06<br/>samples = 65<br/>value = [63, 2, 0]<br/>class = GALAXY>, fillcolor="#e6853f"] ;
451 -> 453 ;
454 [label=<i &le; 16.04<br/>gini = 0.5<br/>samples = 2<br/>value = [1, 1, 0]<br/>class = GALAXY>, fillcolor="#ffffff"] ;
453 -> 454 ;
455 [label=<gini = 0.0<br/>samples = 1<br/>value = [1, 0, 0]<br/>class = GALAXY>, fillcolor="#e58139"] ;
454 -> 455 ;
456 [label=<gini = 0.0<br/>samples = 1<br/>value = [0, 1, 0]<br/>class = QSO>, fillcolor="#39e581"] ;
454 -> 456 ;
457 [label=<g &le; 17.597<br/>gini = 0.031<br/>samples = 63<br/>value = [62, 1, 0]<br/>class = GALAXY>, fillcolor="#e5833c"] ;
453 -> 457 ;
458 [label=<g &le; 17.525<br/>gini = 0.278<br/>samples = 6<br/>value = [5, 1, 0]<br/>class = GALAXY>, fillcolor="#ea9a61"] ;
457 -> 458 ;
459 [label=<gini = 0.0<br/>samples = 5<br/>value = [5, 0, 0]<br/>class = GALAXY>, fillcolor="#e58139"] ;
458 -> 459 ;
460 [label=<gini = 0.0<br/>samples = 1<br/>value = [0, 1, 0]<br/>class = QSO>, fillcolor="#39e581"] ;
458 -> 460 ;
461 [label=<gini = 0.0<br/>samples = 57<br/>value = [57, 0, 0]<br/>class = GALAXY>, fillcolor="#e58139"] ;
457 -> 461 ;
462 [label=<redshift &le; 0.138<br/>gini = 0.021<br/>samples = 3973<br/>value = [3931, 42, 0]<br/>class = GALAXY>, fillcolor="#e5823b"] ;
404 -> 462 ;
463 [label=<gini = 0.0<br/>samples = 1<br/>value = [0, 1, 0]<br/>class = QSO>, fillcolor="#39e581"] ;
462 -> 463 ;
464 [label=<u &le; 19.793<br/>gini = 0.02<br/>samples = 3972<br/>value = [3931, 41, 0]<br/>class = GALAXY>, fillcolor="#e5823b"] ;
462 -> 464 ;
465 [label=<g &le; 18.629<br/>gini = 0.086<br/>samples = 577<br/>value = [551, 26, 0]<br/>class = GALAXY>, fillcolor="#e68742"] ;
464 -> 465 ;
466 [label=<run_ID &le; 7772.5<br/>gini = 0.06<br/>samples = 550<br/>value = [533, 17, 0]<br/>class = GALAXY>, fillcolor="#e6853f"] ;
465 -> 466 ;
467 [label=<redshift &le; 0.237<br/>gini = 0.051<br/>samples = 539<br/>value = [525.0, 14.0, 0.0]<br/>class = GALAXY>, fillcolor="#e6843e"] ;
466 -> 467 ;
468 [label=<u &le; 19.217<br/>gini = 0.041<br/>samples = 525<br/>value = [514, 11, 0]<br/>class = GALAXY>, fillcolor="#e6843d"] ;
467 -> 468 ;
469 [label=<g &le; 18.183<br/>gini = 0.117<br/>samples = 96<br/>value = [90, 6, 0]<br/>class = GALAXY>, fillcolor="#e78946"] ;
468 -> 469 ;
470 [label=<u &le; 19.216<br/>gini = 0.064<br/>samples = 90<br/>value = [87, 3, 0]<br/>class = GALAXY>, fillcolor="#e68540"] ;
469 -> 470 ;
471 [label=<field_ID &le; 65.0<br/>gini = 0.044<br/>samples = 89<br/>value = [87, 2, 0]<br/>class = GALAXY>, fillcolor="#e6843e"] ;
470 -> 471 ;
472 [label=<redshift &le; 0.139<br/>gini = 0.231<br/>samples = 15<br/>value = [13, 2, 0]<br/>class = GALAXY>, fillcolor="#e99457"] ;
471 -> 472 ;
473 [label=<gini = 0.0<br/>samples = 1<br/>value = [0, 1, 0]<br/>class = QSO>, fillcolor="#39e581"] ;
472 -> 473 ;
474 [label=<r &le; 16.568<br/>gini = 0.133<br/>samples = 14<br/>value = [13, 1, 0]<br/>class = GALAXY>, fillcolor="#e78b48"] ;
472 -> 474 ;
475 [label=<i &le; 15.951<br/>gini = 0.5<br/>samples = 2<br/>value = [1, 1, 0]<br/>class = GALAXY>, fillcolor="#ffffff"] ;
474 -> 475 ;
476 [label=<gini = 0.0<br/>samples = 1<br/>value = [1, 0, 0]<br/>class = GALAXY>, fillcolor="#e58139"] ;
475 -> 476 ;
477 [label=<gini = 0.0<br/>samples = 1<br/>value = [0, 1, 0]<br/>class = QSO>, fillcolor="#39e581"] ;
475 -> 477 ;
478 [label=<gini = 0.0<br/>samples = 12<br/>value = [12, 0, 0]<br/>class = GALAXY>, fillcolor="#e58139"] ;
474 -> 478 ;
479 [label=<gini = 0.0<br/>samples = 74<br/>value = [74, 0, 0]<br/>class = GALAXY>, fillcolor="#e58139"] ;
471 -> 479 ;
480 [label=<gini = 0.0<br/>samples = 1<br/>value = [0, 1, 0]<br/>class = QSO>, fillcolor="#39e581"] ;
470 -> 480 ;
481 [label=<r &le; 17.554<br/>gini = 0.5<br/>samples = 6<br/>value = [3, 3, 0]<br/>class = GALAXY>, fillcolor="#ffffff"] ;
469 -> 481 ;
482 [label=<gini = 0.0<br/>samples = 3<br/>value = [0, 3, 0]<br/>class = QSO>, fillcolor="#39e581"] ;
481 -> 482 ;
483 [label=<gini = 0.0<br/>samples = 3<br/>value = [3, 0, 0]<br/>class = GALAXY>, fillcolor="#e58139"] ;
481 -> 483 ;
484 [label=<g &le; 18.582<br/>gini = 0.023<br/>samples = 429<br/>value = [424, 5, 0]<br/>class = GALAXY>, fillcolor="#e5823b"] ;
468 -> 484 ;
485 [label=<field_ID &le; 20.0<br/>gini = 0.019<br/>samples = 424<br/>value = [420, 4, 0]<br/>class = GALAXY>, fillcolor="#e5823b"] ;
484 -> 485 ;
486 [label=<plate &le; 727.5<br/>gini = 0.245<br/>samples = 7<br/>value = [6, 1, 0]<br/>class = GALAXY>, fillcolor="#e9965a"] ;
485 -> 486 ;
487 [label=<gini = 0.0<br/>samples = 1<br/>value = [0, 1, 0]<br/>class = QSO>, fillcolor="#39e581"] ;
486 -> 487 ;
488 [label=<gini = 0.0<br/>samples = 6<br/>value = [6, 0, 0]<br/>class = GALAXY>, fillcolor="#e58139"] ;
486 -> 488 ;
489 [label=<MJD &le; 54584.5<br/>gini = 0.014<br/>samples = 417<br/>value = [414, 3, 0]<br/>class = GALAXY>, fillcolor="#e5823a"] ;
485 -> 489 ;
490 [label=<u &le; 19.689<br/>gini = 0.01<br/>samples = 400<br/>value = [398, 2, 0]<br/>class = GALAXY>, fillcolor="#e5823a"] ;
489 -> 490 ;
491 [label=<gini = 0.0<br/>samples = 310<br/>value = [310, 0, 0]<br/>class = GALAXY>, fillcolor="#e58139"] ;
490 -> 491 ;
492 [label=<u &le; 19.692<br/>gini = 0.043<br/>samples = 90<br/>value = [88, 2, 0]<br/>class = GALAXY>, fillcolor="#e6843d"] ;
490 -> 492 ;
493 [label=<obj_ID &le; 1.237660178564776e+18<br/>gini = 0.444<br/>samples = 3<br/>value = [1, 2, 0]<br/>class = QSO>, fillcolor="#9cf2c0"] ;
492 -> 493 ;
494 [label=<gini = 0.0<br/>samples = 1<br/>value = [1, 0, 0]<br/>class = GALAXY>, fillcolor="#e58139"] ;
493 -> 494 ;
495 [label=<gini = 0.0<br/>samples = 2<br/>value = [0, 2, 0]<br/>class = QSO>, fillcolor="#39e581"] ;
493 -> 495 ;
496 [label=<gini = 0.0<br/>samples = 87<br/>value = [87, 0, 0]<br/>class = GALAXY>, fillcolor="#e58139"] ;
492 -> 496 ;
497 [label=<spec_obj_ID &le; 2.8491888077507133e+18<br/>gini = 0.111<br/>samples = 17<br/>value = [16, 1, 0]<br/>class = GALAXY>, fillcolor="#e78945"] ;
489 -> 497 ;
498 [label=<z &le; 16.838<br/>gini = 0.5<br/>samples = 2<br/>value = [1, 1, 0]<br/>class = GALAXY>, fillcolor="#ffffff"] ;
497 -> 498 ;
499 [label=<gini = 0.0<br/>samples = 1<br/>value = [0, 1, 0]<br/>class = QSO>, fillcolor="#39e581"] ;
498 -> 499 ;
500 [label=<gini = 0.0<br/>samples = 1<br/>value = [1, 0, 0]<br/>class = GALAXY>, fillcolor="#e58139"] ;
498 -> 500 ;
501 [label=<gini = 0.0<br/>samples = 15<br/>value = [15, 0, 0]<br/>class = GALAXY>, fillcolor="#e58139"] ;
497 -> 501 ;
502 [label=<u &le; 19.77<br/>gini = 0.32<br/>samples = 5<br/>value = [4, 1, 0]<br/>class = GALAXY>, fillcolor="#eca06a"] ;
484 -> 502 ;
503 [label=<gini = 0.0<br/>samples = 4<br/>value = [4, 0, 0]<br/>class = GALAXY>, fillcolor="#e58139"] ;
502 -> 503 ;
504 [label=<gini = 0.0<br/>samples = 1<br/>value = [0, 1, 0]<br/>class = QSO>, fillcolor="#39e581"] ;
502 -> 504 ;
505 [label=<field_ID &le; 50.0<br/>gini = 0.337<br/>samples = 14<br/>value = [11, 3, 0]<br/>class = GALAXY>, fillcolor="#eca36f"] ;
467 -> 505 ;
506 [label=<gini = 0.0<br/>samples = 1<br/>value = [0, 1, 0]<br/>class = QSO>, fillcolor="#39e581"] ;
505 -> 506 ;
507 [label=<delta &le; 41.387<br/>gini = 0.26<br/>samples = 13<br/>value = [11, 2, 0]<br/>class = GALAXY>, fillcolor="#ea985d"] ;
505 -> 507 ;
508 [label=<gini = 0.0<br/>samples = 9<br/>value = [9, 0, 0]<br/>class = GALAXY>, fillcolor="#e58139"] ;
507 -> 508 ;
509 [label=<u &le; 19.302<br/>gini = 0.5<br/>samples = 4<br/>value = [2, 2, 0]<br/>class = GALAXY>, fillcolor="#ffffff"] ;
507 -> 509 ;
510 [label=<gini = 0.0<br/>samples = 2<br/>value = [2, 0, 0]<br/>class = GALAXY>, fillcolor="#e58139"] ;
509 -> 510 ;
511 [label=<gini = 0.0<br/>samples = 2<br/>value = [0, 2, 0]<br/>class = QSO>, fillcolor="#39e581"] ;
509 -> 511 ;
512 [label=<plate &le; 5049.0<br/>gini = 0.397<br/>samples = 11<br/>value = [8, 3, 0]<br/>class = GALAXY>, fillcolor="#efb083"] ;
466 -> 512 ;
513 [label=<plate &le; 4526.0<br/>gini = 0.48<br/>samples = 5<br/>value = [2, 3, 0]<br/>class = QSO>, fillcolor="#bdf6d5"] ;
512 -> 513 ;
514 [label=<gini = 0.0<br/>samples = 2<br/>value = [2, 0, 0]<br/>class = GALAXY>, fillcolor="#e58139"] ;
513 -> 514 ;
515 [label=<gini = 0.0<br/>samples = 3<br/>value = [0, 3, 0]<br/>class = QSO>, fillcolor="#39e581"] ;
513 -> 515 ;
516 [label=<gini = 0.0<br/>samples = 6<br/>value = [6, 0, 0]<br/>class = GALAXY>, fillcolor="#e58139"] ;
512 -> 516 ;
517 [label=<alpha &le; 191.322<br/>gini = 0.444<br/>samples = 27<br/>value = [18, 9, 0]<br/>class = GALAXY>, fillcolor="#f2c09c"] ;
465 -> 517 ;
518 [label=<r &le; 18.192<br/>gini = 0.153<br/>samples = 12<br/>value = [11, 1, 0]<br/>class = GALAXY>, fillcolor="#e78c4b"] ;
517 -> 518 ;
519 [label=<gini = 0.0<br/>samples = 11<br/>value = [11, 0, 0]<br/>class = GALAXY>, fillcolor="#e58139"] ;
518 -> 519 ;
520 [label=<gini = 0.0<br/>samples = 1<br/>value = [0, 1, 0]<br/>class = QSO>, fillcolor="#39e581"] ;
518 -> 520 ;
521 [label=<alpha &le; 203.753<br/>gini = 0.498<br/>samples = 15<br/>value = [7, 8, 0]<br/>class = QSO>, fillcolor="#e6fcef"] ;
517 -> 521 ;
522 [label=<gini = 0.0<br/>samples = 5<br/>value = [0, 5, 0]<br/>class = QSO>, fillcolor="#39e581"] ;
521 -> 522 ;
523 [label=<u &le; 19.544<br/>gini = 0.42<br/>samples = 10<br/>value = [7, 3, 0]<br/>class = GALAXY>, fillcolor="#f0b78e"] ;
521 -> 523 ;
524 [label=<obj_ID &le; 1.2376624463075082e+18<br/>gini = 0.5<br/>samples = 6<br/>value = [3, 3, 0]<br/>class = GALAXY>, fillcolor="#ffffff"] ;
523 -> 524 ;
525 [label=<gini = 0.0<br/>samples = 2<br/>value = [0, 2, 0]<br/>class = QSO>, fillcolor="#39e581"] ;
524 -> 525 ;
526 [label=<field_ID &le; 130.0<br/>gini = 0.375<br/>samples = 4<br/>value = [3, 1, 0]<br/>class = GALAXY>, fillcolor="#eeab7b"] ;
524 -> 526 ;
527 [label=<gini = 0.0<br/>samples = 1<br/>value = [0, 1, 0]<br/>class = QSO>, fillcolor="#39e581"] ;
526 -> 527 ;
528 [label=<gini = 0.0<br/>samples = 3<br/>value = [3, 0, 0]<br/>class = GALAXY>, fillcolor="#e58139"] ;
526 -> 528 ;
529 [label=<gini = 0.0<br/>samples = 4<br/>value = [4, 0, 0]<br/>class = GALAXY>, fillcolor="#e58139"] ;
523 -> 529 ;
530 [label=<run_ID &le; 8113.0<br/>gini = 0.009<br/>samples = 3395<br/>value = [3380, 15, 0]<br/>class = GALAXY>, fillcolor="#e5823a"] ;
464 -> 530 ;
531 [label=<z &le; 16.87<br/>gini = 0.008<br/>samples = 3382<br/>value = [3369, 13, 0]<br/>class = GALAXY>, fillcolor="#e5813a"] ;
530 -> 531 ;
532 [label=<delta &le; -7.438<br/>gini = 0.003<br/>samples = 2186<br/>value = [2183, 3, 0]<br/>class = GALAXY>, fillcolor="#e58139"] ;
531 -> 532 ;
533 [label=<delta &le; -7.477<br/>gini = 0.038<br/>samples = 51<br/>value = [50, 1, 0]<br/>class = GALAXY>, fillcolor="#e6843d"] ;
532 -> 533 ;
534 [label=<gini = 0.0<br/>samples = 50<br/>value = [50, 0, 0]<br/>class = GALAXY>, fillcolor="#e58139"] ;
533 -> 534 ;
535 [label=<gini = 0.0<br/>samples = 1<br/>value = [0, 1, 0]<br/>class = QSO>, fillcolor="#39e581"] ;
533 -> 535 ;
536 [label=<u &le; 19.887<br/>gini = 0.002<br/>samples = 2135<br/>value = [2133, 2, 0]<br/>class = GALAXY>, fillcolor="#e58139"] ;
532 -> 536 ;
537 [label=<u &le; 19.887<br/>gini = 0.023<br/>samples = 85<br/>value = [84, 1, 0]<br/>class = GALAXY>, fillcolor="#e5823b"] ;
536 -> 537 ;
538 [label=<gini = 0.0<br/>samples = 84<br/>value = [84, 0, 0]<br/>class = GALAXY>, fillcolor="#e58139"] ;
537 -> 538 ;
539 [label=<gini = 0.0<br/>samples = 1<br/>value = [0, 1, 0]<br/>class = QSO>, fillcolor="#39e581"] ;
537 -> 539 ;
540 [label=<delta &le; 50.282<br/>gini = 0.001<br/>samples = 2050<br/>value = [2049, 1, 0]<br/>class = GALAXY>, fillcolor="#e58139"] ;
536 -> 540 ;
541 [label=<gini = 0.0<br/>samples = 1840<br/>value = [1840, 0, 0]<br/>class = GALAXY>, fillcolor="#e58139"] ;
540 -> 541 ;
542 [label=<delta &le; 50.442<br/>gini = 0.009<br/>samples = 210<br/>value = [209, 1, 0]<br/>class = GALAXY>, fillcolor="#e5823a"] ;
540 -> 542 ;
543 [label=<gini = 0.0<br/>samples = 1<br/>value = [0, 1, 0]<br/>class = QSO>, fillcolor="#39e581"] ;
542 -> 543 ;
544 [label=<gini = 0.0<br/>samples = 209<br/>value = [209, 0, 0]<br/>class = GALAXY>, fillcolor="#e58139"] ;
542 -> 544 ;
545 [label=<z &le; 16.87<br/>gini = 0.017<br/>samples = 1196<br/>value = [1186, 10, 0]<br/>class = GALAXY>, fillcolor="#e5823b"] ;
531 -> 545 ;
546 [label=<gini = 0.0<br/>samples = 1<br/>value = [0, 1, 0]<br/>class = QSO>, fillcolor="#39e581"] ;
545 -> 546 ;
547 [label=<i &le; 17.183<br/>gini = 0.015<br/>samples = 1195<br/>value = [1186, 9, 0]<br/>class = GALAXY>, fillcolor="#e5823b"] ;
545 -> 547 ;
548 [label=<field_ID &le; 406.0<br/>gini = 0.147<br/>samples = 25<br/>value = [23, 2, 0]<br/>class = GALAXY>, fillcolor="#e78c4a"] ;
547 -> 548 ;
549 [label=<spec_obj_ID &le; 3.522530415795503e+18<br/>gini = 0.08<br/>samples = 24<br/>value = [23, 1, 0]<br/>class = GALAXY>, fillcolor="#e68642"] ;
548 -> 549 ;
550 [label=<gini = 0.0<br/>samples = 22<br/>value = [22, 0, 0]<br/>class = GALAXY>, fillcolor="#e58139"] ;
549 -> 550 ;
551 [label=<u &le; 20.925<br/>gini = 0.5<br/>samples = 2<br/>value = [1, 1, 0]<br/>class = GALAXY>, fillcolor="#ffffff"] ;
549 -> 551 ;
552 [label=<gini = 0.0<br/>samples = 1<br/>value = [0, 1, 0]<br/>class = QSO>, fillcolor="#39e581"] ;
551 -> 552 ;
553 [label=<gini = 0.0<br/>samples = 1<br/>value = [1, 0, 0]<br/>class = GALAXY>, fillcolor="#e58139"] ;
551 -> 553 ;
554 [label=<gini = 0.0<br/>samples = 1<br/>value = [0, 1, 0]<br/>class = QSO>, fillcolor="#39e581"] ;
548 -> 554 ;
555 [label=<run_ID &le; 8102.5<br/>gini = 0.012<br/>samples = 1170<br/>value = [1163.0, 7.0, 0.0]<br/>class = GALAXY>, fillcolor="#e5823a"] ;
547 -> 555 ;
556 [label=<alpha &le; 353.499<br/>gini = 0.01<br/>samples = 1154<br/>value = [1148, 6, 0]<br/>class = GALAXY>, fillcolor="#e5823a"] ;
555 -> 556 ;
557 [label=<delta &le; 19.81<br/>gini = 0.009<br/>samples = 1137<br/>value = [1132.0, 5.0, 0.0]<br/>class = GALAXY>, fillcolor="#e5823a"] ;
556 -> 557 ;
558 [label=<gini = 0.0<br/>samples = 539<br/>value = [539, 0, 0]<br/>class = GALAXY>, fillcolor="#e58139"] ;
557 -> 558 ;
559 [label=<delta &le; 19.862<br/>gini = 0.017<br/>samples = 598<br/>value = [593, 5, 0]<br/>class = GALAXY>, fillcolor="#e5823b"] ;
557 -> 559 ;
560 [label=<gini = 0.0<br/>samples = 1<br/>value = [0, 1, 0]<br/>class = QSO>, fillcolor="#39e581"] ;
559 -> 560 ;
561 [label=<alpha &le; 253.049<br/>gini = 0.013<br/>samples = 597<br/>value = [593, 4, 0]<br/>class = GALAXY>, fillcolor="#e5823a"] ;
559 -> 561 ;
562 [label=<cam_col &le; 1.5<br/>gini = 0.01<br/>samples = 575<br/>value = [572.0, 3.0, 0.0]<br/>class = GALAXY>, fillcolor="#e5823a"] ;
561 -> 562 ;
563 [label=<field_ID &le; 82.5<br/>gini = 0.049<br/>samples = 80<br/>value = [78, 2, 0]<br/>class = GALAXY>, fillcolor="#e6843e"] ;
562 -> 563 ;
564 [label=<alpha &le; 232.241<br/>gini = 0.172<br/>samples = 21<br/>value = [19, 2, 0]<br/>class = GALAXY>, fillcolor="#e88e4e"] ;
563 -> 564 ;
565 [label=<field_ID &le; 80.5<br/>gini = 0.095<br/>samples = 20<br/>value = [19, 1, 0]<br/>class = GALAXY>, fillcolor="#e68843"] ;
564 -> 565 ;
566 [label=<gini = 0.0<br/>samples = 19<br/>value = [19, 0, 0]<br/>class = GALAXY>, fillcolor="#e58139"] ;
565 -> 566 ;
567 [label=<gini = 0.0<br/>samples = 1<br/>value = [0, 1, 0]<br/>class = QSO>, fillcolor="#39e581"] ;
565 -> 567 ;
568 [label=<gini = 0.0<br/>samples = 1<br/>value = [0, 1, 0]<br/>class = QSO>, fillcolor="#39e581"] ;
564 -> 568 ;
569 [label=<gini = 0.0<br/>samples = 59<br/>value = [59, 0, 0]<br/>class = GALAXY>, fillcolor="#e58139"] ;
563 -> 569 ;
570 [label=<field_ID &le; 449.5<br/>gini = 0.004<br/>samples = 495<br/>value = [494, 1, 0]<br/>class = GALAXY>, fillcolor="#e58139"] ;
562 -> 570 ;
571 [label=<gini = 0.0<br/>samples = 477<br/>value = [477, 0, 0]<br/>class = GALAXY>, fillcolor="#e58139"] ;
570 -> 571 ;
572 [label=<MJD &le; 52776.5<br/>gini = 0.105<br/>samples = 18<br/>value = [17, 1, 0]<br/>class = GALAXY>, fillcolor="#e78845"] ;
570 -> 572 ;
573 [label=<gini = 0.0<br/>samples = 1<br/>value = [0, 1, 0]<br/>class = QSO>, fillcolor="#39e581"] ;
572 -> 573 ;
574 [label=<gini = 0.0<br/>samples = 17<br/>value = [17, 0, 0]<br/>class = GALAXY>, fillcolor="#e58139"] ;
572 -> 574 ;
575 [label=<alpha &le; 253.121<br/>gini = 0.087<br/>samples = 22<br/>value = [21, 1, 0]<br/>class = GALAXY>, fillcolor="#e68742"] ;
561 -> 575 ;
576 [label=<gini = 0.0<br/>samples = 1<br/>value = [0, 1, 0]<br/>class = QSO>, fillcolor="#39e581"] ;
575 -> 576 ;
577 [label=<gini = 0.0<br/>samples = 21<br/>value = [21, 0, 0]<br/>class = GALAXY>, fillcolor="#e58139"] ;
575 -> 577 ;
578 [label=<alpha &le; 354.429<br/>gini = 0.111<br/>samples = 17<br/>value = [16, 1, 0]<br/>class = GALAXY>, fillcolor="#e78945"] ;
556 -> 578 ;
579 [label=<gini = 0.0<br/>samples = 1<br/>value = [0, 1, 0]<br/>class = QSO>, fillcolor="#39e581"] ;
578 -> 579 ;
580 [label=<gini = 0.0<br/>samples = 16<br/>value = [16, 0, 0]<br/>class = GALAXY>, fillcolor="#e58139"] ;
578 -> 580 ;
581 [label=<delta &le; 27.858<br/>gini = 0.117<br/>samples = 16<br/>value = [15, 1, 0]<br/>class = GALAXY>, fillcolor="#e78946"] ;
555 -> 581 ;
582 [label=<gini = 0.0<br/>samples = 15<br/>value = [15, 0, 0]<br/>class = GALAXY>, fillcolor="#e58139"] ;
581 -> 582 ;
583 [label=<gini = 0.0<br/>samples = 1<br/>value = [0, 1, 0]<br/>class = QSO>, fillcolor="#39e581"] ;
581 -> 583 ;
584 [label=<cam_col &le; 3.5<br/>gini = 0.26<br/>samples = 13<br/>value = [11, 2, 0]<br/>class = GALAXY>, fillcolor="#ea985d"] ;
530 -> 584 ;
585 [label=<gini = 0.0<br/>samples = 10<br/>value = [10, 0, 0]<br/>class = GALAXY>, fillcolor="#e58139"] ;
584 -> 585 ;
586 [label=<u &le; 21.019<br/>gini = 0.444<br/>samples = 3<br/>value = [1, 2, 0]<br/>class = QSO>, fillcolor="#9cf2c0"] ;
584 -> 586 ;
587 [label=<gini = 0.0<br/>samples = 1<br/>value = [1, 0, 0]<br/>class = GALAXY>, fillcolor="#e58139"] ;
586 -> 587 ;
588 [label=<gini = 0.0<br/>samples = 2<br/>value = [0, 2, 0]<br/>class = QSO>, fillcolor="#39e581"] ;
586 -> 588 ;
589 [label=<u &le; 20.448<br/>gini = 0.234<br/>samples = 74<br/>value = [64, 10, 0]<br/>class = GALAXY>, fillcolor="#e99558"] ;
279 -> 589 ;
590 [label=<r &le; 18.106<br/>gini = 0.165<br/>samples = 11<br/>value = [1, 10, 0]<br/>class = QSO>, fillcolor="#4de88e"] ;
589 -> 590 ;
591 [label=<gini = 0.0<br/>samples = 10<br/>value = [0, 10, 0]<br/>class = QSO>, fillcolor="#39e581"] ;
590 -> 591 ;
592 [label=<gini = 0.0<br/>samples = 1<br/>value = [1, 0, 0]<br/>class = GALAXY>, fillcolor="#e58139"] ;
590 -> 592 ;
593 [label=<gini = 0.0<br/>samples = 63<br/>value = [63, 0, 0]<br/>class = GALAXY>, fillcolor="#e58139"] ;
589 -> 593 ;
594 [label=<u &le; 19.549<br/>gini = 0.166<br/>samples = 1336<br/>value = [1214, 122, 0]<br/>class = GALAXY>, fillcolor="#e88e4d"] ;
278 -> 594 ;
595 [label=<redshift &le; 0.184<br/>gini = 0.409<br/>samples = 216<br/>value = [154, 62, 0]<br/>class = GALAXY>, fillcolor="#efb489"] ;
594 -> 595 ;
596 [label=<redshift &le; 0.128<br/>gini = 0.092<br/>samples = 145<br/>value = [138, 7, 0]<br/>class = GALAXY>, fillcolor="#e68743"] ;
595 -> 596 ;
597 [label=<gini = 0.0<br/>samples = 113<br/>value = [113, 0, 0]<br/>class = GALAXY>, fillcolor="#e58139"] ;
596 -> 597 ;
598 [label=<u &le; 19.03<br/>gini = 0.342<br/>samples = 32<br/>value = [25, 7, 0]<br/>class = GALAXY>, fillcolor="#eca470"] ;
596 -> 598 ;
599 [label=<alpha &le; 217.833<br/>gini = 0.444<br/>samples = 6<br/>value = [2, 4, 0]<br/>class = QSO>, fillcolor="#9cf2c0"] ;
598 -> 599 ;
600 [label=<gini = 0.0<br/>samples = 4<br/>value = [0, 4, 0]<br/>class = QSO>, fillcolor="#39e581"] ;
599 -> 600 ;
601 [label=<gini = 0.0<br/>samples = 2<br/>value = [2, 0, 0]<br/>class = GALAXY>, fillcolor="#e58139"] ;
599 -> 601 ;
602 [label=<redshift &le; 0.129<br/>gini = 0.204<br/>samples = 26<br/>value = [23, 3, 0]<br/>class = GALAXY>, fillcolor="#e89153"] ;
598 -> 602 ;
603 [label=<gini = 0.0<br/>samples = 1<br/>value = [0, 1, 0]<br/>class = QSO>, fillcolor="#39e581"] ;
602 -> 603 ;
604 [label=<fiber_ID &le; 26.5<br/>gini = 0.147<br/>samples = 25<br/>value = [23, 2, 0]<br/>class = GALAXY>, fillcolor="#e78c4a"] ;
602 -> 604 ;
605 [label=<gini = 0.0<br/>samples = 1<br/>value = [0, 1, 0]<br/>class = QSO>, fillcolor="#39e581"] ;
604 -> 605 ;
606 [label=<field_ID &le; 50.5<br/>gini = 0.08<br/>samples = 24<br/>value = [23, 1, 0]<br/>class = GALAXY>, fillcolor="#e68642"] ;
604 -> 606 ;
607 [label=<alpha &le; 157.201<br/>gini = 0.444<br/>samples = 3<br/>value = [2, 1, 0]<br/>class = GALAXY>, fillcolor="#f2c09c"] ;
606 -> 607 ;
608 [label=<gini = 0.0<br/>samples = 2<br/>value = [2, 0, 0]<br/>class = GALAXY>, fillcolor="#e58139"] ;
607 -> 608 ;
609 [label=<gini = 0.0<br/>samples = 1<br/>value = [0, 1, 0]<br/>class = QSO>, fillcolor="#39e581"] ;
607 -> 609 ;
610 [label=<gini = 0.0<br/>samples = 21<br/>value = [21, 0, 0]<br/>class = GALAXY>, fillcolor="#e58139"] ;
606 -> 610 ;
611 [label=<redshift &le; 0.258<br/>gini = 0.349<br/>samples = 71<br/>value = [16, 55, 0]<br/>class = QSO>, fillcolor="#73eda6"] ;
595 -> 611 ;
612 [label=<r &le; 18.088<br/>gini = 0.47<br/>samples = 37<br/>value = [14, 23, 0]<br/>class = QSO>, fillcolor="#b2f5ce"] ;
611 -> 612 ;
613 [label=<i &le; 17.505<br/>gini = 0.375<br/>samples = 8<br/>value = [6, 2, 0]<br/>class = GALAXY>, fillcolor="#eeab7b"] ;
612 -> 613 ;
614 [label=<gini = 0.0<br/>samples = 2<br/>value = [0, 2, 0]<br/>class = QSO>, fillcolor="#39e581"] ;
613 -> 614 ;
615 [label=<gini = 0.0<br/>samples = 6<br/>value = [6, 0, 0]<br/>class = GALAXY>, fillcolor="#e58139"] ;
613 -> 615 ;
616 [label=<z &le; 18.943<br/>gini = 0.4<br/>samples = 29<br/>value = [8, 21, 0]<br/>class = QSO>, fillcolor="#84efb1"] ;
612 -> 616 ;
617 [label=<MJD &le; 52019.5<br/>gini = 0.346<br/>samples = 27<br/>value = [6, 21, 0]<br/>class = QSO>, fillcolor="#72eca5"] ;
616 -> 617 ;
618 [label=<gini = 0.0<br/>samples = 2<br/>value = [2, 0, 0]<br/>class = GALAXY>, fillcolor="#e58139"] ;
617 -> 618 ;
619 [label=<fiber_ID &le; 92.0<br/>gini = 0.269<br/>samples = 25<br/>value = [4, 21, 0]<br/>class = QSO>, fillcolor="#5fea99"] ;
617 -> 619 ;
620 [label=<z &le; 18.497<br/>gini = 0.444<br/>samples = 3<br/>value = [2, 1, 0]<br/>class = GALAXY>, fillcolor="#f2c09c"] ;
619 -> 620 ;
621 [label=<gini = 0.0<br/>samples = 2<br/>value = [2, 0, 0]<br/>class = GALAXY>, fillcolor="#e58139"] ;
620 -> 621 ;
622 [label=<gini = 0.0<br/>samples = 1<br/>value = [0, 1, 0]<br/>class = QSO>, fillcolor="#39e581"] ;
620 -> 622 ;
623 [label=<z &le; 18.61<br/>gini = 0.165<br/>samples = 22<br/>value = [2, 20, 0]<br/>class = QSO>, fillcolor="#4de88e"] ;
619 -> 623 ;
624 [label=<field_ID &le; 296.0<br/>gini = 0.091<br/>samples = 21<br/>value = [1, 20, 0]<br/>class = QSO>, fillcolor="#43e687"] ;
623 -> 624 ;
625 [label=<gini = 0.0<br/>samples = 19<br/>value = [0, 19, 0]<br/>class = QSO>, fillcolor="#39e581"] ;
624 -> 625 ;
626 [label=<MJD &le; 52744.5<br/>gini = 0.5<br/>samples = 2<br/>value = [1, 1, 0]<br/>class = GALAXY>, fillcolor="#ffffff"] ;
624 -> 626 ;
627 [label=<gini = 0.0<br/>samples = 1<br/>value = [0, 1, 0]<br/>class = QSO>, fillcolor="#39e581"] ;
626 -> 627 ;
628 [label=<gini = 0.0<br/>samples = 1<br/>value = [1, 0, 0]<br/>class = GALAXY>, fillcolor="#e58139"] ;
626 -> 628 ;
629 [label=<gini = 0.0<br/>samples = 1<br/>value = [1, 0, 0]<br/>class = GALAXY>, fillcolor="#e58139"] ;
623 -> 629 ;
630 [label=<gini = 0.0<br/>samples = 2<br/>value = [2, 0, 0]<br/>class = GALAXY>, fillcolor="#e58139"] ;
616 -> 630 ;
631 [label=<redshift &le; 0.343<br/>gini = 0.111<br/>samples = 34<br/>value = [2, 32, 0]<br/>class = QSO>, fillcolor="#45e789"] ;
611 -> 631 ;
632 [label=<redshift &le; 0.336<br/>gini = 0.059<br/>samples = 33<br/>value = [1, 32, 0]<br/>class = QSO>, fillcolor="#3fe685"] ;
631 -> 632 ;
633 [label=<gini = 0.0<br/>samples = 30<br/>value = [0, 30, 0]<br/>class = QSO>, fillcolor="#39e581"] ;
632 -> 633 ;
634 [label=<cam_col &le; 4.0<br/>gini = 0.444<br/>samples = 3<br/>value = [1, 2, 0]<br/>class = QSO>, fillcolor="#9cf2c0"] ;
632 -> 634 ;
635 [label=<gini = 0.0<br/>samples = 2<br/>value = [0, 2, 0]<br/>class = QSO>, fillcolor="#39e581"] ;
634 -> 635 ;
636 [label=<gini = 0.0<br/>samples = 1<br/>value = [1, 0, 0]<br/>class = GALAXY>, fillcolor="#e58139"] ;
634 -> 636 ;
637 [label=<gini = 0.0<br/>samples = 1<br/>value = [1, 0, 0]<br/>class = GALAXY>, fillcolor="#e58139"] ;
631 -> 637 ;
638 [label=<redshift &le; 0.177<br/>gini = 0.101<br/>samples = 1120<br/>value = [1060, 60, 0]<br/>class = GALAXY>, fillcolor="#e68844"] ;
594 -> 638 ;
639 [label=<delta &le; 39.49<br/>gini = 0.014<br/>samples = 552<br/>value = [548, 4, 0]<br/>class = GALAXY>, fillcolor="#e5823a"] ;
638 -> 639 ;
640 [label=<alpha &le; 354.182<br/>gini = 0.004<br/>samples = 515<br/>value = [514, 1, 0]<br/>class = GALAXY>, fillcolor="#e58139"] ;
639 -> 640 ;
641 [label=<gini = 0.0<br/>samples = 501<br/>value = [501, 0, 0]<br/>class = GALAXY>, fillcolor="#e58139"] ;
640 -> 641 ;
642 [label=<plate &le; 2875.5<br/>gini = 0.133<br/>samples = 14<br/>value = [13, 1, 0]<br/>class = GALAXY>, fillcolor="#e78b48"] ;
640 -> 642 ;
643 [label=<gini = 0.0<br/>samples = 13<br/>value = [13, 0, 0]<br/>class = GALAXY>, fillcolor="#e58139"] ;
642 -> 643 ;
644 [label=<gini = 0.0<br/>samples = 1<br/>value = [0, 1, 0]<br/>class = QSO>, fillcolor="#39e581"] ;
642 -> 644 ;
645 [label=<field_ID &le; 365.5<br/>gini = 0.149<br/>samples = 37<br/>value = [34, 3, 0]<br/>class = GALAXY>, fillcolor="#e78c4a"] ;
639 -> 645 ;
646 [label=<redshift &le; 0.171<br/>gini = 0.057<br/>samples = 34<br/>value = [33, 1, 0]<br/>class = GALAXY>, fillcolor="#e6853f"] ;
645 -> 646 ;
647 [label=<gini = 0.0<br/>samples = 32<br/>value = [32, 0, 0]<br/>class = GALAXY>, fillcolor="#e58139"] ;
646 -> 647 ;
648 [label=<delta &le; 46.836<br/>gini = 0.5<br/>samples = 2<br/>value = [1, 1, 0]<br/>class = GALAXY>, fillcolor="#ffffff"] ;
646 -> 648 ;
649 [label=<gini = 0.0<br/>samples = 1<br/>value = [1, 0, 0]<br/>class = GALAXY>, fillcolor="#e58139"] ;
648 -> 649 ;
650 [label=<gini = 0.0<br/>samples = 1<br/>value = [0, 1, 0]<br/>class = QSO>, fillcolor="#39e581"] ;
648 -> 650 ;
651 [label=<run_ID &le; 2603.5<br/>gini = 0.444<br/>samples = 3<br/>value = [1, 2, 0]<br/>class = QSO>, fillcolor="#9cf2c0"] ;
645 -> 651 ;
652 [label=<gini = 0.0<br/>samples = 1<br/>value = [1, 0, 0]<br/>class = GALAXY>, fillcolor="#e58139"] ;
651 -> 652 ;
653 [label=<gini = 0.0<br/>samples = 2<br/>value = [0, 2, 0]<br/>class = QSO>, fillcolor="#39e581"] ;
651 -> 653 ;
654 [label=<u &le; 20.245<br/>gini = 0.178<br/>samples = 568<br/>value = [512.0, 56.0, 0.0]<br/>class = GALAXY>, fillcolor="#e88f4f"] ;
638 -> 654 ;
655 [label=<g &le; 19.407<br/>gini = 0.44<br/>samples = 98<br/>value = [66.0, 32.0, 0.0]<br/>class = GALAXY>, fillcolor="#f2be99"] ;
654 -> 655 ;
656 [label=<z &le; 17.503<br/>gini = 0.216<br/>samples = 65<br/>value = [57, 8, 0]<br/>class = GALAXY>, fillcolor="#e99355"] ;
655 -> 656 ;
657 [label=<gini = 0.0<br/>samples = 2<br/>value = [0, 2, 0]<br/>class = QSO>, fillcolor="#39e581"] ;
656 -> 657 ;
658 [label=<g &le; 19.33<br/>gini = 0.172<br/>samples = 63<br/>value = [57, 6, 0]<br/>class = GALAXY>, fillcolor="#e88e4e"] ;
656 -> 658 ;
659 [label=<fiber_ID &le; 596.0<br/>gini = 0.075<br/>samples = 51<br/>value = [49, 2, 0]<br/>class = GALAXY>, fillcolor="#e68641"] ;
658 -> 659 ;
660 [label=<redshift &le; 0.264<br/>gini = 0.039<br/>samples = 50<br/>value = [49, 1, 0]<br/>class = GALAXY>, fillcolor="#e6843d"] ;
659 -> 660 ;
661 [label=<gini = 0.0<br/>samples = 46<br/>value = [46, 0, 0]<br/>class = GALAXY>, fillcolor="#e58139"] ;
660 -> 661 ;
662 [label=<redshift &le; 0.266<br/>gini = 0.375<br/>samples = 4<br/>value = [3, 1, 0]<br/>class = GALAXY>, fillcolor="#eeab7b"] ;
660 -> 662 ;
663 [label=<gini = 0.0<br/>samples = 1<br/>value = [0, 1, 0]<br/>class = QSO>, fillcolor="#39e581"] ;
662 -> 663 ;
664 [label=<gini = 0.0<br/>samples = 3<br/>value = [3, 0, 0]<br/>class = GALAXY>, fillcolor="#e58139"] ;
662 -> 664 ;
665 [label=<gini = 0.0<br/>samples = 1<br/>value = [0, 1, 0]<br/>class = QSO>, fillcolor="#39e581"] ;
659 -> 665 ;
666 [label=<u &le; 20.076<br/>gini = 0.444<br/>samples = 12<br/>value = [8, 4, 0]<br/>class = GALAXY>, fillcolor="#f2c09c"] ;
658 -> 666 ;
667 [label=<fiber_ID &le; 574.0<br/>gini = 0.32<br/>samples = 5<br/>value = [1, 4, 0]<br/>class = QSO>, fillcolor="#6aeca0"] ;
666 -> 667 ;
668 [label=<gini = 0.0<br/>samples = 4<br/>value = [0, 4, 0]<br/>class = QSO>, fillcolor="#39e581"] ;
667 -> 668 ;
669 [label=<gini = 0.0<br/>samples = 1<br/>value = [1, 0, 0]<br/>class = GALAXY>, fillcolor="#e58139"] ;
667 -> 669 ;
670 [label=<gini = 0.0<br/>samples = 7<br/>value = [7, 0, 0]<br/>class = GALAXY>, fillcolor="#e58139"] ;
666 -> 670 ;
671 [label=<run_ID &le; 5159.5<br/>gini = 0.397<br/>samples = 33<br/>value = [9, 24, 0]<br/>class = QSO>, fillcolor="#83efb0"] ;
655 -> 671 ;
672 [label=<delta &le; 47.431<br/>gini = 0.32<br/>samples = 30<br/>value = [6, 24, 0]<br/>class = QSO>, fillcolor="#6aeca0"] ;
671 -> 672 ;
673 [label=<field_ID &le; 656.5<br/>gini = 0.204<br/>samples = 26<br/>value = [3, 23, 0]<br/>class = QSO>, fillcolor="#53e891"] ;
672 -> 673 ;
674 [label=<i &le; 19.424<br/>gini = 0.147<br/>samples = 25<br/>value = [2, 23, 0]<br/>class = QSO>, fillcolor="#4ae78c"] ;
673 -> 674 ;
675 [label=<redshift &le; 0.192<br/>gini = 0.08<br/>samples = 24<br/>value = [1, 23, 0]<br/>class = QSO>, fillcolor="#42e686"] ;
674 -> 675 ;
676 [label=<z &le; 18.476<br/>gini = 0.444<br/>samples = 3<br/>value = [1, 2, 0]<br/>class = QSO>, fillcolor="#9cf2c0"] ;
675 -> 676 ;
677 [label=<gini = 0.0<br/>samples = 2<br/>value = [0, 2, 0]<br/>class = QSO>, fillcolor="#39e581"] ;
676 -> 677 ;
678 [label=<gini = 0.0<br/>samples = 1<br/>value = [1, 0, 0]<br/>class = GALAXY>, fillcolor="#e58139"] ;
676 -> 678 ;
679 [label=<gini = 0.0<br/>samples = 21<br/>value = [0, 21, 0]<br/>class = QSO>, fillcolor="#39e581"] ;
675 -> 679 ;
680 [label=<gini = 0.0<br/>samples = 1<br/>value = [1, 0, 0]<br/>class = GALAXY>, fillcolor="#e58139"] ;
674 -> 680 ;
681 [label=<gini = 0.0<br/>samples = 1<br/>value = [1, 0, 0]<br/>class = GALAXY>, fillcolor="#e58139"] ;
673 -> 681 ;
682 [label=<r &le; 18.721<br/>gini = 0.375<br/>samples = 4<br/>value = [3, 1, 0]<br/>class = GALAXY>, fillcolor="#eeab7b"] ;
672 -> 682 ;
683 [label=<gini = 0.0<br/>samples = 1<br/>value = [0, 1, 0]<br/>class = QSO>, fillcolor="#39e581"] ;
682 -> 683 ;
684 [label=<gini = 0.0<br/>samples = 3<br/>value = [3, 0, 0]<br/>class = GALAXY>, fillcolor="#e58139"] ;
682 -> 684 ;
685 [label=<gini = 0.0<br/>samples = 3<br/>value = [3, 0, 0]<br/>class = GALAXY>, fillcolor="#e58139"] ;
671 -> 685 ;
686 [label=<r &le; 20.366<br/>gini = 0.097<br/>samples = 470<br/>value = [446, 24, 0]<br/>class = GALAXY>, fillcolor="#e68844"] ;
654 -> 686 ;
687 [label=<u &le; 21.305<br/>gini = 0.09<br/>samples = 466<br/>value = [444, 22, 0]<br/>class = GALAXY>, fillcolor="#e68743"] ;
686 -> 687 ;
688 [label=<spec_obj_ID &le; 7.492529628502819e+18<br/>gini = 0.16<br/>samples = 194<br/>value = [177, 17, 0]<br/>class = GALAXY>, fillcolor="#e78d4c"] ;
687 -> 688 ;
689 [label=<redshift &le; 0.338<br/>gini = 0.13<br/>samples = 186<br/>value = [173.0, 13.0, 0.0]<br/>class = GALAXY>, fillcolor="#e78a48"] ;
688 -> 689 ;
690 [label=<alpha &le; 8.714<br/>gini = 0.105<br/>samples = 179<br/>value = [169, 10, 0]<br/>class = GALAXY>, fillcolor="#e78845"] ;
689 -> 690 ;
691 [label=<MJD &le; 52533.5<br/>gini = 0.444<br/>samples = 3<br/>value = [1, 2, 0]<br/>class = QSO>, fillcolor="#9cf2c0"] ;
690 -> 691 ;
692 [label=<gini = 0.0<br/>samples = 2<br/>value = [0, 2, 0]<br/>class = QSO>, fillcolor="#39e581"] ;
691 -> 692 ;
693 [label=<gini = 0.0<br/>samples = 1<br/>value = [1, 0, 0]<br/>class = GALAXY>, fillcolor="#e58139"] ;
691 -> 693 ;
694 [label=<u &le; 21.303<br/>gini = 0.087<br/>samples = 176<br/>value = [168, 8, 0]<br/>class = GALAXY>, fillcolor="#e68742"] ;
690 -> 694 ;
695 [label=<delta &le; 32.75<br/>gini = 0.077<br/>samples = 175<br/>value = [168, 7, 0]<br/>class = GALAXY>, fillcolor="#e68641"] ;
694 -> 695 ;
696 [label=<redshift &le; 0.18<br/>gini = 0.038<br/>samples = 155<br/>value = [152, 3, 0]<br/>class = GALAXY>, fillcolor="#e6833d"] ;
695 -> 696 ;
697 [label=<z &le; 18.985<br/>gini = 0.375<br/>samples = 4<br/>value = [3, 1, 0]<br/>class = GALAXY>, fillcolor="#eeab7b"] ;
696 -> 697 ;
698 [label=<gini = 0.0<br/>samples = 3<br/>value = [3, 0, 0]<br/>class = GALAXY>, fillcolor="#e58139"] ;
697 -> 698 ;
699 [label=<gini = 0.0<br/>samples = 1<br/>value = [0, 1, 0]<br/>class = QSO>, fillcolor="#39e581"] ;
697 -> 699 ;
700 [label=<delta &le; -1.806<br/>gini = 0.026<br/>samples = 151<br/>value = [149, 2, 0]<br/>class = GALAXY>, fillcolor="#e5833c"] ;
696 -> 700 ;
701 [label=<obj_ID &le; 1.2376541999703e+18<br/>gini = 0.32<br/>samples = 5<br/>value = [4, 1, 0]<br/>class = GALAXY>, fillcolor="#eca06a"] ;
700 -> 701 ;
702 [label=<gini = 0.0<br/>samples = 4<br/>value = [4, 0, 0]<br/>class = GALAXY>, fillcolor="#e58139"] ;
701 -> 702 ;
703 [label=<gini = 0.0<br/>samples = 1<br/>value = [0, 1, 0]<br/>class = QSO>, fillcolor="#39e581"] ;
701 -> 703 ;
704 [label=<MJD &le; 52174.5<br/>gini = 0.014<br/>samples = 146<br/>value = [145, 1, 0]<br/>class = GALAXY>, fillcolor="#e5823a"] ;
700 -> 704 ;
705 [label=<delta &le; 1.064<br/>gini = 0.245<br/>samples = 7<br/>value = [6, 1, 0]<br/>class = GALAXY>, fillcolor="#e9965a"] ;
704 -> 705 ;
706 [label=<gini = 0.0<br/>samples = 6<br/>value = [6, 0, 0]<br/>class = GALAXY>, fillcolor="#e58139"] ;
705 -> 706 ;
707 [label=<gini = 0.0<br/>samples = 1<br/>value = [0, 1, 0]<br/>class = QSO>, fillcolor="#39e581"] ;
705 -> 707 ;
708 [label=<gini = 0.0<br/>samples = 139<br/>value = [139, 0, 0]<br/>class = GALAXY>, fillcolor="#e58139"] ;
704 -> 708 ;
709 [label=<delta &le; 41.443<br/>gini = 0.32<br/>samples = 20<br/>value = [16, 4, 0]<br/>class = GALAXY>, fillcolor="#eca06a"] ;
695 -> 709 ;
710 [label=<redshift &le; 0.273<br/>gini = 0.48<br/>samples = 10<br/>value = [6, 4, 0]<br/>class = GALAXY>, fillcolor="#f6d5bd"] ;
709 -> 710 ;
711 [label=<gini = 0.0<br/>samples = 3<br/>value = [0, 3, 0]<br/>class = QSO>, fillcolor="#39e581"] ;
710 -> 711 ;
712 [label=<cam_col &le; 2.5<br/>gini = 0.245<br/>samples = 7<br/>value = [6, 1, 0]<br/>class = GALAXY>, fillcolor="#e9965a"] ;
710 -> 712 ;
713 [label=<gini = 0.0<br/>samples = 1<br/>value = [0, 1, 0]<br/>class = QSO>, fillcolor="#39e581"] ;
712 -> 713 ;
714 [label=<gini = 0.0<br/>samples = 6<br/>value = [6, 0, 0]<br/>class = GALAXY>, fillcolor="#e58139"] ;
712 -> 714 ;
715 [label=<gini = 0.0<br/>samples = 10<br/>value = [10, 0, 0]<br/>class = GALAXY>, fillcolor="#e58139"] ;
709 -> 715 ;
716 [label=<gini = 0.0<br/>samples = 1<br/>value = [0, 1, 0]<br/>class = QSO>, fillcolor="#39e581"] ;
694 -> 716 ;
717 [label=<alpha &le; 33.203<br/>gini = 0.49<br/>samples = 7<br/>value = [4, 3, 0]<br/>class = GALAXY>, fillcolor="#f8e0ce"] ;
689 -> 717 ;
718 [label=<gini = 0.0<br/>samples = 3<br/>value = [3, 0, 0]<br/>class = GALAXY>, fillcolor="#e58139"] ;
717 -> 718 ;
719 [label=<field_ID &le; 173.0<br/>gini = 0.375<br/>samples = 4<br/>value = [1, 3, 0]<br/>class = QSO>, fillcolor="#7beeab"] ;
717 -> 719 ;
720 [label=<gini = 0.0<br/>samples = 1<br/>value = [1, 0, 0]<br/>class = GALAXY>, fillcolor="#e58139"] ;
719 -> 720 ;
721 [label=<gini = 0.0<br/>samples = 3<br/>value = [0, 3, 0]<br/>class = QSO>, fillcolor="#39e581"] ;
719 -> 721 ;
722 [label=<delta &le; 56.296<br/>gini = 0.5<br/>samples = 8<br/>value = [4, 4, 0]<br/>class = GALAXY>, fillcolor="#ffffff"] ;
688 -> 722 ;
723 [label=<gini = 0.0<br/>samples = 4<br/>value = [0, 4, 0]<br/>class = QSO>, fillcolor="#39e581"] ;
722 -> 723 ;
724 [label=<gini = 0.0<br/>samples = 4<br/>value = [4, 0, 0]<br/>class = GALAXY>, fillcolor="#e58139"] ;
722 -> 724 ;
725 [label=<g &le; 19.852<br/>gini = 0.036<br/>samples = 272<br/>value = [267, 5, 0]<br/>class = GALAXY>, fillcolor="#e5833d"] ;
687 -> 725 ;
726 [label=<r &le; 18.808<br/>gini = 0.245<br/>samples = 14<br/>value = [12, 2, 0]<br/>class = GALAXY>, fillcolor="#e9965a"] ;
725 -> 726 ;
727 [label=<alpha &le; 337.457<br/>gini = 0.142<br/>samples = 13<br/>value = [12, 1, 0]<br/>class = GALAXY>, fillcolor="#e78c49"] ;
726 -> 727 ;
728 [label=<gini = 0.0<br/>samples = 11<br/>value = [11, 0, 0]<br/>class = GALAXY>, fillcolor="#e58139"] ;
727 -> 728 ;
729 [label=<g &le; 19.763<br/>gini = 0.5<br/>samples = 2<br/>value = [1, 1, 0]<br/>class = GALAXY>, fillcolor="#ffffff"] ;
727 -> 729 ;
730 [label=<gini = 0.0<br/>samples = 1<br/>value = [0, 1, 0]<br/>class = QSO>, fillcolor="#39e581"] ;
729 -> 730 ;
731 [label=<gini = 0.0<br/>samples = 1<br/>value = [1, 0, 0]<br/>class = GALAXY>, fillcolor="#e58139"] ;
729 -> 731 ;
732 [label=<gini = 0.0<br/>samples = 1<br/>value = [0, 1, 0]<br/>class = QSO>, fillcolor="#39e581"] ;
726 -> 732 ;
733 [label=<i &le; 19.79<br/>gini = 0.023<br/>samples = 258<br/>value = [255, 3, 0]<br/>class = GALAXY>, fillcolor="#e5823b"] ;
725 -> 733 ;
734 [label=<field_ID &le; 779.0<br/>gini = 0.016<br/>samples = 251<br/>value = [249, 2, 0]<br/>class = GALAXY>, fillcolor="#e5823b"] ;
733 -> 734 ;
735 [label=<g &le; 20.682<br/>gini = 0.009<br/>samples = 230<br/>value = [229, 1, 0]<br/>class = GALAXY>, fillcolor="#e5823a"] ;
734 -> 735 ;
736 [label=<gini = 0.0<br/>samples = 206<br/>value = [206, 0, 0]<br/>class = GALAXY>, fillcolor="#e58139"] ;
735 -> 736 ;
737 [label=<g &le; 20.689<br/>gini = 0.08<br/>samples = 24<br/>value = [23, 1, 0]<br/>class = GALAXY>, fillcolor="#e68642"] ;
735 -> 737 ;
738 [label=<gini = 0.0<br/>samples = 1<br/>value = [0, 1, 0]<br/>class = QSO>, fillcolor="#39e581"] ;
737 -> 738 ;
739 [label=<gini = 0.0<br/>samples = 23<br/>value = [23, 0, 0]<br/>class = GALAXY>, fillcolor="#e58139"] ;
737 -> 739 ;
740 [label=<alpha &le; 49.756<br/>gini = 0.091<br/>samples = 21<br/>value = [20, 1, 0]<br/>class = GALAXY>, fillcolor="#e68743"] ;
734 -> 740 ;
741 [label=<gini = 0.0<br/>samples = 1<br/>value = [0, 1, 0]<br/>class = QSO>, fillcolor="#39e581"] ;
740 -> 741 ;
742 [label=<gini = 0.0<br/>samples = 20<br/>value = [20, 0, 0]<br/>class = GALAXY>, fillcolor="#e58139"] ;
740 -> 742 ;
743 [label=<delta &le; -0.577<br/>gini = 0.245<br/>samples = 7<br/>value = [6, 1, 0]<br/>class = GALAXY>, fillcolor="#e9965a"] ;
733 -> 743 ;
744 [label=<gini = 0.0<br/>samples = 1<br/>value = [0, 1, 0]<br/>class = QSO>, fillcolor="#39e581"] ;
743 -> 744 ;
745 [label=<gini = 0.0<br/>samples = 6<br/>value = [6, 0, 0]<br/>class = GALAXY>, fillcolor="#e58139"] ;
743 -> 745 ;
746 [label=<fiber_ID &le; 658.5<br/>gini = 0.5<br/>samples = 4<br/>value = [2, 2, 0]<br/>class = GALAXY>, fillcolor="#ffffff"] ;
686 -> 746 ;
747 [label=<gini = 0.0<br/>samples = 2<br/>value = [0, 2, 0]<br/>class = QSO>, fillcolor="#39e581"] ;
746 -> 747 ;
748 [label=<gini = 0.0<br/>samples = 2<br/>value = [2, 0, 0]<br/>class = GALAXY>, fillcolor="#e58139"] ;
746 -> 748 ;
749 [label=<u &le; 20.806<br/>gini = 0.462<br/>samples = 1017<br/>value = [648, 369, 0]<br/>class = GALAXY>, fillcolor="#f4c9aa"] ;
277 -> 749 ;
750 [label=<g &le; 20.732<br/>gini = 0.149<br/>samples = 283<br/>value = [23, 260, 0]<br/>class = QSO>, fillcolor="#4be78c"] ;
749 -> 750 ;
751 [label=<i &le; 17.264<br/>gini = 0.127<br/>samples = 279<br/>value = [19, 260, 0]<br/>class = QSO>, fillcolor="#47e78a"] ;
750 -> 751 ;
752 [label=<delta &le; 24.548<br/>gini = 0.469<br/>samples = 8<br/>value = [5, 3, 0]<br/>class = GALAXY>, fillcolor="#f5cdb0"] ;
751 -> 752 ;
753 [label=<u &le; 17.663<br/>gini = 0.278<br/>samples = 6<br/>value = [5, 1, 0]<br/>class = GALAXY>, fillcolor="#ea9a61"] ;
752 -> 753 ;
754 [label=<gini = 0.0<br/>samples = 1<br/>value = [0, 1, 0]<br/>class = QSO>, fillcolor="#39e581"] ;
753 -> 754 ;
755 [label=<gini = 0.0<br/>samples = 5<br/>value = [5, 0, 0]<br/>class = GALAXY>, fillcolor="#e58139"] ;
753 -> 755 ;
756 [label=<gini = 0.0<br/>samples = 2<br/>value = [0, 2, 0]<br/>class = QSO>, fillcolor="#39e581"] ;
752 -> 756 ;
757 [label=<r &le; 24.934<br/>gini = 0.098<br/>samples = 271<br/>value = [14, 257, 0]<br/>class = QSO>, fillcolor="#44e688"] ;
751 -> 757 ;
758 [label=<field_ID &le; 833.0<br/>gini = 0.092<br/>samples = 270<br/>value = [13, 257, 0]<br/>class = QSO>, fillcolor="#43e687"] ;
757 -> 758 ;
759 [label=<u &le; 20.42<br/>gini = 0.085<br/>samples = 269<br/>value = [12, 257, 0]<br/>class = QSO>, fillcolor="#42e687"] ;
758 -> 759 ;
760 [label=<run_ID &le; 6467.0<br/>gini = 0.036<br/>samples = 217<br/>value = [4, 213, 0]<br/>class = QSO>, fillcolor="#3de583"] ;
759 -> 760 ;
761 [label=<fiber_ID &le; 204.0<br/>gini = 0.01<br/>samples = 208<br/>value = [1, 207, 0]<br/>class = QSO>, fillcolor="#3ae582"] ;
760 -> 761 ;
