digraph Tree {
node [shape=box, style="filled, rounded", color="black", fontname="helvetica"] ;
edge [fontname="helvetica"] ;
0 [label=<redshift &le; 0.004<br/>gini = 0.564<br/>samples = 80000<br/>value = [47585, 15164, 17251]<br/>class = GALAXY>, fillcolor="#f2c29f"] ;
1 [label=<redshift &le; -0.0<br/>gini = 0.045<br/>samples = 17662<br/>value = [409, 2, 17251]<br/>class = STAR>, fillcolor="#843ee6"] ;
0 -> 1 [labeldistance=2.5, labelangle=45, headlabel="True"] ;
2 [label=<redshift &le; -0.004<br/>gini = 0.006<br/>samples = 10934<br/>value = [34, 0, 10900]<br/>class = STAR>, fillcolor="#813ae5"] ;
1 -> 2 ;
3 [label=<gini = 0.0<br/>samples = 6<br/>value = [6, 0, 0]<br/>class = GALAXY>, fillcolor="#e58139"] ;
2 -> 3 ;
4 [label=<g &le; 27.338<br/>gini = 0.005<br/>samples = 10928<br/>value = [28, 0, 10900]<br/>class = STAR>, fillcolor="#813ae5"] ;
2 -> 4 ;
5 [label=<i &le; 22.2<br/>gini = 0.005<br/>samples = 10925<br/>value = [27, 0, 10898]<br/>class = STAR>, fillcolor="#8139e5"] ;
4 -> 5 ;
6 [label=<z &le; 21.509<br/>gini = 0.004<br/>samples = 10878<br/>value = [23, 0, 10855]<br/>class = STAR>, fillcolor="#8139e5"] ;
5 -> 6 ;
7 [label=<u &le; 22.175<br/>gini = 0.003<br/>samples = 10551<br/>value = [18, 0, 10533]<br/>class = STAR>, fillcolor="#8139e5"] ;
6 -> 7 ;
8 [label=<redshift &le; -0.0<br/>gini = 0.001<br/>samples = 7317<br/>value = [5, 0, 7312]<br/>class = STAR>, fillcolor="#8139e5"] ;
7 -> 8 ;
9 [label=<r &le; 18.017<br/>gini = 0.001<br/>samples = 7125<br/>value = [3, 0, 7122]<br/>class = STAR>, fillcolor="#8139e5"] ;
8 -> 9 ;
10 [label=<gini = 0.0<br/>samples = 3751<br/>value = [0, 0, 3751]<br/>class = STAR>, fillcolor="#8139e5"] ;
9 -> 10 ;
11 [label=<r &le; 18.017<br/>gini = 0.002<br/>samples = 3374<br/>value = [3, 0, 3371]<br/>class = STAR>, fillcolor="#8139e5"] ;
9 -> 11 ;
12 [label=<gini = 0.0<br/>samples = 1<br/>value = [1, 0, 0]<br/>class = GALAXY>, fillcolor="#e58139"] ;
11 -> 12 ;
13 [label=<z &le; 17.531<br/>gini = 0.001<br/>samples = 3373<br/>value = [2, 0, 3371]<br/>class = STAR>, fillcolor="#8139e5"] ;
11 -> 13 ;
14 [label=<z &le; 17.529<br/>gini = 0.029<br/>samples = 68<br/>value = [1, 0, 67]<br/>class = STAR>, fillcolor="#833ce5"] ;
13 -> 14 ;
15 [label=<gini = 0.0<br/>samples = 67<br/>value = [0, 0, 67]<br/>class = STAR>, fillcolor="#8139e5"] ;
14 -> 15 ;
16 [label=<gini = 0.0<br/>samples = 1<br/>value = [1, 0, 0]<br/>class = GALAXY>, fillcolor="#e58139"] ;
14 -> 16 ;
17 [label=<redshift &le; -0.0<br/>gini = 0.001<br/>samples = 3305<br/>value = [1.0, 0.0, 3304.0]<br/>class = STAR>, fillcolor="#8139e5"] ;
13 -> 17 ;
18 [label=<gini = 0.0<br/>samples = 2203<br/>value = [0, 0, 2203]<br/>class = STAR>, fillcolor="#8139e5"] ;
17 -> 18 ;
19 [label=<redshift &le; -0.0<br/>gini = 0.002<br/>samples = 1102<br/>value = [1, 0, 1101]<br/>class = STAR>, fillcolor="#8139e5"] ;
17 -> 19 ;
20 [label=<z &le; 18.877<br/>gini = 0.444<br/>samples = 3<br/>value = [1, 0, 2]<br/>class = STAR>, fillcolor="#c09cf2"] ;
19 -> 20 ;
21 [label=<gini = 0.0<br/>samples = 2<br/>value = [0, 0, 2]<br/>class = STAR>, fillcolor="#8139e5"] ;
20 -> 21 ;
22 [label=<gini = 0.0<br/>samples = 1<br/>value = [1, 0, 0]<br/>class = GALAXY>, fillcolor="#e58139"] ;
20 -> 22 ;
23 [label=<gini = 0.0<br/>samples = 1099<br/>value = [0, 0, 1099]<br/>class = STAR>, fillcolor="#8139e5"] ;
19 -> 23 ;
24 [label=<r &le; 20.768<br/>gini = 0.021<br/>samples = 192<br/>value = [2, 0, 190]<br/>class = STAR>, fillcolor="#823be5"] ;
8 -> 24 ;
25 [label=<u &le; 21.806<br/>gini = 0.011<br/>samples = 189<br/>value = [1, 0, 188]<br/>class = STAR>, fillcolor="#823ae5"] ;
24 -> 25 ;
26 [label=<gini = 0.0<br/>samples = 181<br/>value = [0, 0, 181]<br/>class = STAR>, fillcolor="#8139e5"] ;
25 -> 26 ;
27 [label=<redshift &le; -0.0<br/>gini = 0.219<br/>samples = 8<br/>value = [1, 0, 7]<br/>class = STAR>, fillcolor="#9355e9"] ;
25 -> 27 ;
28 [label=<gini = 0.0<br/>samples = 1<br/>value = [1, 0, 0]<br/>class = GALAXY>, fillcolor="#e58139"] ;
27 -> 28 ;
29 [label=<gini = 0.0<br/>samples = 7<br/>value = [0, 0, 7]<br/>class = STAR>, fillcolor="#8139e5"] ;
27 -> 29 ;
30 [label=<g &le; 20.997<br/>gini = 0.444<br/>samples = 3<br/>value = [1, 0, 2]<br/>class = STAR>, fillcolor="#c09cf2"] ;
24 -> 30 ;
31 [label=<gini = 0.0<br/>samples = 1<br/>value = [1, 0, 0]<br/>class = GALAXY>, fillcolor="#e58139"] ;
30 -> 31 ;
32 [label=<gini = 0.0<br/>samples = 2<br/>value = [0, 0, 2]<br/>class = STAR>, fillcolor="#8139e5"] ;
30 -> 32 ;
33 [label=<u &le; 22.176<br/>gini = 0.008<br/>samples = 3234<br/>value = [13, 0, 3221]<br/>class = STAR>, fillcolor="#823ae5"] ;
7 -> 33 ;
34 [label=<gini = 0.0<br/>samples = 1<br/>value = [1, 0, 0]<br/>class = GALAXY>, fillcolor="#e58139"] ;
33 -> 34 ;
35 [label=<g &le; 21.395<br/>gini = 0.007<br/>samples = 3233<br/>value = [12, 0, 3221]<br/>class = STAR>, fillcolor="#813ae5"] ;
33 -> 35 ;
36 [label=<g &le; 21.393<br/>gini = 0.013<br/>samples = 1346<br/>value = [9, 0, 1337]<br/>class = STAR>, fillcolor="#823ae5"] ;
35 -> 36 ;
37 [label=<z &le; 18.541<br/>gini = 0.012<br/>samples = 1345<br/>value = [8, 0, 1337]<br/>class = STAR>, fillcolor="#823ae5"] ;
36 -> 37 ;
38 [label=<gini = 0.0<br/>samples = 470<br/>value = [0, 0, 470]<br/>class = STAR>, fillcolor="#8139e5"] ;
37 -> 38 ;
39 [label=<z &le; 18.547<br/>gini = 0.018<br/>samples = 875<br/>value = [8, 0, 867]<br/>class = STAR>, fillcolor="#823be5"] ;
37 -> 39 ;
40 [label=<gini = 0.0<br/>samples = 1<br/>value = [1, 0, 0]<br/>class = GALAXY>, fillcolor="#e58139"] ;
39 -> 40 ;
41 [label=<i &le; 18.364<br/>gini = 0.016<br/>samples = 874<br/>value = [7, 0, 867]<br/>class = STAR>, fillcolor="#823be5"] ;
39 -> 41 ;
42 [label=<gini = 0.0<br/>samples = 1<br/>value = [1, 0, 0]<br/>class = GALAXY>, fillcolor="#e58139"] ;
41 -> 42 ;
43 [label=<i &le; 18.744<br/>gini = 0.014<br/>samples = 873<br/>value = [6, 0, 867]<br/>class = STAR>, fillcolor="#823ae5"] ;
41 -> 43 ;
44 [label=<r &le; 19.324<br/>gini = 0.375<br/>samples = 4<br/>value = [1, 0, 3]<br/>class = STAR>, fillcolor="#ab7bee"] ;
43 -> 44 ;
45 [label=<gini = 0.0<br/>samples = 3<br/>value = [0, 0, 3]<br/>class = STAR>, fillcolor="#8139e5"] ;
44 -> 45 ;
46 [label=<gini = 0.0<br/>samples = 1<br/>value = [1, 0, 0]<br/>class = GALAXY>, fillcolor="#e58139"] ;
44 -> 46 ;
47 [label=<redshift &le; -0.0<br/>gini = 0.011<br/>samples = 869<br/>value = [5, 0, 864]<br/>class = STAR>, fillcolor="#823ae5"] ;
43 -> 47 ;
48 [label=<gini = 0.0<br/>samples = 537<br/>value = [0, 0, 537]<br/>class = STAR>, fillcolor="#8139e5"] ;
47 -> 48 ;
49 [label=<redshift &le; -0.0<br/>gini = 0.03<br/>samples = 332<br/>value = [5, 0, 327]<br/>class = STAR>, fillcolor="#833ce5"] ;
47 -> 49 ;
50 [label=<u &le; 23.029<br/>gini = 0.5<br/>samples = 2<br/>value = [1, 0, 1]<br/>class = GALAXY>, fillcolor="#ffffff"] ;
49 -> 50 ;
51 [label=<gini = 0.0<br/>samples = 1<br/>value = [0, 0, 1]<br/>class = STAR>, fillcolor="#8139e5"] ;
50 -> 51 ;
52 [label=<gini = 0.0<br/>samples = 1<br/>value = [1, 0, 0]<br/>class = GALAXY>, fillcolor="#e58139"] ;
50 -> 52 ;
53 [label=<g &le; 21.068<br/>gini = 0.024<br/>samples = 330<br/>value = [4, 0, 326]<br/>class = STAR>, fillcolor="#833be5"] ;
49 -> 53 ;
54 [label=<gini = 0.0<br/>samples = 196<br/>value = [0, 0, 196]<br/>class = STAR>, fillcolor="#8139e5"] ;
53 -> 54 ;
55 [label=<g &le; 21.072<br/>gini = 0.058<br/>samples = 134<br/>value = [4, 0, 130]<br/>class = STAR>, fillcolor="#853fe6"] ;
53 -> 55 ;
56 [label=<gini = 0.0<br/>samples = 1<br/>value = [1, 0, 0]<br/>class = GALAXY>, fillcolor="#e58139"] ;
55 -> 56 ;
57 [label=<g &le; 21.079<br/>gini = 0.044<br/>samples = 133<br/>value = [3, 0, 130]<br/>class = STAR>, fillcolor="#843ee6"] ;
55 -> 57 ;
58 [label=<g &le; 21.078<br/>gini = 0.444<br/>samples = 3<br/>value = [1, 0, 2]<br/>class = STAR>, fillcolor="#c09cf2"] ;
57 -> 58 ;
59 [label=<gini = 0.0<br/>samples = 2<br/>value = [0, 0, 2]<br/>class = STAR>, fillcolor="#8139e5"] ;
58 -> 59 ;
60 [label=<gini = 0.0<br/>samples = 1<br/>value = [1, 0, 0]<br/>class = GALAXY>, fillcolor="#e58139"] ;
58 -> 60 ;
61 [label=<z &le; 19.737<br/>gini = 0.03<br/>samples = 130<br/>value = [2, 0, 128]<br/>class = STAR>, fillcolor="#833ce5"] ;
57 -> 61 ;
62 [label=<z &le; 19.73<br/>gini = 0.085<br/>samples = 45<br/>value = [2, 0, 43]<br/>class = STAR>, fillcolor="#8742e6"] ;
61 -> 62 ;
63 [label=<gini = 0.0<br/>samples = 43<br/>value = [0, 0, 43]<br/>class = STAR>, fillcolor="#8139e5"] ;
62 -> 63 ;
64 [label=<gini = 0.0<br/>samples = 2<br/>value = [2, 0, 0]<br/>class = GALAXY>, fillcolor="#e58139"] ;
62 -> 64 ;
65 [label=<gini = 0.0<br/>samples = 85<br/>value = [0, 0, 85]<br/>class = STAR>, fillcolor="#8139e5"] ;
61 -> 65 ;
66 [label=<gini = 0.0<br/>samples = 1<br/>value = [1, 0, 0]<br/>class = GALAXY>, fillcolor="#e58139"] ;
36 -> 66 ;
67 [label=<r &le; 21.339<br/>gini = 0.003<br/>samples = 1887<br/>value = [3, 0, 1884]<br/>class = STAR>, fillcolor="#8139e5"] ;
35 -> 67 ;
68 [label=<r &le; 21.338<br/>gini = 0.006<br/>samples = 993<br/>value = [3, 0, 990]<br/>class = STAR>, fillcolor="#813ae5"] ;
67 -> 68 ;
69 [label=<g &le; 22.111<br/>gini = 0.004<br/>samples = 992<br/>value = [2, 0, 990]<br/>class = STAR>, fillcolor="#8139e5"] ;
68 -> 69 ;
70 [label=<gini = 0.0<br/>samples = 632<br/>value = [0, 0, 632]<br/>class = STAR>, fillcolor="#8139e5"] ;
69 -> 70 ;
71 [label=<g &le; 22.114<br/>gini = 0.011<br/>samples = 360<br/>value = [2, 0, 358]<br/>class = STAR>, fillcolor="#823ae5"] ;
69 -> 71 ;
72 [label=<gini = 0.0<br/>samples = 1<br/>value = [1, 0, 0]<br/>class = GALAXY>, fillcolor="#e58139"] ;
71 -> 72 ;
73 [label=<redshift &le; -0.0<br/>gini = 0.006<br/>samples = 359<br/>value = [1, 0, 358]<br/>class = STAR>, fillcolor="#813ae5"] ;
71 -> 73 ;
74 [label=<redshift &le; -0.0<br/>gini = 0.054<br/>samples = 36<br/>value = [1, 0, 35]<br/>class = STAR>, fillcolor="#853fe6"] ;
73 -> 74 ;
75 [label=<gini = 0.0<br/>samples = 35<br/>value = [0, 0, 35]<br/>class = STAR>, fillcolor="#8139e5"] ;
74 -> 75 ;
76 [label=<gini = 0.0<br/>samples = 1<br/>value = [1, 0, 0]<br/>class = GALAXY>, fillcolor="#e58139"] ;
74 -> 76 ;
77 [label=<gini = 0.0<br/>samples = 323<br/>value = [0, 0, 323]<br/>class = STAR>, fillcolor="#8139e5"] ;
73 -> 77 ;
78 [label=<gini = 0.0<br/>samples = 1<br/>value = [1, 0, 0]<br/>class = GALAXY>, fillcolor="#e58139"] ;
68 -> 78 ;
79 [label=<gini = 0.0<br/>samples = 894<br/>value = [0, 0, 894]<br/>class = STAR>, fillcolor="#8139e5"] ;
67 -> 79 ;
80 [label=<z &le; 21.51<br/>gini = 0.03<br/>samples = 327<br/>value = [5, 0, 322]<br/>class = STAR>, fillcolor="#833ce5"] ;
6 -> 80 ;
81 [label=<gini = 0.0<br/>samples = 1<br/>value = [1, 0, 0]<br/>class = GALAXY>, fillcolor="#e58139"] ;
80 -> 81 ;
82 [label=<redshift &le; -0.002<br/>gini = 0.024<br/>samples = 326<br/>value = [4, 0, 322]<br/>class = STAR>, fillcolor="#833be5"] ;
80 -> 82 ;
83 [label=<redshift &le; -0.003<br/>gini = 0.278<br/>samples = 6<br/>value = [1, 0, 5]<br/>class = STAR>, fillcolor="#9a61ea"] ;
82 -> 83 ;
84 [label=<gini = 0.0<br/>samples = 5<br/>value = [0, 0, 5]<br/>class = STAR>, fillcolor="#8139e5"] ;
83 -> 84 ;
85 [label=<gini = 0.0<br/>samples = 1<br/>value = [1, 0, 0]<br/>class = GALAXY>, fillcolor="#e58139"] ;
83 -> 85 ;
86 [label=<u &le; 21.981<br/>gini = 0.019<br/>samples = 320<br/>value = [3, 0, 317]<br/>class = STAR>, fillcolor="#823be5"] ;
82 -> 86 ;
87 [label=<u &le; 21.967<br/>gini = 0.105<br/>samples = 36<br/>value = [2, 0, 34]<br/>class = STAR>, fillcolor="#8845e7"] ;
86 -> 87 ;
88 [label=<g &le; 21.603<br/>gini = 0.056<br/>samples = 35<br/>value = [1, 0, 34]<br/>class = STAR>, fillcolor="#853fe6"] ;
87 -> 88 ;
89 [label=<gini = 0.0<br/>samples = 29<br/>value = [0, 0, 29]<br/>class = STAR>, fillcolor="#8139e5"] ;
88 -> 89 ;
90 [label=<g &le; 21.607<br/>gini = 0.278<br/>samples = 6<br/>value = [1, 0, 5]<br/>class = STAR>, fillcolor="#9a61ea"] ;
88 -> 90 ;
91 [label=<gini = 0.0<br/>samples = 1<br/>value = [1, 0, 0]<br/>class = GALAXY>, fillcolor="#e58139"] ;
90 -> 91 ;
92 [label=<gini = 0.0<br/>samples = 5<br/>value = [0, 0, 5]<br/>class = STAR>, fillcolor="#8139e5"] ;
90 -> 92 ;
93 [label=<gini = 0.0<br/>samples = 1<br/>value = [1, 0, 0]<br/>class = GALAXY>, fillcolor="#e58139"] ;
87 -> 93 ;
94 [label=<r &le; 20.341<br/>gini = 0.007<br/>samples = 284<br/>value = [1, 0, 283]<br/>class = STAR>, fillcolor="#813ae5"] ;
86 -> 94 ;
95 [label=<r &le; 20.256<br/>gini = 0.142<br/>samples = 13<br/>value = [1, 0, 12]<br/>class = STAR>, fillcolor="#8c49e7"] ;
94 -> 95 ;
96 [label=<gini = 0.0<br/>samples = 12<br/>value = [0, 0, 12]<br/>class = STAR>, fillcolor="#8139e5"] ;
95 -> 96 ;
97 [label=<gini = 0.0<br/>samples = 1<br/>value = [1, 0, 0]<br/>class = GALAXY>, fillcolor="#e58139"] ;
95 -> 97 ;
98 [label=<gini = 0.0<br/>samples = 271<br/>value = [0, 0, 271]<br/>class = STAR>, fillcolor="#8139e5"] ;
94 -> 98 ;
99 [label=<i &le; 22.222<br/>gini = 0.156<br/>samples = 47<br/>value = [4, 0, 43]<br/>class = STAR>, fillcolor="#8d4be7"] ;
5 -> 99 ;
100 [label=<gini = 0.0<br/>samples = 2<br/>value = [2, 0, 0]<br/>class = GALAXY>, fillcolor="#e58139"] ;
99 -> 100 ;
101 [label=<r &le; 16.9<br/>gini = 0.085<br/>samples = 45<br/>value = [2, 0, 43]<br/>class = STAR>, fillcolor="#8742e6"] ;
99 -> 101 ;
102 [label=<gini = 0.0<br/>samples = 1<br/>value = [1, 0, 0]<br/>class = GALAXY>, fillcolor="#e58139"] ;
101 -> 102 ;
103 [label=<i &le; 22.266<br/>gini = 0.044<br/>samples = 44<br/>value = [1, 0, 43]<br/>class = STAR>, fillcolor="#843ee6"] ;
101 -> 103 ;
104 [label=<i &le; 22.256<br/>gini = 0.32<br/>samples = 5<br/>value = [1, 0, 4]<br/>class = STAR>, fillcolor="#a06aec"] ;
103 -> 104 ;
105 [label=<gini = 0.0<br/>samples = 4<br/>value = [0, 0, 4]<br/>class = STAR>, fillcolor="#8139e5"] ;
104 -> 105 ;
106 [label=<gini = 0.0<br/>samples = 1<br/>value = [1, 0, 0]<br/>class = GALAXY>, fillcolor="#e58139"] ;
104 -> 106 ;
107 [label=<gini = 0.0<br/>samples = 39<br/>value = [0, 0, 39]<br/>class = STAR>, fillcolor="#8139e5"] ;
103 -> 107 ;
108 [label=<u &le; 24.01<br/>gini = 0.444<br/>samples = 3<br/>value = [1, 0, 2]<br/>class = STAR>, fillcolor="#c09cf2"] ;
4 -> 108 ;
109 [label=<gini = 0.0<br/>samples = 1<br/>value = [1, 0, 0]<br/>class = GALAXY>, fillcolor="#e58139"] ;
108 -> 109 ;
110 [label=<gini = 0.0<br/>samples = 2<br/>value = [0, 0, 2]<br/>class = STAR>, fillcolor="#8139e5"] ;
108 -> 110 ;
111 [label=<redshift &le; 0.0<br/>gini = 0.106<br/>samples = 6728<br/>value = [375.0, 2.0, 6351.0]<br/>class = STAR>, fillcolor="#8845e7"] ;
1 -> 111 ;
112 [label=<z &le; 19.296<br/>gini = 0.128<br/>samples = 350<br/>value = [326, 0, 24]<br/>class = GALAXY>, fillcolor="#e78a48"] ;
111 -> 112 ;
113 [label=<r &le; 21.239<br/>gini = 0.213<br/>samples = 165<br/>value = [145, 0, 20]<br/>class = GALAXY>, fillcolor="#e99254"] ;
112 -> 113 ;
114 [label=<z &le; 19.288<br/>gini = 0.198<br/>samples = 162<br/>value = [144, 0, 18]<br/>class = GALAXY>, fillcolor="#e89152"] ;
113 -> 114 ;
115 [label=<z &le; 15.763<br/>gini = 0.189<br/>samples = 161<br/>value = [144, 0, 17]<br/>class = GALAXY>, fillcolor="#e89050"] ;
114 -> 115 ;
116 [label=<r &le; 15.949<br/>gini = 0.401<br/>samples = 18<br/>value = [13, 0, 5]<br/>class = GALAXY>, fillcolor="#efb185"] ;
115 -> 116 ;
117 [label=<redshift &le; 0.0<br/>gini = 0.142<br/>samples = 13<br/>value = [12, 0, 1]<br/>class = GALAXY>, fillcolor="#e78c49"] ;
116 -> 117 ;
118 [label=<gini = 0.0<br/>samples = 12<br/>value = [12, 0, 0]<br/>class = GALAXY>, fillcolor="#e58139"] ;
117 -> 118 ;
119 [label=<gini = 0.0<br/>samples = 1<br/>value = [0, 0, 1]<br/>class = STAR>, fillcolor="#8139e5"] ;
117 -> 119 ;
120 [label=<g &le; 16.767<br/>gini = 0.32<br/>samples = 5<br/>value = [1, 0, 4]<br/>class = STAR>, fillcolor="#a06aec"] ;
116 -> 120 ;
121 [label=<gini = 0.0<br/>samples = 1<br/>value = [1, 0, 0]<br/>class = GALAXY>, fillcolor="#e58139"] ;
120 -> 121 ;
122 [label=<gini = 0.0<br/>samples = 4<br/>value = [0, 0, 4]<br/>class = STAR>, fillcolor="#8139e5"] ;
120 -> 122 ;
123 [label=<u &le; 19.281<br/>gini = 0.154<br/>samples = 143<br/>value = [131, 0, 12]<br/>class = GALAXY>, fillcolor="#e78d4b"] ;
115 -> 123 ;
124 [label=<gini = 0.0<br/>samples = 29<br/>value = [29, 0, 0]<br/>class = GALAXY>, fillcolor="#e58139"] ;
123 -> 124 ;
125 [label=<u &le; 19.367<br/>gini = 0.188<br/>samples = 114<br/>value = [102, 0, 12]<br/>class = GALAXY>, fillcolor="#e89050"] ;
123 -> 125 ;
126 [label=<z &le; 16.367<br/>gini = 0.444<br/>samples = 3<br/>value = [1, 0, 2]<br/>class = STAR>, fillcolor="#c09cf2"] ;
125 -> 126 ;
127 [label=<gini = 0.0<br/>samples = 1<br/>value = [1, 0, 0]<br/>class = GALAXY>, fillcolor="#e58139"] ;
126 -> 127 ;
128 [label=<gini = 0.0<br/>samples = 2<br/>value = [0, 0, 2]<br/>class = STAR>, fillcolor="#8139e5"] ;
126 -> 128 ;
129 [label=<g &le; 18.473<br/>gini = 0.164<br/>samples = 111<br/>value = [101, 0, 10]<br/>class = GALAXY>, fillcolor="#e88d4d"] ;
125 -> 129 ;
130 [label=<gini = 0.0<br/>samples = 23<br/>value = [23, 0, 0]<br/>class = GALAXY>, fillcolor="#e58139"] ;
129 -> 130 ;
131 [label=<z &le; 17.035<br/>gini = 0.201<br/>samples = 88<br/>value = [78, 0, 10]<br/>class = GALAXY>, fillcolor="#e89152"] ;
129 -> 131 ;
132 [label=<z &le; 16.76<br/>gini = 0.48<br/>samples = 5<br/>value = [2, 0, 3]<br/>class = STAR>, fillcolor="#d5bdf6"] ;
131 -> 132 ;
133 [label=<z &le; 16.41<br/>gini = 0.444<br/>samples = 3<br/>value = [2, 0, 1]<br/>class = GALAXY>, fillcolor="#f2c09c"] ;
132 -> 133 ;
134 [label=<gini = 0.0<br/>samples = 1<br/>value = [0, 0, 1]<br/>class = STAR>, fillcolor="#8139e5"] ;
133 -> 134 ;
135 [label=<gini = 0.0<br/>samples = 2<br/>value = [2, 0, 0]<br/>class = GALAXY>, fillcolor="#e58139"] ;
133 -> 135 ;
136 [label=<gini = 0.0<br/>samples = 2<br/>value = [0, 0, 2]<br/>class = STAR>, fillcolor="#8139e5"] ;
132 -> 136 ;
137 [label=<redshift &le; 0.0<br/>gini = 0.154<br/>samples = 83<br/>value = [76.0, 0.0, 7.0]<br/>class = GALAXY>, fillcolor="#e78d4b"] ;
131 -> 137 ;
138 [label=<g &le; 18.504<br/>gini = 0.116<br/>samples = 81<br/>value = [76, 0, 5]<br/>class = GALAXY>, fillcolor="#e78946"] ;
137 -> 138 ;
139 [label=<gini = 0.0<br/>samples = 1<br/>value = [0, 0, 1]<br/>class = STAR>, fillcolor="#8139e5"] ;
138 -> 139 ;
140 [label=<g &le; 19.384<br/>gini = 0.095<br/>samples = 80<br/>value = [76, 0, 4]<br/>class = GALAXY>, fillcolor="#e68843"] ;
138 -> 140 ;
141 [label=<g &le; 19.347<br/>gini = 0.32<br/>samples = 15<br/>value = [12, 0, 3]<br/>class = GALAXY>, fillcolor="#eca06a"] ;
140 -> 141 ;
142 [label=<i &le; 18.488<br/>gini = 0.245<br/>samples = 14<br/>value = [12, 0, 2]<br/>class = GALAXY>, fillcolor="#e9965a"] ;
141 -> 142 ;
143 [label=<gini = 0.0<br/>samples = 10<br/>value = [10, 0, 0]<br/>class = GALAXY>, fillcolor="#e58139"] ;
142 -> 143 ;
144 [label=<r &le; 18.849<br/>gini = 0.5<br/>samples = 4<br/>value = [2, 0, 2]<br/>class = GALAXY>, fillcolor="#ffffff"] ;
142 -> 144 ;
145 [label=<gini = 0.0<br/>samples = 2<br/>value = [0, 0, 2]<br/>class = STAR>, fillcolor="#8139e5"] ;
144 -> 145 ;
146 [label=<gini = 0.0<br/>samples = 2<br/>value = [2, 0, 0]<br/>class = GALAXY>, fillcolor="#e58139"] ;
144 -> 146 ;
147 [label=<gini = 0.0<br/>samples = 1<br/>value = [0, 0, 1]<br/>class = STAR>, fillcolor="#8139e5"] ;
141 -> 147 ;
148 [label=<i &le; 19.906<br/>gini = 0.03<br/>samples = 65<br/>value = [64, 0, 1]<br/>class = GALAXY>, fillcolor="#e5833c"] ;
140 -> 148 ;
149 [label=<gini = 0.0<br/>samples = 62<br/>value = [62, 0, 0]<br/>class = GALAXY>, fillcolor="#e58139"] ;
148 -> 149 ;
150 [label=<i &le; 20.049<br/>gini = 0.444<br/>samples = 3<br/>value = [2, 0, 1]<br/>class = GALAXY>, fillcolor="#f2c09c"] ;
148 -> 150 ;
151 [label=<gini = 0.0<br/>samples = 1<br/>value = [0, 0, 1]<br/>class = STAR>, fillcolor="#8139e5"] ;
150 -> 151 ;
152 [label=<gini = 0.0<br/>samples = 2<br/>value = [2, 0, 0]<br/>class = GALAXY>, fillcolor="#e58139"] ;
150 -> 152 ;
153 [label=<gini = 0.0<br/>samples = 2<br/>value = [0, 0, 2]<br/>class = STAR>, fillcolor="#8139e5"] ;
137 -> 153 ;
154 [label=<gini = 0.0<br/>samples = 1<br/>value = [0, 0, 1]<br/>class = STAR>, fillcolor="#8139e5"] ;
114 -> 154 ;
155 [label=<z &le; 18.253<br/>gini = 0.444<br/>samples = 3<br/>value = [1, 0, 2]<br/>class = STAR>, fillcolor="#c09cf2"] ;
113 -> 155 ;
156 [label=<gini = 0.0<br/>samples = 1<br/>value = [1, 0, 0]<br/>class = GALAXY>, fillcolor="#e58139"] ;
155 -> 156 ;
157 [label=<gini = 0.0<br/>samples = 2<br/>value = [0, 0, 2]<br/>class = STAR>, fillcolor="#8139e5"] ;
155 -> 157 ;
158 [label=<redshift &le; 0.0<br/>gini = 0.042<br/>samples = 185<br/>value = [181, 0, 4]<br/>class = GALAXY>, fillcolor="#e6843d"] ;
112 -> 158 ;
159 [label=<gini = 0.0<br/>samples = 181<br/>value = [181, 0, 0]<br/>class = GALAXY>, fillcolor="#e58139"] ;
158 -> 159 ;
160 [label=<gini = 0.0<br/>samples = 4<br/>value = [0, 0, 4]<br/>class = STAR>, fillcolor="#8139e5"] ;
158 -> 160 ;
161 [label=<redshift &le; 0.002<br/>gini = 0.016<br/>samples = 6378<br/>value = [49, 2, 6327]<br/>class = STAR>, fillcolor="#823be5"] ;
111 -> 161 ;
162 [label=<redshift &le; 0.001<br/>gini = 0.009<br/>samples = 6294<br/>value = [27, 2, 6265]<br/>class = STAR>, fillcolor="#823ae5"] ;
161 -> 162 ;
163 [label=<z &le; 20.327<br/>gini = 0.006<br/>samples = 6087<br/>value = [17, 1, 6069]<br/>class = STAR>, fillcolor="#813ae5"] ;
162 -> 163 ;
164 [label=<g &le; 25.114<br/>gini = 0.004<br/>samples = 5241<br/>value = [9, 1, 5231]<br/>class = STAR>, fillcolor="#8139e5"] ;
163 -> 164 ;
165 [label=<z &le; 15.932<br/>gini = 0.003<br/>samples = 5220<br/>value = [8, 1, 5211]<br/>class = STAR>, fillcolor="#8139e5"] ;
164 -> 165 ;
166 [label=<z &le; 15.931<br/>gini = 0.013<br/>samples = 618<br/>value = [3.0, 1.0, 614.0]<br/>class = STAR>, fillcolor="#823ae5"] ;
165 -> 166 ;
167 [label=<u &le; 21.847<br/>gini = 0.01<br/>samples = 617<br/>value = [2, 1, 614]<br/>class = STAR>, fillcolor="#823ae5"] ;
166 -> 167 ;
168 [label=<redshift &le; 0.0<br/>gini = 0.007<br/>samples = 603<br/>value = [1, 1, 601]<br/>class = STAR>, fillcolor="#813ae5"] ;
167 -> 168 ;
169 [label=<r &le; 16.497<br/>gini = 0.003<br/>samples = 578<br/>value = [1, 0, 577]<br/>class = STAR>, fillcolor="#8139e5"] ;
168 -> 169 ;
170 [label=<gini = 0.0<br/>samples = 487<br/>value = [0, 0, 487]<br/>class = STAR>, fillcolor="#8139e5"] ;
169 -> 170 ;
171 [label=<r &le; 16.498<br/>gini = 0.022<br/>samples = 91<br/>value = [1, 0, 90]<br/>class = STAR>, fillcolor="#823be5"] ;
169 -> 171 ;
172 [label=<gini = 0.0<br/>samples = 1<br/>value = [1, 0, 0]<br/>class = GALAXY>, fillcolor="#e58139"] ;
171 -> 172 ;
173 [label=<gini = 0.0<br/>samples = 90<br/>value = [0, 0, 90]<br/>class = STAR>, fillcolor="#8139e5"] ;
171 -> 173 ;
174 [label=<i &le; 15.994<br/>gini = 0.077<br/>samples = 25<br/>value = [0, 1, 24]<br/>class = STAR>, fillcolor="#8641e6"] ;
168 -> 174 ;
175 [label=<gini = 0.0<br/>samples = 24<br/>value = [0, 0, 24]<br/>class = STAR>, fillcolor="#8139e5"] ;
174 -> 175 ;
176 [label=<gini = 0.0<br/>samples = 1<br/>value = [0, 1, 0]<br/>class = QSO>, fillcolor="#39e581"] ;
174 -> 176 ;
177 [label=<r &le; 17.241<br/>gini = 0.133<br/>samples = 14<br/>value = [1, 0, 13]<br/>class = STAR>, fillcolor="#8b48e7"] ;
167 -> 177 ;
178 [label=<gini = 0.0<br/>samples = 1<br/>value = [1, 0, 0]<br/>class = GALAXY>, fillcolor="#e58139"] ;
177 -> 178 ;
179 [label=<gini = 0.0<br/>samples = 13<br/>value = [0, 0, 13]<br/>class = STAR>, fillcolor="#8139e5"] ;
177 -> 179 ;
180 [label=<gini = 0.0<br/>samples = 1<br/>value = [1, 0, 0]<br/>class = GALAXY>, fillcolor="#e58139"] ;
166 -> 180 ;
181 [label=<redshift &le; 0.0<br/>gini = 0.002<br/>samples = 4602<br/>value = [5.0, 0.0, 4597.0]<br/>class = STAR>, fillcolor="#8139e5"] ;
165 -> 181 ;
182 [label=<redshift &le; 0.0<br/>gini = 0.014<br/>samples = 137<br/>value = [1, 0, 136]<br/>class = STAR>, fillcolor="#823ae5"] ;
181 -> 182 ;
183 [label=<gini = 0.0<br/>samples = 125<br/>value = [0, 0, 125]<br/>class = STAR>, fillcolor="#8139e5"] ;
182 -> 183 ;
184 [label=<r &le; 19.685<br/>gini = 0.153<br/>samples = 12<br/>value = [1, 0, 11]<br/>class = STAR>, fillcolor="#8c4be7"] ;
182 -> 184 ;
185 [label=<gini = 0.0<br/>samples = 10<br/>value = [0, 0, 10]<br/>class = STAR>, fillcolor="#8139e5"] ;
184 -> 185 ;
186 [label=<i &le; 19.119<br/>gini = 0.5<br/>samples = 2<br/>value = [1, 0, 1]<br/>class = GALAXY>, fillcolor="#ffffff"] ;
184 -> 186 ;
187 [label=<gini = 0.0<br/>samples = 1<br/>value = [1, 0, 0]<br/>class = GALAXY>, fillcolor="#e58139"] ;
186 -> 187 ;
188 [label=<gini = 0.0<br/>samples = 1<br/>value = [0, 0, 1]<br/>class = STAR>, fillcolor="#8139e5"] ;
186 -> 188 ;
189 [label=<redshift &le; 0.0<br/>gini = 0.002<br/>samples = 4465<br/>value = [4, 0, 4461]<br/>class = STAR>, fillcolor="#8139e5"] ;
181 -> 189 ;
190 [label=<gini = 0.0<br/>samples = 1936<br/>value = [0, 0, 1936]<br/>class = STAR>, fillcolor="#8139e5"] ;
189 -> 190 ;
191 [label=<redshift &le; 0.0<br/>gini = 0.003<br/>samples = 2529<br/>value = [4, 0, 2525]<br/>class = STAR>, fillcolor="#8139e5"] ;
189 -> 191 ;
192 [label=<r &le; 19.062<br/>gini = 0.18<br/>samples = 10<br/>value = [1, 0, 9]<br/>class = STAR>, fillcolor="#8f4fe8"] ;
191 -> 192 ;
193 [label=<gini = 0.0<br/>samples = 9<br/>value = [0, 0, 9]<br/>class = STAR>, fillcolor="#8139e5"] ;
192 -> 193 ;
194 [label=<gini = 0.0<br/>samples = 1<br/>value = [1, 0, 0]<br/>class = GALAXY>, fillcolor="#e58139"] ;
192 -> 194 ;
195 [label=<redshift &le; 0.0<br/>gini = 0.002<br/>samples = 2519<br/>value = [3.0, 0.0, 2516.0]<br/>class = STAR>, fillcolor="#8139e5"] ;
191 -> 195 ;
196 [label=<redshift &le; 0.0<br/>gini = 0.01<br/>samples = 409<br/>value = [2, 0, 407]<br/>class = STAR>, fillcolor="#823ae5"] ;
195 -> 196 ;
197 [label=<u &le; 18.5<br/>gini = 0.005<br/>samples = 402<br/>value = [1, 0, 401]<br/>class = STAR>, fillcolor="#8139e5"] ;
196 -> 197 ;
198 [label=<u &le; 18.48<br/>gini = 0.056<br/>samples = 35<br/>value = [1, 0, 34]<br/>class = STAR>, fillcolor="#853fe6"] ;
197 -> 198 ;
199 [label=<gini = 0.0<br/>samples = 34<br/>value = [0, 0, 34]<br/>class = STAR>, fillcolor="#8139e5"] ;
198 -> 199 ;
200 [label=<gini = 0.0<br/>samples = 1<br/>value = [1, 0, 0]<br/>class = GALAXY>, fillcolor="#e58139"] ;
198 -> 200 ;
201 [label=<gini = 0.0<br/>samples = 367<br/>value = [0, 0, 367]<br/>class = STAR>, fillcolor="#8139e5"] ;
197 -> 201 ;
202 [label=<z &le; 19.814<br/>gini = 0.245<br/>samples = 7<br/>value = [1, 0, 6]<br/>class = STAR>, fillcolor="#965ae9"] ;
196 -> 202 ;
203 [label=<gini = 0.0<br/>samples = 6<br/>value = [0, 0, 6]<br/>class = STAR>, fillcolor="#8139e5"] ;
202 -> 203 ;
204 [label=<gini = 0.0<br/>samples = 1<br/>value = [1, 0, 0]<br/>class = GALAXY>, fillcolor="#e58139"] ;
202 -> 204 ;
205 [label=<redshift &le; 0.0<br/>gini = 0.001<br/>samples = 2110<br/>value = [1, 0, 2109]<br/>class = STAR>, fillcolor="#8139e5"] ;
195 -> 205 ;
206 [label=<gini = 0.0<br/>samples = 1520<br/>value = [0, 0, 1520]<br/>class = STAR>, fillcolor="#8139e5"] ;
205 -> 206 ;
207 [label=<redshift &le; 0.0<br/>gini = 0.003<br/>samples = 590<br/>value = [1, 0, 589]<br/>class = STAR>, fillcolor="#8139e5"] ;
205 -> 207 ;
208 [label=<gini = 0.0<br/>samples = 1<br/>value = [1, 0, 0]<br/>class = GALAXY>, fillcolor="#e58139"] ;
207 -> 208 ;
209 [label=<gini = 0.0<br/>samples = 589<br/>value = [0, 0, 589]<br/>class = STAR>, fillcolor="#8139e5"] ;
207 -> 209 ;
210 [label=<g &le; 25.114<br/>gini = 0.091<br/>samples = 21<br/>value = [1, 0, 20]<br/>class = STAR>, fillcolor="#8743e6"] ;
164 -> 210 ;
211 [label=<gini = 0.0<br/>samples = 1<br/>value = [1, 0, 0]<br/>class = GALAXY>, fillcolor="#e58139"] ;
210 -> 211 ;
212 [label=<gini = 0.0<br/>samples = 20<br/>value = [0, 0, 20]<br/>class = STAR>, fillcolor="#8139e5"] ;
210 -> 212 ;
213 [label=<z &le; 20.329<br/>gini = 0.019<br/>samples = 846<br/>value = [8, 0, 838]<br/>class = STAR>, fillcolor="#823be5"] ;
163 -> 213 ;
214 [label=<redshift &le; 0.0<br/>gini = 0.5<br/>samples = 2<br/>value = [1, 0, 1]<br/>class = GALAXY>, fillcolor="#ffffff"] ;
213 -> 214 ;
215 [label=<gini = 0.0<br/>samples = 1<br/>value = [0, 0, 1]<br/>class = STAR>, fillcolor="#8139e5"] ;
214 -> 215 ;
216 [label=<gini = 0.0<br/>samples = 1<br/>value = [1, 0, 0]<br/>class = GALAXY>, fillcolor="#e58139"] ;
214 -> 216 ;
217 [label=<g &le; 22.296<br/>gini = 0.016<br/>samples = 844<br/>value = [7.0, 0.0, 837.0]<br/>class = STAR>, fillcolor="#823be5"] ;
213 -> 217 ;
218 [label=<u &le; 22.283<br/>gini = 0.008<br/>samples = 788<br/>value = [3, 0, 785]<br/>class = STAR>, fillcolor="#813ae5"] ;
217 -> 218 ;
219 [label=<u &le; 22.277<br/>gini = 0.019<br/>samples = 307<br/>value = [3.0, 0.0, 304.0]<br/>class = STAR>, fillcolor="#823be5"] ;
218 -> 219 ;
220 [label=<i &le; 20.69<br/>gini = 0.013<br/>samples = 306<br/>value = [2, 0, 304]<br/>class = STAR>, fillcolor="#823ae5"] ;
219 -> 220 ;
221 [label=<i &le; 20.686<br/>gini = 0.038<br/>samples = 104<br/>value = [2, 0, 102]<br/>class = STAR>, fillcolor="#833de6"] ;
220 -> 221 ;
222 [label=<g &le; 21.108<br/>gini = 0.019<br/>samples = 103<br/>value = [1.0, 0.0, 102.0]<br/>class = STAR>, fillcolor="#823be5"] ;
221 -> 222 ;
223 [label=<gini = 0.0<br/>samples = 95<br/>value = [0, 0, 95]<br/>class = STAR>, fillcolor="#8139e5"] ;
222 -> 223 ;
224 [label=<g &le; 21.114<br/>gini = 0.219<br/>samples = 8<br/>value = [1, 0, 7]<br/>class = STAR>, fillcolor="#9355e9"] ;
222 -> 224 ;
225 [label=<gini = 0.0<br/>samples = 1<br/>value = [1, 0, 0]<br/>class = GALAXY>, fillcolor="#e58139"] ;
224 -> 225 ;
226 [label=<gini = 0.0<br/>samples = 7<br/>value = [0, 0, 7]<br/>class = STAR>, fillcolor="#8139e5"] ;
224 -> 226 ;
227 [label=<gini = 0.0<br/>samples = 1<br/>value = [1, 0, 0]<br/>class = GALAXY>, fillcolor="#e58139"] ;
221 -> 227 ;
228 [label=<gini = 0.0<br/>samples = 202<br/>value = [0, 0, 202]<br/>class = STAR>, fillcolor="#8139e5"] ;
220 -> 228 ;
229 [label=<gini = 0.0<br/>samples = 1<br/>value = [1, 0, 0]<br/>class = GALAXY>, fillcolor="#e58139"] ;
219 -> 229 ;
230 [label=<gini = 0.0<br/>samples = 481<br/>value = [0, 0, 481]<br/>class = STAR>, fillcolor="#8139e5"] ;
218 -> 230 ;
231 [label=<g &le; 22.305<br/>gini = 0.133<br/>samples = 56<br/>value = [4, 0, 52]<br/>class = STAR>, fillcolor="#8b48e7"] ;
217 -> 231 ;
232 [label=<gini = 0.0<br/>samples = 2<br/>value = [2, 0, 0]<br/>class = GALAXY>, fillcolor="#e58139"] ;
231 -> 232 ;
233 [label=<u &le; 25.75<br/>gini = 0.071<br/>samples = 54<br/>value = [2, 0, 52]<br/>class = STAR>, fillcolor="#8641e6"] ;
231 -> 233 ;
234 [label=<redshift &le; 0.0<br/>gini = 0.04<br/>samples = 49<br/>value = [1.0, 0.0, 48.0]<br/>class = STAR>, fillcolor="#843de6"] ;
233 -> 234 ;
235 [label=<g &le; 23.223<br/>gini = 0.219<br/>samples = 8<br/>value = [1, 0, 7]<br/>class = STAR>, fillcolor="#9355e9"] ;
234 -> 235 ;
236 [label=<gini = 0.0<br/>samples = 7<br/>value = [0, 0, 7]<br/>class = STAR>, fillcolor="#8139e5"] ;
235 -> 236 ;
237 [label=<gini = 0.0<br/>samples = 1<br/>value = [1, 0, 0]<br/>class = GALAXY>, fillcolor="#e58139"] ;
235 -> 237 ;
238 [label=<gini = 0.0<br/>samples = 41<br/>value = [0, 0, 41]<br/>class = STAR>, fillcolor="#8139e5"] ;
234 -> 238 ;
239 [label=<g &le; 22.511<br/>gini = 0.32<br/>samples = 5<br/>value = [1, 0, 4]<br/>class = STAR>, fillcolor="#a06aec"] ;
233 -> 239 ;
240 [label=<gini = 0.0<br/>samples = 1<br/>value = [1, 0, 0]<br/>class = GALAXY>, fillcolor="#e58139"] ;
239 -> 240 ;
241 [label=<gini = 0.0<br/>samples = 4<br/>value = [0, 0, 4]<br/>class = STAR>, fillcolor="#8139e5"] ;
239 -> 241 ;
242 [label=<redshift &le; 0.001<br/>gini = 0.101<br/>samples = 207<br/>value = [10, 1, 196]<br/>class = STAR>, fillcolor="#8844e6"] ;
162 -> 242 ;
243 [label=<gini = 0.0<br/>samples = 1<br/>value = [1, 0, 0]<br/>class = GALAXY>, fillcolor="#e58139"] ;
242 -> 243 ;
244 [label=<r &le; 23.528<br/>gini = 0.093<br/>samples = 206<br/>value = [9.0, 1.0, 196.0]<br/>class = STAR>, fillcolor="#8743e6"] ;
242 -> 244 ;
245 [label=<g &le; 15.888<br/>gini = 0.084<br/>samples = 205<br/>value = [8, 1, 196]<br/>class = STAR>, fillcolor="#8742e6"] ;
244 -> 245 ;
246 [label=<r &le; 15.584<br/>gini = 0.444<br/>samples = 6<br/>value = [2, 0, 4]<br/>class = STAR>, fillcolor="#c09cf2"] ;
245 -> 246 ;
247 [label=<gini = 0.0<br/>samples = 4<br/>value = [0, 0, 4]<br/>class = STAR>, fillcolor="#8139e5"] ;
246 -> 247 ;
248 [label=<gini = 0.0<br/>samples = 2<br/>value = [2, 0, 0]<br/>class = GALAXY>, fillcolor="#e58139"] ;
246 -> 248 ;
249 [label=<u &le; 23.248<br/>gini = 0.068<br/>samples = 199<br/>value = [6, 1, 192]<br/>class = STAR>, fillcolor="#8640e6"] ;
245 -> 249 ;
250 [label=<redshift &le; 0.002<br/>gini = 0.025<br/>samples = 161<br/>value = [1.0, 1.0, 159.0]<br/>class = STAR>, fillcolor="#833be5"] ;
249 -> 250 ;
251 [label=<u &le; 19.235<br/>gini = 0.013<br/>samples = 153<br/>value = [1, 0, 152]<br/>class = STAR>, fillcolor="#823ae5"] ;
250 -> 251 ;
252 [label=<u &le; 19.224<br/>gini = 0.08<br/>samples = 24<br/>value = [1, 0, 23]<br/>class = STAR>, fillcolor="#8642e6"] ;
251 -> 252 ;
253 [label=<gini = 0.0<br/>samples = 23<br/>value = [0, 0, 23]<br/>class = STAR>, fillcolor="#8139e5"] ;
252 -> 253 ;
254 [label=<gini = 0.0<br/>samples = 1<br/>value = [1, 0, 0]<br/>class = GALAXY>, fillcolor="#e58139"] ;
252 -> 254 ;
255 [label=<gini = 0.0<br/>samples = 129<br/>value = [0, 0, 129]<br/>class = STAR>, fillcolor="#8139e5"] ;
251 -> 255 ;
256 [label=<redshift &le; 0.002<br/>gini = 0.219<br/>samples = 8<br/>value = [0, 1, 7]<br/>class = STAR>, fillcolor="#9355e9"] ;
250 -> 256 ;
257 [label=<gini = 0.0<br/>samples = 1<br/>value = [0, 1, 0]<br/>class = QSO>, fillcolor="#39e581"] ;
256 -> 257 ;
258 [label=<gini = 0.0<br/>samples = 7<br/>value = [0, 0, 7]<br/>class = STAR>, fillcolor="#8139e5"] ;
256 -> 258 ;
259 [label=<u &le; 23.256<br/>gini = 0.229<br/>samples = 38<br/>value = [5, 0, 33]<br/>class = STAR>, fillcolor="#9457e9"] ;
249 -> 259 ;
260 [label=<gini = 0.0<br/>samples = 1<br/>value = [1, 0, 0]<br/>class = GALAXY>, fillcolor="#e58139"] ;
259 -> 260 ;
261 [label=<redshift &le; 0.001<br/>gini = 0.193<br/>samples = 37<br/>value = [4, 0, 33]<br/>class = STAR>, fillcolor="#9051e8"] ;
259 -> 261 ;
262 [label=<u &le; 23.823<br/>gini = 0.5<br/>samples = 4<br/>value = [2, 0, 2]<br/>class = GALAXY>, fillcolor="#ffffff"] ;
261 -> 262 ;
263 [label=<gini = 0.0<br/>samples = 1<br/>value = [0, 0, 1]<br/>class = STAR>, fillcolor="#8139e5"] ;
262 -> 263 ;
264 [label=<r &le; 21.01<br/>gini = 0.444<br/>samples = 3<br/>value = [2, 0, 1]<br/>class = GALAXY>, fillcolor="#f2c09c"] ;
262 -> 264 ;
265 [label=<gini = 0.0<br/>samples = 1<br/>value = [0, 0, 1]<br/>class = STAR>, fillcolor="#8139e5"] ;
264 -> 265 ;
266 [label=<gini = 0.0<br/>samples = 2<br/>value = [2, 0, 0]<br/>class = GALAXY>, fillcolor="#e58139"] ;
264 -> 266 ;
267 [label=<u &le; 23.393<br/>gini = 0.114<br/>samples = 33<br/>value = [2, 0, 31]<br/>class = STAR>, fillcolor="#8946e7"] ;
261 -> 267 ;
268 [label=<u &le; 23.355<br/>gini = 0.375<br/>samples = 4<br/>value = [1, 0, 3]<br/>class = STAR>, fillcolor="#ab7bee"] ;
267 -> 268 ;
269 [label=<gini = 0.0<br/>samples = 3<br/>value = [0, 0, 3]<br/>class = STAR>, fillcolor="#8139e5"] ;
268 -> 269 ;
270 [label=<gini = 0.0<br/>samples = 1<br/>value = [1, 0, 0]<br/>class = GALAXY>, fillcolor="#e58139"] ;
268 -> 270 ;
271 [label=<r &le; 20.895<br/>gini = 0.067<br/>samples = 29<br/>value = [1, 0, 28]<br/>class = STAR>, fillcolor="#8640e6"] ;
267 -> 271 ;
272 [label=<r &le; 20.514<br/>gini = 0.32<br/>samples = 5<br/>value = [1, 0, 4]<br/>class = STAR>, fillcolor="#a06aec"] ;
271 -> 272 ;
273 [label=<gini = 0.0<br/>samples = 4<br/>value = [0, 0, 4]<br/>class = STAR>, fillcolor="#8139e5"] ;
272 -> 273 ;
274 [label=<gini = 0.0<br/>samples = 1<br/>value = [1, 0, 0]<br/>class = GALAXY>, fillcolor="#e58139"] ;
272 -> 274 ;
275 [label=<gini = 0.0<br/>samples = 24<br/>value = [0, 0, 24]<br/>class = STAR>, fillcolor="#8139e5"] ;
271 -> 275 ;
276 [label=<gini = 0.0<br/>samples = 1<br/>value = [1, 0, 0]<br/>class = GALAXY>, fillcolor="#e58139"] ;
244 -> 276 ;
277 [label=<z &le; 16.347<br/>gini = 0.387<br/>samples = 84<br/>value = [22, 0, 62]<br/>class = STAR>, fillcolor="#ae7fee"] ;
161 -> 277 ;
278 [label=<redshift &le; 0.004<br/>gini = 0.18<br/>samples = 10<br/>value = [9, 0, 1]<br/>class = GALAXY>, fillcolor="#e88f4f"] ;
277 -> 278 ;
279 [label=<gini = 0.0<br/>samples = 9<br/>value = [9, 0, 0]<br/>class = GALAXY>, fillcolor="#e58139"] ;
278 -> 279 ;
280 [label=<gini = 0.0<br/>samples = 1<br/>value = [0, 0, 1]<br/>class = STAR>, fillcolor="#8139e5"] ;
278 -> 280 ;
281 [label=<g &le; 21.711<br/>gini = 0.29<br/>samples = 74<br/>value = [13, 0, 61]<br/>class = STAR>, fillcolor="#9c63eb"] ;
277 -> 281 ;
282 [label=<g &le; 21.632<br/>gini = 0.391<br/>samples = 45<br/>value = [12, 0, 33]<br/>class = STAR>, fillcolor="#af81ee"] ;
281 -> 282 ;
283 [label=<g &le; 21.417<br/>gini = 0.357<br/>samples = 43<br/>value = [10, 0, 33]<br/>class = STAR>, fillcolor="#a775ed"] ;
282 -> 283 ;
284 [label=<r &le; 20.871<br/>gini = 0.415<br/>samples = 34<br/>value = [10, 0, 24]<br/>class = STAR>, fillcolor="#b58bf0"] ;
283 -> 284 ;
285 [label=<u &le; 21.454<br/>gini = 0.35<br/>samples = 31<br/>value = [7, 0, 24]<br/>class = STAR>, fillcolor="#a673ed"] ;
284 -> 285 ;
286 [label=<u &le; 21.364<br/>gini = 0.444<br/>samples = 21<br/>value = [7, 0, 14]<br/>class = STAR>, fillcolor="#c09cf2"] ;
285 -> 286 ;
287 [label=<u &le; 18.604<br/>gini = 0.388<br/>samples = 19<br/>value = [5, 0, 14]<br/>class = STAR>, fillcolor="#ae80ee"] ;
286 -> 287 ;
288 [label=<gini = 0.0<br/>samples = 1<br/>value = [1, 0, 0]<br/>class = GALAXY>, fillcolor="#e58139"] ;
287 -> 288 ;
289 [label=<redshift &le; 0.003<br/>gini = 0.346<br/>samples = 18<br/>value = [4, 0, 14]<br/>class = STAR>, fillcolor="#a572ec"] ;
287 -> 289 ;
290 [label=<gini = 0.0<br/>samples = 5<br/>value = [0, 0, 5]<br/>class = STAR>, fillcolor="#8139e5"] ;
289 -> 290 ;
291 [label=<redshift &le; 0.003<br/>gini = 0.426<br/>samples = 13<br/>value = [4, 0, 9]<br/>class = STAR>, fillcolor="#b991f1"] ;
289 -> 291 ;
292 [label=<gini = 0.0<br/>samples = 2<br/>value = [2, 0, 0]<br/>class = GALAXY>, fillcolor="#e58139"] ;
291 -> 292 ;
293 [label=<u &le; 20.498<br/>gini = 0.298<br/>samples = 11<br/>value = [2, 0, 9]<br/>class = STAR>, fillcolor="#9d65eb"] ;
291 -> 293 ;
294 [label=<redshift &le; 0.004<br/>gini = 0.198<br/>samples = 9<br/>value = [1, 0, 8]<br/>class = STAR>, fillcolor="#9152e8"] ;
293 -> 294 ;
295 [label=<gini = 0.0<br/>samples = 6<br/>value = [0, 0, 6]<br/>class = STAR>, fillcolor="#8139e5"] ;
294 -> 295 ;
296 [label=<z &le; 18.777<br/>gini = 0.444<br/>samples = 3<br/>value = [1, 0, 2]<br/>class = STAR>, fillcolor="#c09cf2"] ;
294 -> 296 ;
297 [label=<gini = 0.0<br/>samples = 1<br/>value = [1, 0, 0]<br/>class = GALAXY>, fillcolor="#e58139"] ;
296 -> 297 ;
298 [label=<gini = 0.0<br/>samples = 2<br/>value = [0, 0, 2]<br/>class = STAR>, fillcolor="#8139e5"] ;
296 -> 298 ;
299 [label=<redshift &le; 0.003<br/>gini = 0.5<br/>samples = 2<br/>value = [1, 0, 1]<br/>class = GALAXY>, fillcolor="#ffffff"] ;
293 -> 299 ;
300 [label=<gini = 0.0<br/>samples = 1<br/>value = [1, 0, 0]<br/>class = GALAXY>, fillcolor="#e58139"] ;
299 -> 300 ;
301 [label=<gini = 0.0<br/>samples = 1<br/>value = [0, 0, 1]<br/>class = STAR>, fillcolor="#8139e5"] ;
299 -> 301 ;
302 [label=<gini = 0.0<br/>samples = 2<br/>value = [2, 0, 0]<br/>class = GALAXY>, fillcolor="#e58139"] ;
286 -> 302 ;
303 [label=<gini = 0.0<br/>samples = 10<br/>value = [0, 0, 10]<br/>class = STAR>, fillcolor="#8139e5"] ;
285 -> 303 ;
304 [label=<gini = 0.0<br/>samples = 3<br/>value = [3, 0, 0]<br/>class = GALAXY>, fillcolor="#e58139"] ;
284 -> 304 ;
305 [label=<gini = 0.0<br/>samples = 9<br/>value = [0, 0, 9]<br/>class = STAR>, fillcolor="#8139e5"] ;
283 -> 305 ;
306 [label=<gini = 0.0<br/>samples = 2<br/>value = [2, 0, 0]<br/>class = GALAXY>, fillcolor="#e58139"] ;
282 -> 306 ;
307 [label=<u &le; 22.045<br/>gini = 0.067<br/>samples = 29<br/>value = [1, 0, 28]<br/>class = STAR>, fillcolor="#8640e6"] ;
281 -> 307 ;
308 [label=<gini = 0.0<br/>samples = 1<br/>value = [1, 0, 0]<br/>class = GALAXY>, fillcolor="#e58139"] ;
307 -> 308 ;
309 [label=<gini = 0.0<br/>samples = 28<br/>value = [0, 0, 28]<br/>class = STAR>, fillcolor="#8139e5"] ;
307 -> 309 ;
310 [label=<redshift &le; 1.001<br/>gini = 0.368<br/>samples = 62338<br/>value = [47176, 15162, 0]<br/>class = GALAXY>, fillcolor="#eda979"] ;
0 -> 310 [labeldistance=2.5, labelangle=-45, headlabel="False"] ;
311 [label=<redshift &le; 0.706<br/>gini = 0.117<br/>samples = 49555<br/>value = [46468, 3087, 0]<br/>class = GALAXY>, fillcolor="#e78946"] ;
310 -> 311 ;
312 [label=<z &le; 19.989<br/>gini = 0.07<br/>samples = 42375<br/>value = [40834, 1541, 0]<br/>class = GALAXY>, fillcolor="#e68640"] ;
311 -> 312 ;
313 [label=<u &le; 21.974<br/>gini = 0.054<br/>samples = 40018<br/>value = [38913, 1105, 0]<br/>class = GALAXY>, fillcolor="#e6853f"] ;
312 -> 313 ;
314 [label=<redshift &le; 0.338<br/>gini = 0.103<br/>samples = 16271<br/>value = [15384, 887, 0]<br/>class = GALAXY>, fillcolor="#e68844"] ;
313 -> 314 ;
315 [label=<z &le; 17.446<br/>gini = 0.037<br/>samples = 14659<br/>value = [14382, 277, 0]<br/>class = GALAXY>, fillcolor="#e6833d"] ;
314 -> 315 ;
316 [label=<redshift &le; 0.311<br/>gini = 0.02<br/>samples = 13107<br/>value = [12974, 133, 0]<br/>class = GALAXY>, fillcolor="#e5823b"] ;
315 -> 316 ;
317 [label=<u &le; 18.804<br/>gini = 0.019<br/>samples = 13054<br/>value = [12930.0, 124.0, 0.0]<br/>class = GALAXY>, fillcolor="#e5823b"] ;
316 -> 317 ;
318 [label=<redshift &le; 0.18<br/>gini = 0.047<br/>samples = 2424<br/>value = [2366.0, 58.0, 0.0]<br/>class = GALAXY>, fillcolor="#e6843e"] ;
317 -> 318 ;
319 [label=<g &le; 18.033<br/>gini = 0.032<br/>samples = 2404<br/>value = [2365, 39, 0]<br/>class = GALAXY>, fillcolor="#e5833c"] ;
318 -> 319 ;
320 [label=<redshift &le; 0.124<br/>gini = 0.03<br/>samples = 2400<br/>value = [2364, 36, 0]<br/>class = GALAXY>, fillcolor="#e5833c"] ;
319 -> 320 ;
321 [label=<redshift &le; 0.098<br/>gini = 0.021<br/>samples = 2336<br/>value = [2311, 25, 0]<br/>class = GALAXY>, fillcolor="#e5823b"] ;
320 -> 321 ;
322 [label=<redshift &le; 0.051<br/>gini = 0.015<br/>samples = 2197<br/>value = [2180, 17, 0]<br/>class = GALAXY>, fillcolor="#e5823b"] ;
321 -> 322 ;
323 [label=<u &le; 17.109<br/>gini = 0.002<br/>samples = 1139<br/>value = [1138, 1, 0]<br/>class = GALAXY>, fillcolor="#e58139"] ;
322 -> 323 ;
324 [label=<u &le; 17.104<br/>gini = 0.008<br/>samples = 237<br/>value = [236.0, 1.0, 0.0]<br/>class = GALAXY>, fillcolor="#e5823a"] ;
323 -> 324 ;
325 [label=<gini = 0.0<br/>samples = 236<br/>value = [236, 0, 0]<br/>class = GALAXY>, fillcolor="#e58139"] ;
324 -> 325 ;
326 [label=<gini = 0.0<br/>samples = 1<br/>value = [0, 1, 0]<br/>class = QSO>, fillcolor="#39e581"] ;
324 -> 326 ;
327 [label=<gini = 0.0<br/>samples = 902<br/>value = [902, 0, 0]<br/>class = GALAXY>, fillcolor="#e58139"] ;
323 -> 327 ;
328 [label=<u &le; 16.634<br/>gini = 0.03<br/>samples = 1058<br/>value = [1042, 16, 0]<br/>class = GALAXY>, fillcolor="#e5833c"] ;
322 -> 328 ;
329 [label=<gini = 0.0<br/>samples = 2<br/>value = [0, 2, 0]<br/>class = QSO>, fillcolor="#39e581"] ;
328 -> 329 ;
330 [label=<redshift &le; 0.051<br/>gini = 0.026<br/>samples = 1056<br/>value = [1042, 14, 0]<br/>class = GALAXY>, fillcolor="#e5833c"] ;
328 -> 330 ;
331 [label=<gini = 0.0<br/>samples = 1<br/>value = [0, 1, 0]<br/>class = QSO>, fillcolor="#39e581"] ;
330 -> 331 ;
332 [label=<u &le; 17.064<br/>gini = 0.024<br/>samples = 1055<br/>value = [1042, 13, 0]<br/>class = GALAXY>, fillcolor="#e5833b"] ;
330 -> 332 ;
333 [label=<r &le; 15.389<br/>gini = 0.245<br/>samples = 14<br/>value = [12, 2, 0]<br/>class = GALAXY>, fillcolor="#e9965a"] ;
332 -> 333 ;
334 [label=<gini = 0.0<br/>samples = 11<br/>value = [11, 0, 0]<br/>class = GALAXY>, fillcolor="#e58139"] ;
333 -> 334 ;
335 [label=<redshift &le; 0.06<br/>gini = 0.444<br/>samples = 3<br/>value = [1, 2, 0]<br/>class = QSO>, fillcolor="#9cf2c0"] ;
333 -> 335 ;
336 [label=<gini = 0.0<br/>samples = 1<br/>value = [1, 0, 0]<br/>class = GALAXY>, fillcolor="#e58139"] ;
335 -> 336 ;
337 [label=<gini = 0.0<br/>samples = 2<br/>value = [0, 2, 0]<br/>class = QSO>, fillcolor="#39e581"] ;
335 -> 337 ;
338 [label=<z &le; 15.586<br/>gini = 0.021<br/>samples = 1041<br/>value = [1030, 11, 0]<br/>class = GALAXY>, fillcolor="#e5823b"] ;
332 -> 338 ;
339 [label=<z &le; 15.583<br/>gini = 0.033<br/>samples = 590<br/>value = [580, 10, 0]<br/>class = GALAXY>, fillcolor="#e5833c"] ;
338 -> 339 ;
340 [label=<g &le; 17.219<br/>gini = 0.027<br/>samples = 588<br/>value = [580, 8, 0]<br/>class = GALAXY>, fillcolor="#e5833c"] ;
339 -> 340 ;
341 [label=<z &le; 15.252<br/>gini = 0.024<br/>samples = 586<br/>value = [579.0, 7.0, 0.0]<br/>class = GALAXY>, fillcolor="#e5833b"] ;
340 -> 341 ;
342 [label=<u &le; 18.035<br/>gini = 0.009<br/>samples = 437<br/>value = [435, 2, 0]<br/>class = GALAXY>, fillcolor="#e5823a"] ;
341 -> 342 ;
343 [label=<u &le; 18.033<br/>gini = 0.026<br/>samples = 149<br/>value = [147, 2, 0]<br/>class = GALAXY>, fillcolor="#e5833c"] ;
342 -> 343 ;
344 [label=<redshift &le; 0.056<br/>gini = 0.013<br/>samples = 148<br/>value = [147, 1, 0]<br/>class = GALAXY>, fillcolor="#e5823a"] ;
343 -> 344 ;
345 [label=<redshift &le; 0.055<br/>gini = 0.074<br/>samples = 26<br/>value = [25, 1, 0]<br/>class = GALAXY>, fillcolor="#e68641"] ;
344 -> 345 ;
346 [label=<gini = 0.0<br/>samples = 25<br/>value = [25, 0, 0]<br/>class = GALAXY>, fillcolor="#e58139"] ;
345 -> 346 ;
347 [label=<gini = 0.0<br/>samples = 1<br/>value = [0, 1, 0]<br/>class = QSO>, fillcolor="#39e581"] ;
345 -> 347 ;
348 [label=<gini = 0.0<br/>samples = 122<br/>value = [122, 0, 0]<br/>class = GALAXY>, fillcolor="#e58139"] ;
344 -> 348 ;
349 [label=<gini = 0.0<br/>samples = 1<br/>value = [0, 1, 0]<br/>class = QSO>, fillcolor="#39e581"] ;
343 -> 349 ;
350 [label=<gini = 0.0<br/>samples = 288<br/>value = [288, 0, 0]<br/>class = GALAXY>, fillcolor="#e58139"] ;
342 -> 350 ;
351 [label=<z &le; 15.252<br/>gini = 0.065<br/>samples = 149<br/>value = [144, 5, 0]<br/>class = GALAXY>, fillcolor="#e68540"] ;
341 -> 351 ;
352 [label=<gini = 0.0<br/>samples = 1<br/>value = [0, 1, 0]<br/>class = QSO>, fillcolor="#39e581"] ;
351 -> 352 ;
353 [label=<redshift &le; 0.088<br/>gini = 0.053<br/>samples = 148<br/>value = [144, 4, 0]<br/>class = GALAXY>, fillcolor="#e6843e"] ;
351 -> 353 ;
354 [label=<i &le; 15.585<br/>gini = 0.029<br/>samples = 137<br/>value = [135, 2, 0]<br/>class = GALAXY>, fillcolor="#e5833c"] ;
353 -> 354 ;
355 [label=<r &le; 16.009<br/>gini = 0.117<br/>samples = 16<br/>value = [15, 1, 0]<br/>class = GALAXY>, fillcolor="#e78946"] ;
354 -> 355 ;
356 [label=<gini = 0.0<br/>samples = 15<br/>value = [15, 0, 0]<br/>class = GALAXY>, fillcolor="#e58139"] ;
355 -> 356 ;
357 [label=<gini = 0.0<br/>samples = 1<br/>value = [0, 1, 0]<br/>class = QSO>, fillcolor="#39e581"] ;
355 -> 357 ;
358 [label=<z &le; 15.51<br/>gini = 0.016<br/>samples = 121<br/>value = [120, 1, 0]<br/>class = GALAXY>, fillcolor="#e5823b"] ;
354 -> 358 ;
359 [label=<gini = 0.0<br/>samples = 96<br/>value = [96, 0, 0]<br/>class = GALAXY>, fillcolor="#e58139"] ;
358 -> 359 ;
360 [label=<z &le; 15.513<br/>gini = 0.077<br/>samples = 25<br/>value = [24, 1, 0]<br/>class = GALAXY>, fillcolor="#e68641"] ;
358 -> 360 ;
361 [label=<gini = 0.0<br/>samples = 1<br/>value = [0, 1, 0]<br/>class = QSO>, fillcolor="#39e581"] ;
360 -> 361 ;
362 [label=<gini = 0.0<br/>samples = 24<br/>value = [24, 0, 0]<br/>class = GALAXY>, fillcolor="#e58139"] ;
360 -> 362 ;
363 [label=<i &le; 15.688<br/>gini = 0.298<br/>samples = 11<br/>value = [9, 2, 0]<br/>class = GALAXY>, fillcolor="#eb9d65"] ;
353 -> 363 ;
364 [label=<r &le; 16.031<br/>gini = 0.444<br/>samples = 3<br/>value = [1, 2, 0]<br/>class = QSO>, fillcolor="#9cf2c0"] ;
363 -> 364 ;
365 [label=<gini = 0.0<br/>samples = 1<br/>value = [1, 0, 0]<br/>class = GALAXY>, fillcolor="#e58139"] ;
364 -> 365 ;
366 [label=<gini = 0.0<br/>samples = 2<br/>value = [0, 2, 0]<br/>class = QSO>, fillcolor="#39e581"] ;
364 -> 366 ;
367 [label=<gini = 0.0<br/>samples = 8<br/>value = [8, 0, 0]<br/>class = GALAXY>, fillcolor="#e58139"] ;
363 -> 367 ;
368 [label=<u &le; 18.65<br/>gini = 0.5<br/>samples = 2<br/>value = [1, 1, 0]<br/>class = GALAXY>, fillcolor="#ffffff"] ;
340 -> 368 ;
369 [label=<gini = 0.0<br/>samples = 1<br/>value = [1, 0, 0]<br/>class = GALAXY>, fillcolor="#e58139"] ;
368 -> 369 ;
370 [label=<gini = 0.0<br/>samples = 1<br/>value = [0, 1, 0]<br/>class = QSO>, fillcolor="#39e581"] ;
368 -> 370 ;
371 [label=<gini = 0.0<br/>samples = 2<br/>value = [0, 2, 0]<br/>class = QSO>, fillcolor="#39e581"] ;
339 -> 371 ;
372 [label=<u &le; 17.645<br/>gini = 0.004<br/>samples = 451<br/>value = [450, 1, 0]<br/>class = GALAXY>, fillcolor="#e58139"] ;
338 -> 372 ;
373 [label=<redshift &le; 0.078<br/>gini = 0.18<br/>samples = 10<br/>value = [9, 1, 0]<br/>class = GALAXY>, fillcolor="#e88f4f"] ;
372 -> 373 ;
374 [label=<gini = 0.0<br/>samples = 9<br/>value = [9, 0, 0]<br/>class = GALAXY>, fillcolor="#e58139"] ;
373 -> 374 ;
375 [label=<gini = 0.0<br/>samples = 1<br/>value = [0, 1, 0]<br/>class = QSO>, fillcolor="#39e581"] ;
373 -> 375 ;
376 [label=<gini = 0.0<br/>samples = 441<br/>value = [441, 0, 0]<br/>class = GALAXY>, fillcolor="#e58139"] ;
372 -> 376 ;
377 [label=<u &le; 17.964<br/>gini = 0.108<br/>samples = 139<br/>value = [131, 8, 0]<br/>class = GALAXY>, fillcolor="#e78945"] ;
321 -> 377 ;
378 [label=<r &le; 15.94<br/>gini = 0.444<br/>samples = 6<br/>value = [2, 4, 0]<br/>class = QSO>, fillcolor="#9cf2c0"] ;
377 -> 378 ;
379 [label=<gini = 0.0<br/>samples = 3<br/>value = [0, 3, 0]<br/>class = QSO>, fillcolor="#39e581"] ;
378 -> 379 ;
380 [label=<r &le; 16.161<br/>gini = 0.444<br/>samples = 3<br/>value = [2, 1, 0]<br/>class = GALAXY>, fillcolor="#f2c09c"] ;
378 -> 380 ;
381 [label=<gini = 0.0<br/>samples = 2<br/>value = [2, 0, 0]<br/>class = GALAXY>, fillcolor="#e58139"] ;
380 -> 381 ;
382 [label=<gini = 0.0<br/>samples = 1<br/>value = [0, 1, 0]<br/>class = QSO>, fillcolor="#39e581"] ;
380 -> 382 ;
383 [label=<redshift &le; 0.098<br/>gini = 0.058<br/>samples = 133<br/>value = [129, 4, 0]<br/>class = GALAXY>, fillcolor="#e6853f"] ;
377 -> 383 ;
384 [label=<gini = 0.0<br/>samples = 1<br/>value = [0, 1, 0]<br/>class = QSO>, fillcolor="#39e581"] ;
383 -> 384 ;
385 [label=<g &le; 17.626<br/>gini = 0.044<br/>samples = 132<br/>value = [129, 3, 0]<br/>class = GALAXY>, fillcolor="#e6843e"] ;
383 -> 385 ;
386 [label=<redshift &le; 0.101<br/>gini = 0.018<br/>samples = 112<br/>value = [111, 1, 0]<br/>class = GALAXY>, fillcolor="#e5823b"] ;
385 -> 386 ;
387 [label=<redshift &le; 0.101<br/>gini = 0.1<br/>samples = 19<br/>value = [18, 1, 0]<br/>class = GALAXY>, fillcolor="#e68844"] ;
386 -> 387 ;
388 [label=<gini = 0.0<br/>samples = 18<br/>value = [18, 0, 0]<br/>class = GALAXY>, fillcolor="#e58139"] ;
387 -> 388 ;
389 [label=<gini = 0.0<br/>samples = 1<br/>value = [0, 1, 0]<br/>class = QSO>, fillcolor="#39e581"] ;
387 -> 389 ;
390 [label=<gini = 0.0<br/>samples = 93<br/>value = [93, 0, 0]<br/>class = GALAXY>, fillcolor="#e58139"] ;
386 -> 390 ;
391 [label=<i &le; 16.652<br/>gini = 0.18<br/>samples = 20<br/>value = [18, 2, 0]<br/>class = GALAXY>, fillcolor="#e88f4f"] ;
385 -> 391 ;
392 [label=<gini = 0.0<br/>samples = 1<br/>value = [0, 1, 0]<br/>class = QSO>, fillcolor="#39e581"] ;
391 -> 392 ;
393 [label=<redshift &le; 0.121<br/>gini = 0.1<br/>samples = 19<br/>value = [18, 1, 0]<br/>class = GALAXY>, fillcolor="#e68844"] ;
391 -> 393 ;
394 [label=<gini = 0.0<br/>samples = 17<br/>value = [17, 0, 0]<br/>class = GALAXY>, fillcolor="#e58139"] ;
393 -> 394 ;
395 [label=<g &le; 17.799<br/>gini = 0.5<br/>samples = 2<br/>value = [1, 1, 0]<br/>class = GALAXY>, fillcolor="#ffffff"] ;
393 -> 395 ;
396 [label=<gini = 0.0<br/>samples = 1<br/>value = [0, 1, 0]<br/>class = QSO>, fillcolor="#39e581"] ;
395 -> 396 ;
397 [label=<gini = 0.0<br/>samples = 1<br/>value = [1, 0, 0]<br/>class = GALAXY>, fillcolor="#e58139"] ;
395 -> 397 ;
398 [label=<u &le; 18.291<br/>gini = 0.285<br/>samples = 64<br/>value = [53, 11, 0]<br/>class = GALAXY>, fillcolor="#ea9b62"] ;
320 -> 398 ;
399 [label=<redshift &le; 0.131<br/>gini = 0.459<br/>samples = 14<br/>value = [5, 9, 0]<br/>class = QSO>, fillcolor="#a7f3c7"] ;
398 -> 399 ;
400 [label=<gini = 0.0<br/>samples = 5<br/>value = [0, 5, 0]<br/>class = QSO>, fillcolor="#39e581"] ;
399 -> 400 ;
401 [label=<redshift &le; 0.164<br/>gini = 0.494<br/>samples = 9<br/>value = [5, 4, 0]<br/>class = GALAXY>, fillcolor="#fae6d7"] ;
399 -> 401 ;
402 [label=<i &le; 16.236<br/>gini = 0.278<br/>samples = 6<br/>value = [5, 1, 0]<br/>class = GALAXY>, fillcolor="#ea9a61"] ;
401 -> 402 ;
403 [label=<z &le; 15.474<br/>gini = 0.444<br/>samples = 3<br/>value = [2, 1, 0]<br/>class = GALAXY>, fillcolor="#f2c09c"] ;
402 -> 403 ;
404 [label=<gini = 0.0<br/>samples = 2<br/>value = [2, 0, 0]<br/>class = GALAXY>, fillcolor="#e58139"] ;
403 -> 404 ;
405 [label=<gini = 0.0<br/>samples = 1<br/>value = [0, 1, 0]<br/>class = QSO>, fillcolor="#39e581"] ;
403 -> 405 ;
406 [label=<gini = 0.0<br/>samples = 3<br/>value = [3, 0, 0]<br/>class = GALAXY>, fillcolor="#e58139"] ;
402 -> 406 ;
407 [label=<gini = 0.0<br/>samples = 3<br/>value = [0, 3, 0]<br/>class = QSO>, fillcolor="#39e581"] ;
401 -> 407 ;
408 [label=<g &le; 17.774<br/>gini = 0.077<br/>samples = 50<br/>value = [48, 2, 0]<br/>class = GALAXY>, fillcolor="#e68641"] ;
398 -> 408 ;
409 [label=<gini = 0.0<br/>samples = 43<br/>value = [43, 0, 0]<br/>class = GALAXY>, fillcolor="#e58139"] ;
408 -> 409 ;
410 [label=<g &le; 17.819<br/>gini = 0.408<br/>samples = 7<br/>value = [5, 2, 0]<br/>class = GALAXY>, fillcolor="#efb388"] ;
408 -> 410 ;
411 [label=<gini = 0.0<br/>samples = 2<br/>value = [0, 2, 0]<br/>class = QSO>, fillcolor="#39e581"] ;
410 -> 411 ;
412 [label=<gini = 0.0<br/>samples = 5<br/>value = [5, 0, 0]<br/>class = GALAXY>, fillcolor="#e58139"] ;
410 -> 412 ;
413 [label=<redshift &le; 0.164<br/>gini = 0.375<br/>samples = 4<br/>value = [1, 3, 0]<br/>class = QSO>, fillcolor="#7beeab"] ;
319 -> 413 ;
414 [label=<gini = 0.0<br/>samples = 3<br/>value = [0, 3, 0]<br/>class = QSO>, fillcolor="#39e581"] ;
413 -> 414 ;
415 [label=<gini = 0.0<br/>samples = 1<br/>value = [1, 0, 0]<br/>class = GALAXY>, fillcolor="#e58139"] ;
413 -> 415 ;
416 [label=<redshift &le; 0.192<br/>gini = 0.095<br/>samples = 20<br/>value = [1, 19, 0]<br/>class = QSO>, fillcolor="#43e688"] ;
318 -> 416 ;
417 [label=<redshift &le; 0.184<br/>gini = 0.5<br/>samples = 2<br/>value = [1, 1, 0]<br/>class = GALAXY>, fillcolor="#ffffff"] ;
416 -> 417 ;
418 [label=<gini = 0.0<br/>samples = 1<br/>value = [0, 1, 0]<br/>class = QSO>, fillcolor="#39e581"] ;
417 -> 418 ;
419 [label=<gini = 0.0<br/>samples = 1<br/>value = [1, 0, 0]<br/>class = GALAXY>, fillcolor="#e58139"] ;
417 -> 419 ;
420 [label=<gini = 0.0<br/>samples = 18<br/>value = [0, 18, 0]<br/>class = QSO>, fillcolor="#39e581"] ;
416 -> 420 ;
421 [label=<redshift &le; 0.137<br/>gini = 0.012<br/>samples = 10630<br/>value = [10564, 66, 0]<br/>class = GALAXY>, fillcolor="#e5823a"] ;
317 -> 421 ;
422 [label=<u &le; 19.844<br/>gini = 0.005<br/>samples = 6411<br/>value = [6394, 17, 0]<br/>class = GALAXY>, fillcolor="#e5813a"] ;
421 -> 422 ;
423 [label=<u &le; 19.843<br/>gini = 0.008<br/>samples = 3978<br/>value = [3962.0, 16.0, 0.0]<br/>class = GALAXY>, fillcolor="#e5823a"] ;
422 -> 423 ;
424 [label=<g &le; 18.565<br/>gini = 0.008<br/>samples = 3977<br/>value = [3962, 15, 0]<br/>class = GALAXY>, fillcolor="#e5813a"] ;
423 -> 424 ;
425 [label=<u &le; 19.84<br/>gini = 0.007<br/>samples = 3968<br/>value = [3954, 14, 0]<br/>class = GALAXY>, fillcolor="#e5813a"] ;
424 -> 425 ;
426 [label=<redshift &le; 0.084<br/>gini = 0.007<br/>samples = 3958<br/>value = [3945, 13, 0]<br/>class = GALAXY>, fillcolor="#e5813a"] ;
425 -> 426 ;
427 [label=<gini = 0.0<br/>samples = 1951<br/>value = [1951, 0, 0]<br/>class = GALAXY>, fillcolor="#e58139"] ;
426 -> 427 ;
428 [label=<redshift &le; 0.084<br/>gini = 0.013<br/>samples = 2007<br/>value = [1994, 13, 0]<br/>class = GALAXY>, fillcolor="#e5823a"] ;
426 -> 428 ;
429 [label=<gini = 0.0<br/>samples = 1<br/>value = [0, 1, 0]<br/>class = QSO>, fillcolor="#39e581"] ;
428 -> 429 ;
430 [label=<redshift &le; 0.088<br/>gini = 0.012<br/>samples = 2006<br/>value = [1994, 12, 0]<br/>class = GALAXY>, fillcolor="#e5823a"] ;
428 -> 430 ;
431 [label=<redshift &le; 0.088<br/>gini = 0.035<br/>samples = 167<br/>value = [164, 3, 0]<br/>class = GALAXY>, fillcolor="#e5833d"] ;
430 -> 431 ;
432 [label=<redshift &le; 0.086<br/>gini = 0.024<br/>samples = 166<br/>value = [164, 2, 0]<br/>class = GALAXY>, fillcolor="#e5833b"] ;
431 -> 432 ;
433 [label=<gini = 0.0<br/>samples = 97<br/>value = [97, 0, 0]<br/>class = GALAXY>, fillcolor="#e58139"] ;
432 -> 433 ;
434 [label=<redshift &le; 0.086<br/>gini = 0.056<br/>samples = 69<br/>value = [67, 2, 0]<br/>class = GALAXY>, fillcolor="#e6853f"] ;
432 -> 434 ;
435 [label=<gini = 0.0<br/>samples = 1<br/>value = [0, 1, 0]<br/>class = QSO>, fillcolor="#39e581"] ;
434 -> 435 ;
436 [label=<g &le; 18.148<br/>gini = 0.029<br/>samples = 68<br/>value = [67, 1, 0]<br/>class = GALAXY>, fillcolor="#e5833c"] ;
434 -> 436 ;
437 [label=<gini = 0.0<br/>samples = 59<br/>value = [59, 0, 0]<br/>class = GALAXY>, fillcolor="#e58139"] ;
436 -> 437 ;
438 [label=<g &le; 18.164<br/>gini = 0.198<br/>samples = 9<br/>value = [8, 1, 0]<br/>class = GALAXY>, fillcolor="#e89152"] ;
436 -> 438 ;
439 [label=<gini = 0.0<br/>samples = 1<br/>value = [0, 1, 0]<br/>class = QSO>, fillcolor="#39e581"] ;
438 -> 439 ;
440 [label=<gini = 0.0<br/>samples = 8<br/>value = [8, 0, 0]<br/>class = GALAXY>, fillcolor="#e58139"] ;
438 -> 440 ;
441 [label=<gini = 0.0<br/>samples = 1<br/>value = [0, 1, 0]<br/>class = QSO>, fillcolor="#39e581"] ;
431 -> 441 ;
442 [label=<r &le; 17.088<br/>gini = 0.01<br/>samples = 1839<br/>value = [1830, 9, 0]<br/>class = GALAXY>, fillcolor="#e5823a"] ;
430 -> 442 ;
443 [label=<r &le; 17.087<br/>gini = 0.018<br/>samples = 995<br/>value = [986, 9, 0]<br/>class = GALAXY>, fillcolor="#e5823b"] ;
442 -> 443 ;
444 [label=<z &le; 16.883<br/>gini = 0.016<br/>samples = 994<br/>value = [986, 8, 0]<br/>class = GALAXY>, fillcolor="#e5823b"] ;
443 -> 444 ;
445 [label=<r &le; 16.615<br/>gini = 0.014<br/>samples = 993<br/>value = [986, 7, 0]<br/>class = GALAXY>, fillcolor="#e5823a"] ;
444 -> 445 ;
446 [label=<gini = 0.0<br/>samples = 453<br/>value = [453, 0, 0]<br/>class = GALAXY>, fillcolor="#e58139"] ;
445 -> 446 ;
447 [label=<r &le; 16.616<br/>gini = 0.026<br/>samples = 540<br/>value = [533, 7, 0]<br/>class = GALAXY>, fillcolor="#e5833c"] ;
445 -> 447 ;
448 [label=<gini = 0.0<br/>samples = 1<br/>value = [0, 1, 0]<br/>class = QSO>, fillcolor="#39e581"] ;
447 -> 448 ;
449 [label=<u &le; 18.978<br/>gini = 0.022<br/>samples = 539<br/>value = [533, 6, 0]<br/>class = GALAXY>, fillcolor="#e5823b"] ;
447 -> 449 ;
450 [label=<g &le; 17.705<br/>gini = 0.113<br/>samples = 50<br/>value = [47, 3, 0]<br/>class = GALAXY>, fillcolor="#e78946"] ;
449 -> 450 ;
451 [label=<gini = 0.0<br/>samples = 44<br/>value = [44, 0, 0]<br/>class = GALAXY>, fillcolor="#e58139"] ;
450 -> 451 ;
452 [label=<z &le; 16.282<br/>gini = 0.5<br/>samples = 6<br/>value = [3, 3, 0]<br/>class = GALAXY>, fillcolor="#ffffff"] ;
450 -> 452 ;
453 [label=<gini = 0.0<br/>samples = 3<br/>value = [0, 3, 0]<br/>class = QSO>, fillcolor="#39e581"] ;
452 -> 453 ;
454 [label=<gini = 0.0<br/>samples = 3<br/>value = [3, 0, 0]<br/>class = GALAXY>, fillcolor="#e58139"] ;
452 -> 454 ;
455 [label=<i &le; 16.14<br/>gini = 0.012<br/>samples = 489<br/>value = [486, 3, 0]<br/>class = GALAXY>, fillcolor="#e5823a"] ;
449 -> 455 ;
456 [label=<i &le; 16.135<br/>gini = 0.198<br/>samples = 9<br/>value = [8, 1, 0]<br/>class = GALAXY>, fillcolor="#e89152"] ;
455 -> 456 ;
457 [label=<gini = 0.0<br/>samples = 8<br/>value = [8, 0, 0]<br/>class = GALAXY>, fillcolor="#e58139"] ;
456 -> 457 ;
458 [label=<gini = 0.0<br/>samples = 1<br/>value = [0, 1, 0]<br/>class = QSO>, fillcolor="#39e581"] ;
456 -> 458 ;
459 [label=<i &le; 16.254<br/>gini = 0.008<br/>samples = 480<br/>value = [478, 2, 0]<br/>class = GALAXY>, fillcolor="#e5823a"] ;
455 -> 459 ;
460 [label=<z &le; 15.94<br/>gini = 0.045<br/>samples = 86<br/>value = [84, 2, 0]<br/>class = GALAXY>, fillcolor="#e6843e"] ;
459 -> 460 ;
461 [label=<gini = 0.0<br/>samples = 83<br/>value = [83, 0, 0]<br/>class = GALAXY>, fillcolor="#e58139"] ;
460 -> 461 ;
462 [label=<g &le; 17.502<br/>gini = 0.444<br/>samples = 3<br/>value = [1, 2, 0]<br/>class = QSO>, fillcolor="#9cf2c0"] ;
460 -> 462 ;
463 [label=<gini = 0.0<br/>samples = 1<br/>value = [1, 0, 0]<br/>class = GALAXY>, fillcolor="#e58139"] ;
462 -> 463 ;
464 [label=<gini = 0.0<br/>samples = 2<br/>value = [0, 2, 0]<br/>class = QSO>, fillcolor="#39e581"] ;
462 -> 464 ;
465 [label=<gini = 0.0<br/>samples = 394<br/>value = [394, 0, 0]<br/>class = GALAXY>, fillcolor="#e58139"] ;
459 -> 465 ;
466 [label=<gini = 0.0<br/>samples = 1<br/>value = [0, 1, 0]<br/>class = QSO>, fillcolor="#39e581"] ;
444 -> 466 ;
467 [label=<gini = 0.0<br/>samples = 1<br/>value = [0, 1, 0]<br/>class = QSO>, fillcolor="#39e581"] ;
443 -> 467 ;
468 [label=<gini = 0.0<br/>samples = 844<br/>value = [844, 0, 0]<br/>class = GALAXY>, fillcolor="#e58139"] ;
442 -> 468 ;
469 [label=<redshift &le; 0.053<br/>gini = 0.18<br/>samples = 10<br/>value = [9, 1, 0]<br/>class = GALAXY>, fillcolor="#e88f4f"] ;
425 -> 469 ;
470 [label=<gini = 0.0<br/>samples = 1<br/>value = [0, 1, 0]<br/>class = QSO>, fillcolor="#39e581"] ;
469 -> 470 ;
471 [label=<gini = 0.0<br/>samples = 9<br/>value = [9, 0, 0]<br/>class = GALAXY>, fillcolor="#e58139"] ;
469 -> 471 ;
472 [label=<g &le; 18.588<br/>gini = 0.198<br/>samples = 9<br/>value = [8, 1, 0]<br/>class = GALAXY>, fillcolor="#e89152"] ;
424 -> 472 ;
473 [label=<gini = 0.0<br/>samples = 1<br/>value = [0, 1, 0]<br/>class = QSO>, fillcolor="#39e581"] ;
472 -> 473 ;
474 [label=<gini = 0.0<br/>samples = 8<br/>value = [8, 0, 0]<br/>class = GALAXY>, fillcolor="#e58139"] ;
472 -> 474 ;
475 [label=<gini = 0.0<br/>samples = 1<br/>value = [0, 1, 0]<br/>class = QSO>, fillcolor="#39e581"] ;
423 -> 475 ;
476 [label=<g &le; 18.915<br/>gini = 0.001<br/>samples = 2433<br/>value = [2432, 1, 0]<br/>class = GALAXY>, fillcolor="#e58139"] ;
422 -> 476 ;
477 [label=<gini = 0.0<br/>samples = 2327<br/>value = [2327, 0, 0]<br/>class = GALAXY>, fillcolor="#e58139"] ;
476 -> 477 ;
478 [label=<g &le; 18.917<br/>gini = 0.019<br/>samples = 106<br/>value = [105, 1, 0]<br/>class = GALAXY>, fillcolor="#e5823b"] ;
476 -> 478 ;
479 [label=<gini = 0.0<br/>samples = 1<br/>value = [0, 1, 0]<br/>class = QSO>, fillcolor="#39e581"] ;
478 -> 479 ;
480 [label=<gini = 0.0<br/>samples = 105<br/>value = [105, 0, 0]<br/>class = GALAXY>, fillcolor="#e58139"] ;
478 -> 480 ;
481 [label=<u &le; 19.539<br/>gini = 0.023<br/>samples = 4219<br/>value = [4170, 49, 0]<br/>class = GALAXY>, fillcolor="#e5823b"] ;
421 -> 481 ;
482 [label=<g &le; 18.659<br/>gini = 0.12<br/>samples = 344<br/>value = [322, 22, 0]<br/>class = GALAXY>, fillcolor="#e78a47"] ;
481 -> 482 ;
483 [label=<g &le; 18.388<br/>gini = 0.086<br/>samples = 333<br/>value = [318, 15, 0]<br/>class = GALAXY>, fillcolor="#e68742"] ;
482 -> 483 ;
484 [label=<u &le; 19.217<br/>gini = 0.063<br/>samples = 307<br/>value = [297, 10, 0]<br/>class = GALAXY>, fillcolor="#e68540"] ;
483 -> 484 ;
485 [label=<g &le; 18.18<br/>gini = 0.121<br/>samples = 124<br/>value = [116, 8, 0]<br/>class = GALAXY>, fillcolor="#e78a47"] ;
484 -> 485 ;
486 [label=<u &le; 19.216<br/>gini = 0.082<br/>samples = 117<br/>value = [112, 5, 0]<br/>class = GALAXY>, fillcolor="#e68742"] ;
485 -> 486 ;
487 [label=<redshift &le; 0.14<br/>gini = 0.067<br/>samples = 116<br/>value = [112, 4, 0]<br/>class = GALAXY>, fillcolor="#e68640"] ;
486 -> 487 ;
488 [label=<redshift &le; 0.14<br/>gini = 0.211<br/>samples = 25<br/>value = [22, 3, 0]<br/>class = GALAXY>, fillcolor="#e99254"] ;
487 -> 488 ;
489 [label=<u &le; 19.03<br/>gini = 0.153<br/>samples = 24<br/>value = [22, 2, 0]<br/>class = GALAXY>, fillcolor="#e78c4b"] ;
488 -> 489 ;
490 [label=<gini = 0.0<br/>samples = 12<br/>value = [12, 0, 0]<br/>class = GALAXY>, fillcolor="#e58139"] ;
489 -> 490 ;
491 [label=<u &le; 19.074<br/>gini = 0.278<br/>samples = 12<br/>value = [10, 2, 0]<br/>class = GALAXY>, fillcolor="#ea9a61"] ;
489 -> 491 ;
492 [label=<r &le; 16.858<br/>gini = 0.444<br/>samples = 3<br/>value = [1, 2, 0]<br/>class = QSO>, fillcolor="#9cf2c0"] ;
491 -> 492 ;
493 [label=<gini = 0.0<br/>samples = 1<br/>value = [1, 0, 0]<br/>class = GALAXY>, fillcolor="#e58139"] ;
492 -> 493 ;
494 [label=<gini = 0.0<br/>samples = 2<br/>value = [0, 2, 0]<br/>class = QSO>, fillcolor="#39e581"] ;
492 -> 494 ;
495 [label=<gini = 0.0<br/>samples = 9<br/>value = [9, 0, 0]<br/>class = GALAXY>, fillcolor="#e58139"] ;
491 -> 495 ;
496 [label=<gini = 0.0<br/>samples = 1<br/>value = [0, 1, 0]<br/>class = QSO>, fillcolor="#39e581"] ;
488 -> 496 ;
497 [label=<r &le; 16.568<br/>gini = 0.022<br/>samples = 91<br/>value = [90, 1, 0]<br/>class = GALAXY>, fillcolor="#e5823b"] ;
487 -> 497 ;
498 [label=<r &le; 16.539<br/>gini = 0.105<br/>samples = 18<br/>value = [17, 1, 0]<br/>class = GALAXY>, fillcolor="#e78845"] ;
497 -> 498 ;
499 [label=<gini = 0.0<br/>samples = 17<br/>value = [17, 0, 0]<br/>class = GALAXY>, fillcolor="#e58139"] ;
498 -> 499 ;
500 [label=<gini = 0.0<br/>samples = 1<br/>value = [0, 1, 0]<br/>class = QSO>, fillcolor="#39e581"] ;
498 -> 500 ;
501 [label=<gini = 0.0<br/>samples = 73<br/>value = [73, 0, 0]<br/>class = GALAXY>, fillcolor="#e58139"] ;
497 -> 501 ;
502 [label=<gini = 0.0<br/>samples = 1<br/>value = [0, 1, 0]<br/>class = QSO>, fillcolor="#39e581"] ;
486 -> 502 ;
503 [label=<r &le; 17.554<br/>gini = 0.49<br/>samples = 7<br/>value = [4, 3, 0]<br/>class = GALAXY>, fillcolor="#f8e0ce"] ;
485 -> 503 ;
504 [label=<redshift &le; 0.241<br/>gini = 0.375<br/>samples = 4<br/>value = [1, 3, 0]<br/>class = QSO>, fillcolor="#7beeab"] ;
503 -> 504 ;
505 [label=<gini = 0.0<br/>samples = 3<br/>value = [0, 3, 0]<br/>class = QSO>, fillcolor="#39e581"] ;
504 -> 505 ;
506 [label=<gini = 0.0<br/>samples = 1<br/>value = [1, 0, 0]<br/>class = GALAXY>, fillcolor="#e58139"] ;
504 -> 506 ;
507 [label=<gini = 0.0<br/>samples = 3<br/>value = [3, 0, 0]<br/>class = GALAXY>, fillcolor="#e58139"] ;
503 -> 507 ;
508 [label=<u &le; 19.481<br/>gini = 0.022<br/>samples = 183<br/>value = [181, 2, 0]<br/>class = GALAXY>, fillcolor="#e5823b"] ;
484 -> 508 ;
509 [label=<gini = 0.0<br/>samples = 150<br/>value = [150, 0, 0]<br/>class = GALAXY>, fillcolor="#e58139"] ;
508 -> 509 ;
510 [label=<u &le; 19.483<br/>gini = 0.114<br/>samples = 33<br/>value = [31, 2, 0]<br/>class = GALAXY>, fillcolor="#e78946"] ;
508 -> 510 ;
511 [label=<gini = 0.0<br/>samples = 1<br/>value = [0, 1, 0]<br/>class = QSO>, fillcolor="#39e581"] ;
510 -> 511 ;
512 [label=<u &le; 19.523<br/>gini = 0.061<br/>samples = 32<br/>value = [31, 1, 0]<br/>class = GALAXY>, fillcolor="#e6853f"] ;
510 -> 512 ;
513 [label=<gini = 0.0<br/>samples = 22<br/>value = [22, 0, 0]<br/>class = GALAXY>, fillcolor="#e58139"] ;
512 -> 513 ;
514 [label=<u &le; 19.525<br/>gini = 0.18<br/>samples = 10<br/>value = [9, 1, 0]<br/>class = GALAXY>, fillcolor="#e88f4f"] ;
512 -> 514 ;
515 [label=<gini = 0.0<br/>samples = 1<br/>value = [0, 1, 0]<br/>class = QSO>, fillcolor="#39e581"] ;
514 -> 515 ;
516 [label=<gini = 0.0<br/>samples = 9<br/>value = [9, 0, 0]<br/>class = GALAXY>, fillcolor="#e58139"] ;
514 -> 516 ;
517 [label=<u &le; 19.439<br/>gini = 0.311<br/>samples = 26<br/>value = [21, 5, 0]<br/>class = GALAXY>, fillcolor="#eb9f68"] ;
483 -> 517 ;
518 [label=<z &le; 17.085<br/>gini = 0.5<br/>samples = 10<br/>value = [5, 5, 0]<br/>class = GALAXY>, fillcolor="#ffffff"] ;
517 -> 518 ;
519 [label=<gini = 0.0<br/>samples = 4<br/>value = [0, 4, 0]<br/>class = QSO>, fillcolor="#39e581"] ;
518 -> 519 ;
520 [label=<u &le; 19.125<br/>gini = 0.278<br/>samples = 6<br/>value = [5, 1, 0]<br/>class = GALAXY>, fillcolor="#ea9a61"] ;
518 -> 520 ;
521 [label=<gini = 0.0<br/>samples = 1<br/>value = [0, 1, 0]<br/>class = QSO>, fillcolor="#39e581"] ;
520 -> 521 ;
522 [label=<gini = 0.0<br/>samples = 5<br/>value = [5, 0, 0]<br/>class = GALAXY>, fillcolor="#e58139"] ;
520 -> 522 ;
523 [label=<gini = 0.0<br/>samples = 16<br/>value = [16, 0, 0]<br/>class = GALAXY>, fillcolor="#e58139"] ;
517 -> 523 ;
524 [label=<redshift &le; 0.231<br/>gini = 0.463<br/>samples = 11<br/>value = [4, 7, 0]<br/>class = QSO>, fillcolor="#aaf4c9"] ;
482 -> 524 ;
525 [label=<redshift &le; 0.206<br/>gini = 0.5<br/>samples = 8<br/>value = [4, 4, 0]<br/>class = GALAXY>, fillcolor="#ffffff"] ;
524 -> 525 ;
526 [label=<r &le; 17.999<br/>gini = 0.444<br/>samples = 6<br/>value = [2, 4, 0]<br/>class = QSO>, fillcolor="#9cf2c0"] ;
525 -> 526 ;
527 [label=<gini = 0.0<br/>samples = 4<br/>value = [0, 4, 0]<br/>class = QSO>, fillcolor="#39e581"] ;
526 -> 527 ;
528 [label=<gini = 0.0<br/>samples = 2<br/>value = [2, 0, 0]<br/>class = GALAXY>, fillcolor="#e58139"] ;
526 -> 528 ;
529 [label=<gini = 0.0<br/>samples = 2<br/>value = [2, 0, 0]<br/>class = GALAXY>, fillcolor="#e58139"] ;
525 -> 529 ;
530 [label=<gini = 0.0<br/>samples = 3<br/>value = [0, 3, 0]<br/>class = QSO>, fillcolor="#39e581"] ;
524 -> 530 ;
531 [label=<redshift &le; 0.137<br/>gini = 0.014<br/>samples = 3875<br/>value = [3848, 27, 0]<br/>class = GALAXY>, fillcolor="#e5823a"] ;
481 -> 531 ;
532 [label=<gini = 0.0<br/>samples = 1<br/>value = [0, 1, 0]<br/>class = QSO>, fillcolor="#39e581"] ;
531 -> 532 ;
533 [label=<u &le; 19.793<br/>gini = 0.013<br/>samples = 3874<br/>value = [3848, 26, 0]<br/>class = GALAXY>, fillcolor="#e5823a"] ;
531 -> 533 ;
534 [label=<r &le; 18.192<br/>gini = 0.056<br/>samples = 278<br/>value = [270, 8, 0]<br/>class = GALAXY>, fillcolor="#e6853f"] ;
533 -> 534 ;
535 [label=<u &le; 19.791<br/>gini = 0.049<br/>samples = 277<br/>value = [270.0, 7.0, 0.0]<br/>class = GALAXY>, fillcolor="#e6843e"] ;
534 -> 535 ;
536 [label=<redshift &le; 0.262<br/>gini = 0.043<br/>samples = 276<br/>value = [270, 6, 0]<br/>class = GALAXY>, fillcolor="#e6843d"] ;
535 -> 536 ;
537 [label=<u &le; 19.689<br/>gini = 0.036<br/>samples = 273<br/>value = [268, 5, 0]<br/>class = GALAXY>, fillcolor="#e5833d"] ;
536 -> 537 ;
538 [label=<gini = 0.0<br/>samples = 159<br/>value = [159, 0, 0]<br/>class = GALAXY>, fillcolor="#e58139"] ;
537 -> 538 ;
539 [label=<u &le; 19.692<br/>gini = 0.084<br/>samples = 114<br/>value = [109, 5, 0]<br/>class = GALAXY>, fillcolor="#e68742"] ;
537 -> 539 ;
540 [label=<z &le; 16.571<br/>gini = 0.444<br/>samples = 3<br/>value = [1, 2, 0]<br/>class = QSO>, fillcolor="#9cf2c0"] ;
539 -> 540 ;
541 [label=<gini = 0.0<br/>samples = 1<br/>value = [1, 0, 0]<br/>class = GALAXY>, fillcolor="#e58139"] ;
540 -> 541 ;
542 [label=<gini = 0.0<br/>samples = 2<br/>value = [0, 2, 0]<br/>class = QSO>, fillcolor="#39e581"] ;
540 -> 542 ;
543 [label=<u &le; 19.767<br/>gini = 0.053<br/>samples = 111<br/>value = [108, 3, 0]<br/>class = GALAXY>, fillcolor="#e6843e"] ;
539 -> 543 ;
544 [label=<redshift &le; 0.144<br/>gini = 0.022<br/>samples = 89<br/>value = [88, 1, 0]<br/>class = GALAXY>, fillcolor="#e5823b"] ;
543 -> 544 ;
545 [label=<redshift &le; 0.143<br/>gini = 0.105<br/>samples = 18<br/>value = [17, 1, 0]<br/>class = GALAXY>, fillcolor="#e78845"] ;
544 -> 545 ;
546 [label=<gini = 0.0<br/>samples = 17<br/>value = [17, 0, 0]<br/>class = GALAXY>, fillcolor="#e58139"] ;
545 -> 546 ;
547 [label=<gini = 0.0<br/>samples = 1<br/>value = [0, 1, 0]<br/>class = QSO>, fillcolor="#39e581"] ;
545 -> 547 ;
548 [label=<gini = 0.0<br/>samples = 71<br/>value = [71, 0, 0]<br/>class = GALAXY>, fillcolor="#e58139"] ;
544 -> 548 ;
549 [label=<u &le; 19.767<br/>gini = 0.165<br/>samples = 22<br/>value = [20, 2, 0]<br/>class = GALAXY>, fillcolor="#e88e4d"] ;
543 -> 549 ;
550 [label=<gini = 0.0<br/>samples = 1<br/>value = [0, 1, 0]<br/>class = QSO>, fillcolor="#39e581"] ;
549 -> 550 ;
551 [label=<r &le; 17.632<br/>gini = 0.091<br/>samples = 21<br/>value = [20, 1, 0]<br/>class = GALAXY>, fillcolor="#e68743"] ;
549 -> 551 ;
552 [label=<gini = 0.0<br/>samples = 16<br/>value = [16, 0, 0]<br/>class = GALAXY>, fillcolor="#e58139"] ;
551 -> 552 ;
553 [label=<redshift &le; 0.171<br/>gini = 0.32<br/>samples = 5<br/>value = [4, 1, 0]<br/>class = GALAXY>, fillcolor="#eca06a"] ;
551 -> 553 ;
554 [label=<gini = 0.0<br/>samples = 1<br/>value = [0, 1, 0]<br/>class = QSO>, fillcolor="#39e581"] ;
553 -> 554 ;
555 [label=<gini = 0.0<br/>samples = 4<br/>value = [4, 0, 0]<br/>class = GALAXY>, fillcolor="#e58139"] ;
553 -> 555 ;
556 [label=<z &le; 16.833<br/>gini = 0.444<br/>samples = 3<br/>value = [2, 1, 0]<br/>class = GALAXY>, fillcolor="#f2c09c"] ;
536 -> 556 ;
557 [label=<gini = 0.0<br/>samples = 1<br/>value = [0, 1, 0]<br/>class = QSO>, fillcolor="#39e581"] ;
556 -> 557 ;
558 [label=<gini = 0.0<br/>samples = 2<br/>value = [2, 0, 0]<br/>class = GALAXY>, fillcolor="#e58139"] ;
556 -> 558 ;
559 [label=<gini = 0.0<br/>samples = 1<br/>value = [0, 1, 0]<br/>class = QSO>, fillcolor="#39e581"] ;
535 -> 559 ;
560 [label=<gini = 0.0<br/>samples = 1<br/>value = [0, 1, 0]<br/>class = QSO>, fillcolor="#39e581"] ;
534 -> 560 ;
561 [label=<redshift &le; 0.181<br/>gini = 0.01<br/>samples = 3596<br/>value = [3578, 18, 0]<br/>class = GALAXY>, fillcolor="#e5823a"] ;
533 -> 561 ;
562 [label=<z &le; 17.008<br/>gini = 0.002<br/>samples = 1662<br/>value = [1660, 2, 0]<br/>class = GALAXY>, fillcolor="#e58139"] ;
561 -> 562 ;
563 [label=<u &le; 20.179<br/>gini = 0.001<br/>samples = 1488<br/>value = [1487, 1, 0]<br/>class = GALAXY>, fillcolor="#e58139"] ;
562 -> 563 ;
564 [label=<u &le; 20.179<br/>gini = 0.005<br/>samples = 384<br/>value = [383, 1, 0]<br/>class = GALAXY>, fillcolor="#e5813a"] ;
563 -> 564 ;
565 [label=<gini = 0.0<br/>samples = 383<br/>value = [383, 0, 0]<br/>class = GALAXY>, fillcolor="#e58139"] ;
564 -> 565 ;
566 [label=<gini = 0.0<br/>samples = 1<br/>value = [0, 1, 0]<br/>class = QSO>, fillcolor="#39e581"] ;
564 -> 566 ;
567 [label=<gini = 0.0<br/>samples = 1104<br/>value = [1104, 0, 0]<br/>class = GALAXY>, fillcolor="#e58139"] ;
563 -> 567 ;
568 [label=<z &le; 17.009<br/>gini = 0.011<br/>samples = 174<br/>value = [173, 1, 0]<br/>class = GALAXY>, fillcolor="#e5823a"] ;
562 -> 568 ;
569 [label=<gini = 0.0<br/>samples = 1<br/>value = [0, 1, 0]<br/>class = QSO>, fillcolor="#39e581"] ;
568 -> 569 ;
570 [label=<gini = 0.0<br/>samples = 173<br/>value = [173, 0, 0]<br/>class = GALAXY>, fillcolor="#e58139"] ;
568 -> 570 ;
571 [label=<redshift &le; 0.181<br/>gini = 0.016<br/>samples = 1934<br/>value = [1918, 16, 0]<br/>class = GALAXY>, fillcolor="#e5823b"] ;
561 -> 571 ;
572 [label=<gini = 0.0<br/>samples = 1<br/>value = [0, 1, 0]<br/>class = QSO>, fillcolor="#39e581"] ;
571 -> 572 ;
573 [label=<u &le; 20.528<br/>gini = 0.015<br/>samples = 1933<br/>value = [1918, 15, 0]<br/>class = GALAXY>, fillcolor="#e5823b"] ;
571 -> 573 ;
574 [label=<u &le; 20.527<br/>gini = 0.043<br/>samples = 360<br/>value = [352, 8, 0]<br/>class = GALAXY>, fillcolor="#e6843d"] ;
573 -> 574 ;
575 [label=<g &le; 18.733<br/>gini = 0.038<br/>samples = 359<br/>value = [352, 7, 0]<br/>class = GALAXY>, fillcolor="#e6843d"] ;
574 -> 575 ;
576 [label=<redshift &le; 0.234<br/>gini = 0.015<br/>samples = 266<br/>value = [264, 2, 0]<br/>class = GALAXY>, fillcolor="#e5823b"] ;
575 -> 576 ;
577 [label=<r &le; 17.518<br/>gini = 0.008<br/>samples = 253<br/>value = [252.0, 1.0, 0.0]<br/>class = GALAXY>, fillcolor="#e5823a"] ;
576 -> 577 ;
578 [label=<gini = 0.0<br/>samples = 197<br/>value = [197, 0, 0]<br/>class = GALAXY>, fillcolor="#e58139"] ;
577 -> 578 ;
579 [label=<r &le; 17.527<br/>gini = 0.035<br/>samples = 56<br/>value = [55, 1, 0]<br/>class = GALAXY>, fillcolor="#e5833d"] ;
577 -> 579 ;
580 [label=<gini = 0.0<br/>samples = 1<br/>value = [0, 1, 0]<br/>class = QSO>, fillcolor="#39e581"] ;
579 -> 580 ;
581 [label=<gini = 0.0<br/>samples = 55<br/>value = [55, 0, 0]<br/>class = GALAXY>, fillcolor="#e58139"] ;
579 -> 581 ;
582 [label=<redshift &le; 0.234<br/>gini = 0.142<br/>samples = 13<br/>value = [12, 1, 0]<br/>class = GALAXY>, fillcolor="#e78c49"] ;
576 -> 582 ;
583 [label=<gini = 0.0<br/>samples = 1<br/>value = [0, 1, 0]<br/>class = QSO>, fillcolor="#39e581"] ;
582 -> 583 ;
584 [label=<gini = 0.0<br/>samples = 12<br/>value = [12, 0, 0]<br/>class = GALAXY>, fillcolor="#e58139"] ;
582 -> 584 ;
585 [label=<g &le; 18.736<br/>gini = 0.102<br/>samples = 93<br/>value = [88, 5, 0]<br/>class = GALAXY>, fillcolor="#e68844"] ;
575 -> 585 ;
586 [label=<gini = 0.0<br/>samples = 1<br/>value = [0, 1, 0]<br/>class = QSO>, fillcolor="#39e581"] ;
585 -> 586 ;
587 [label=<redshift &le; 0.183<br/>gini = 0.083<br/>samples = 92<br/>value = [88, 4, 0]<br/>class = GALAXY>, fillcolor="#e68742"] ;
585 -> 587 ;
588 [label=<gini = 0.0<br/>samples = 1<br/>value = [0, 1, 0]<br/>class = QSO>, fillcolor="#39e581"] ;
587 -> 588 ;
589 [label=<g &le; 18.933<br/>gini = 0.064<br/>samples = 91<br/>value = [88, 3, 0]<br/>class = GALAXY>, fillcolor="#e68540"] ;
587 -> 589 ;
590 [label=<redshift &le; 0.189<br/>gini = 0.029<br/>samples = 68<br/>value = [67, 1, 0]<br/>class = GALAXY>, fillcolor="#e5833c"] ;
589 -> 590 ;
591 [label=<redshift &le; 0.189<br/>gini = 0.142<br/>samples = 13<br/>value = [12, 1, 0]<br/>class = GALAXY>, fillcolor="#e78c49"] ;
590 -> 591 ;
592 [label=<gini = 0.0<br/>samples = 12<br/>value = [12, 0, 0]<br/>class = GALAXY>, fillcolor="#e58139"] ;
591 -> 592 ;
593 [label=<gini = 0.0<br/>samples = 1<br/>value = [0, 1, 0]<br/>class = QSO>, fillcolor="#39e581"] ;
591 -> 593 ;
594 [label=<gini = 0.0<br/>samples = 55<br/>value = [55, 0, 0]<br/>class = GALAXY>, fillcolor="#e58139"] ;
590 -> 594 ;
595 [label=<g &le; 18.935<br/>gini = 0.159<br/>samples = 23<br/>value = [21, 2, 0]<br/>class = GALAXY>, fillcolor="#e78d4c"] ;
589 -> 595 ;
596 [label=<gini = 0.0<br/>samples = 1<br/>value = [0, 1, 0]<br/>class = QSO>, fillcolor="#39e581"] ;
595 -> 596 ;
597 [label=<u &le; 20.166<br/>gini = 0.087<br/>samples = 22<br/>value = [21, 1, 0]<br/>class = GALAXY>, fillcolor="#e68742"] ;
595 -> 597 ;
598 [label=<r &le; 17.915<br/>gini = 0.32<br/>samples = 5<br/>value = [4, 1, 0]<br/>class = GALAXY>, fillcolor="#eca06a"] ;
597 -> 598 ;
599 [label=<gini = 0.0<br/>samples = 1<br/>value = [0, 1, 0]<br/>class = QSO>, fillcolor="#39e581"] ;
598 -> 599 ;
600 [label=<gini = 0.0<br/>samples = 4<br/>value = [4, 0, 0]<br/>class = GALAXY>, fillcolor="#e58139"] ;
598 -> 600 ;
601 [label=<gini = 0.0<br/>samples = 17<br/>value = [17, 0, 0]<br/>class = GALAXY>, fillcolor="#e58139"] ;
597 -> 601 ;
602 [label=<gini = 0.0<br/>samples = 1<br/>value = [0, 1, 0]<br/>class = QSO>, fillcolor="#39e581"] ;
574 -> 602 ;
603 [label=<z &le; 17.161<br/>gini = 0.009<br/>samples = 1573<br/>value = [1566.0, 7.0, 0.0]<br/>class = GALAXY>, fillcolor="#e5823a"] ;
573 -> 603 ;
604 [label=<u &le; 21.908<br/>gini = 0.003<br/>samples = 1240<br/>value = [1238, 2, 0]<br/>class = GALAXY>, fillcolor="#e58139"] ;
603 -> 604 ;
605 [label=<i &le; 16.935<br/>gini = 0.002<br/>samples = 1219<br/>value = [1218, 1, 0]<br/>class = GALAXY>, fillcolor="#e58139"] ;
604 -> 605 ;
606 [label=<i &le; 16.935<br/>gini = 0.009<br/>samples = 232<br/>value = [231, 1, 0]<br/>class = GALAXY>, fillcolor="#e5823a"] ;
605 -> 606 ;
607 [label=<gini = 0.0<br/>samples = 231<br/>value = [231, 0, 0]<br/>class = GALAXY>, fillcolor="#e58139"] ;
606 -> 607 ;
608 [label=<gini = 0.0<br/>samples = 1<br/>value = [0, 1, 0]<br/>class = QSO>, fillcolor="#39e581"] ;
606 -> 608 ;
609 [label=<gini = 0.0<br/>samples = 987<br/>value = [987, 0, 0]<br/>class = GALAXY>, fillcolor="#e58139"] ;
605 -> 609 ;
610 [label=<u &le; 21.91<br/>gini = 0.091<br/>samples = 21<br/>value = [20, 1, 0]<br/>class = GALAXY>, fillcolor="#e68743"] ;
604 -> 610 ;
611 [label=<gini = 0.0<br/>samples = 1<br/>value = [0, 1, 0]<br/>class = QSO>, fillcolor="#39e581"] ;
610 -> 611 ;
612 [label=<gini = 0.0<br/>samples = 20<br/>value = [20, 0, 0]<br/>class = GALAXY>, fillcolor="#e58139"] ;
610 -> 612 ;
613 [label=<z &le; 17.163<br/>gini = 0.03<br/>samples = 333<br/>value = [328, 5, 0]<br/>class = GALAXY>, fillcolor="#e5833c"] ;
603 -> 613 ;
614 [label=<u &le; 21.358<br/>gini = 0.444<br/>samples = 3<br/>value = [1, 2, 0]<br/>class = QSO>, fillcolor="#9cf2c0"] ;
613 -> 614 ;
615 [label=<gini = 0.0<br/>samples = 2<br/>value = [0, 2, 0]<br/>class = QSO>, fillcolor="#39e581"] ;
614 -> 615 ;
616 [label=<gini = 0.0<br/>samples = 1<br/>value = [1, 0, 0]<br/>class = GALAXY>, fillcolor="#e58139"] ;
614 -> 616 ;
617 [label=<u &le; 20.981<br/>gini = 0.018<br/>samples = 330<br/>value = [327, 3, 0]<br/>class = GALAXY>, fillcolor="#e5823b"] ;
613 -> 617 ;
618 [label=<g &le; 19.591<br/>gini = 0.153<br/>samples = 12<br/>value = [11, 1, 0]<br/>class = GALAXY>, fillcolor="#e78c4b"] ;
617 -> 618 ;
619 [label=<gini = 0.0<br/>samples = 11<br/>value = [11, 0, 0]<br/>class = GALAXY>, fillcolor="#e58139"] ;
618 -> 619 ;
620 [label=<gini = 0.0<br/>samples = 1<br/>value = [0, 1, 0]<br/>class = QSO>, fillcolor="#39e581"] ;
618 -> 620 ;
621 [label=<redshift &le; 0.272<br/>gini = 0.012<br/>samples = 318<br/>value = [316, 2, 0]<br/>class = GALAXY>, fillcolor="#e5823a"] ;
617 -> 621 ;
622 [label=<gini = 0.0<br/>samples = 195<br/>value = [195, 0, 0]<br/>class = GALAXY>, fillcolor="#e58139"] ;
621 -> 622 ;
623 [label=<redshift &le; 0.273<br/>gini = 0.032<br/>samples = 123<br/>value = [121, 2, 0]<br/>class = GALAXY>, fillcolor="#e5833c"] ;
621 -> 623 ;
624 [label=<gini = 0.0<br/>samples = 1<br/>value = [0, 1, 0]<br/>class = QSO>, fillcolor="#39e581"] ;
623 -> 624 ;
625 [label=<g &le; 19.592<br/>gini = 0.016<br/>samples = 122<br/>value = [121, 1, 0]<br/>class = GALAXY>, fillcolor="#e5823b"] ;
623 -> 625 ;
626 [label=<z &le; 17.3<br/>gini = 0.245<br/>samples = 7<br/>value = [6, 1, 0]<br/>class = GALAXY>, fillcolor="#e9965a"] ;
625 -> 626 ;
627 [label=<gini = 0.0<br/>samples = 6<br/>value = [6, 0, 0]<br/>class = GALAXY>, fillcolor="#e58139"] ;
626 -> 627 ;
628 [label=<gini = 0.0<br/>samples = 1<br/>value = [0, 1, 0]<br/>class = QSO>, fillcolor="#39e581"] ;
626 -> 628 ;
629 [label=<gini = 0.0<br/>samples = 115<br/>value = [115, 0, 0]<br/>class = GALAXY>, fillcolor="#e58139"] ;
625 -> 629 ;
630 [label=<u &le; 20.448<br/>gini = 0.282<br/>samples = 53<br/>value = [44, 9, 0]<br/>class = GALAXY>, fillcolor="#ea9b61"] ;
316 -> 630 ;
631 [label=<gini = 0.0<br/>samples = 9<br/>value = [0, 9, 0]<br/>class = QSO>, fillcolor="#39e581"] ;
630 -> 631 ;
632 [label=<gini = 0.0<br/>samples = 44<br/>value = [44, 0, 0]<br/>class = GALAXY>, fillcolor="#e58139"] ;
630 -> 632 ;
633 [label=<u &le; 19.556<br/>gini = 0.168<br/>samples = 1552<br/>value = [1408, 144, 0]<br/>class = GALAXY>, fillcolor="#e88e4d"] ;
315 -> 633 ;
634 [label=<redshift &le; 0.184<br/>gini = 0.422<br/>samples = 228<br/>value = [159, 69, 0]<br/>class = GALAXY>, fillcolor="#f0b88f"] ;
633 -> 634 ;
635 [label=<redshift &le; 0.128<br/>gini = 0.088<br/>samples = 151<br/>value = [144, 7, 0]<br/>class = GALAXY>, fillcolor="#e68743"] ;
634 -> 635 ;
636 [label=<gini = 0.0<br/>samples = 119<br/>value = [119, 0, 0]<br/>class = GALAXY>, fillcolor="#e58139"] ;
635 -> 636 ;
637 [label=<u &le; 19.03<br/>gini = 0.342<br/>samples = 32<br/>value = [25, 7, 0]<br/>class = GALAXY>, fillcolor="#eca470"] ;
635 -> 637 ;
638 [label=<g &le; 18.348<br/>gini = 0.444<br/>samples = 6<br/>value = [2, 4, 0]<br/>class = QSO>, fillcolor="#9cf2c0"] ;
637 -> 638 ;
639 [label=<gini = 0.0<br/>samples = 2<br/>value = [2, 0, 0]<br/>class = GALAXY>, fillcolor="#e58139"] ;
638 -> 639 ;
640 [label=<gini = 0.0<br/>samples = 4<br/>value = [0, 4, 0]<br/>class = QSO>, fillcolor="#39e581"] ;
638 -> 640 ;
641 [label=<redshift &le; 0.129<br/>gini = 0.204<br/>samples = 26<br/>value = [23, 3, 0]<br/>class = GALAXY>, fillcolor="#e89153"] ;
637 -> 641 ;
642 [label=<gini = 0.0<br/>samples = 1<br/>value = [0, 1, 0]<br/>class = QSO>, fillcolor="#39e581"] ;
641 -> 642 ;
643 [label=<g &le; 18.633<br/>gini = 0.147<br/>samples = 25<br/>value = [23, 2, 0]<br/>class = GALAXY>, fillcolor="#e78c4a"] ;
641 -> 643 ;
644 [label=<gini = 0.0<br/>samples = 17<br/>value = [17, 0, 0]<br/>class = GALAXY>, fillcolor="#e58139"] ;
643 -> 644 ;
645 [label=<i &le; 17.763<br/>gini = 0.375<br/>samples = 8<br/>value = [6, 2, 0]<br/>class = GALAXY>, fillcolor="#eeab7b"] ;
643 -> 645 ;
646 [label=<gini = 0.0<br/>samples = 2<br/>value = [0, 2, 0]<br/>class = QSO>, fillcolor="#39e581"] ;
645 -> 646 ;
647 [label=<gini = 0.0<br/>samples = 6<br/>value = [6, 0, 0]<br/>class = GALAXY>, fillcolor="#e58139"] ;
645 -> 647 ;
648 [label=<redshift &le; 0.208<br/>gini = 0.314<br/>samples = 77<br/>value = [15, 62, 0]<br/>class = QSO>, fillcolor="#69eb9f"] ;
634 -> 648 ;
649 [label=<g &le; 18.732<br/>gini = 0.498<br/>samples = 15<br/>value = [8, 7, 0]<br/>class = GALAXY>, fillcolor="#fcefe6"] ;
648 -> 649 ;
650 [label=<g &le; 18.246<br/>gini = 0.219<br/>samples = 8<br/>value = [7, 1, 0]<br/>class = GALAXY>, fillcolor="#e99355"] ;
649 -> 650 ;
651 [label=<gini = 0.0<br/>samples = 1<br/>value = [0, 1, 0]<br/>class = QSO>, fillcolor="#39e581"] ;
650 -> 651 ;
652 [label=<gini = 0.0<br/>samples = 7<br/>value = [7, 0, 0]<br/>class = GALAXY>, fillcolor="#e58139"] ;
650 -> 652 ;
653 [label=<z &le; 18.781<br/>gini = 0.245<br/>samples = 7<br/>value = [1, 6, 0]<br/>class = QSO>, fillcolor="#5ae996"] ;
649 -> 653 ;
654 [label=<gini = 0.0<br/>samples = 6<br/>value = [0, 6, 0]<br/>class = QSO>, fillcolor="#39e581"] ;
653 -> 654 ;
655 [label=<gini = 0.0<br/>samples = 1<br/>value = [1, 0, 0]<br/>class = GALAXY>, fillcolor="#e58139"] ;
653 -> 655 ;
656 [label=<r &le; 19.222<br/>gini = 0.2<br/>samples = 62<br/>value = [7, 55, 0]<br/>class = QSO>, fillcolor="#52e891"] ;
648 -> 656 ;
657 [label=<redshift &le; 0.336<br/>gini = 0.177<br/>samples = 61<br/>value = [6, 55, 0]<br/>class = QSO>, fillcolor="#4fe88f"] ;
656 -> 657 ;
658 [label=<u &le; 19.407<br/>gini = 0.153<br/>samples = 60<br/>value = [5, 55, 0]<br/>class = QSO>, fillcolor="#4be78c"] ;
657 -> 658 ;
659 [label=<z &le; 17.469<br/>gini = 0.042<br/>samples = 47<br/>value = [1, 46, 0]<br/>class = QSO>, fillcolor="#3de684"] ;
658 -> 659 ;
660 [label=<z &le; 17.456<br/>gini = 0.5<br/>samples = 2<br/>value = [1, 1, 0]<br/>class = GALAXY>, fillcolor="#ffffff"] ;
659 -> 660 ;
661 [label=<gini = 0.0<br/>samples = 1<br/>value = [0, 1, 0]<br/>class = QSO>, fillcolor="#39e581"] ;
660 -> 661 ;
662 [label=<gini = 0.0<br/>samples = 1<br/>value = [1, 0, 0]<br/>class = GALAXY>, fillcolor="#e58139"] ;
660 -> 662 ;
663 [label=<gini = 0.0<br/>samples = 45<br/>value = [0, 45, 0]<br/>class = QSO>, fillcolor="#39e581"] ;
659 -> 663 ;
664 [label=<g &le; 19.022<br/>gini = 0.426<br/>samples = 13<br/>value = [4, 9, 0]<br/>class = QSO>, fillcolor="#91f1b9"] ;
658 -> 664 ;
665 [label=<i &le; 17.738<br/>gini = 0.32<br/>samples = 5<br/>value = [4, 1, 0]<br/>class = GALAXY>, fillcolor="#eca06a"] ;
664 -> 665 ;
666 [label=<gini = 0.0<br/>samples = 1<br/>value = [0, 1, 0]<br/>class = QSO>, fillcolor="#39e581"] ;
665 -> 666 ;
667 [label=<gini = 0.0<br/>samples = 4<br/>value = [4, 0, 0]<br/>class = GALAXY>, fillcolor="#e58139"] ;
665 -> 667 ;
668 [label=<gini = 0.0<br/>samples = 8<br/>value = [0, 8, 0]<br/>class = QSO>, fillcolor="#39e581"] ;
664 -> 668 ;
669 [label=<gini = 0.0<br/>samples = 1<br/>value = [1, 0, 0]<br/>class = GALAXY>, fillcolor="#e58139"] ;
657 -> 669 ;
670 [label=<gini = 0.0<br/>samples = 1<br/>value = [1, 0, 0]<br/>class = GALAXY>, fillcolor="#e58139"] ;
656 -> 670 ;
671 [label=<redshift &le; 0.177<br/>gini = 0.107<br/>samples = 1324<br/>value = [1249, 75, 0]<br/>class = GALAXY>, fillcolor="#e78945"] ;
633 -> 671 ;
672 [label=<r &le; 19.86<br/>gini = 0.022<br/>samples = 620<br/>value = [613, 7, 0]<br/>class = GALAXY>, fillcolor="#e5823b"] ;
671 -> 672 ;
673 [label=<redshift &le; 0.161<br/>gini = 0.014<br/>samples = 582<br/>value = [578, 4, 0]<br/>class = GALAXY>, fillcolor="#e5823a"] ;
672 -> 673 ;
674 [label=<u &le; 20.01<br/>gini = 0.004<br/>samples = 515<br/>value = [514, 1, 0]<br/>class = GALAXY>, fillcolor="#e58139"] ;
673 -> 674 ;
675 [label=<u &le; 20.008<br/>gini = 0.016<br/>samples = 122<br/>value = [121, 1, 0]<br/>class = GALAXY>, fillcolor="#e5823b"] ;
674 -> 675 ;
676 [label=<gini = 0.0<br/>samples = 121<br/>value = [121, 0, 0]<br/>class = GALAXY>, fillcolor="#e58139"] ;
675 -> 676 ;
677 [label=<gini = 0.0<br/>samples = 1<br/>value = [0, 1, 0]<br/>class = QSO>, fillcolor="#39e581"] ;
675 -> 677 ;
678 [label=<gini = 0.0<br/>samples = 393<br/>value = [393, 0, 0]<br/>class = GALAXY>, fillcolor="#e58139"] ;
674 -> 678 ;
679 [label=<redshift &le; 0.162<br/>gini = 0.086<br/>samples = 67<br/>value = [64, 3, 0]<br/>class = GALAXY>, fillcolor="#e68742"] ;
673 -> 679 ;
680 [label=<gini = 0.0<br/>samples = 1<br/>value = [0, 1, 0]<br/>class = QSO>, fillcolor="#39e581"] ;
679 -> 680 ;
681 [label=<g &le; 19.575<br/>gini = 0.059<br/>samples = 66<br/>value = [64, 2, 0]<br/>class = GALAXY>, fillcolor="#e6853f"] ;
679 -> 681 ;
682 [label=<g &le; 19.566<br/>gini = 0.124<br/>samples = 30<br/>value = [28, 2, 0]<br/>class = GALAXY>, fillcolor="#e78a47"] ;
681 -> 682 ;
683 [label=<r &le; 18.827<br/>gini = 0.067<br/>samples = 29<br/>value = [28, 1, 0]<br/>class = GALAXY>, fillcolor="#e68640"] ;
682 -> 683 ;
684 [label=<gini = 0.0<br/>samples = 25<br/>value = [25, 0, 0]<br/>class = GALAXY>, fillcolor="#e58139"] ;
683 -> 684 ;
685 [label=<z &le; 18.441<br/>gini = 0.375<br/>samples = 4<br/>value = [3, 1, 0]<br/>class = GALAXY>, fillcolor="#eeab7b"] ;
683 -> 685 ;
686 [label=<gini = 0.0<br/>samples = 1<br/>value = [0, 1, 0]<br/>class = QSO>, fillcolor="#39e581"] ;
685 -> 686 ;
687 [label=<gini = 0.0<br/>samples = 3<br/>value = [3, 0, 0]<br/>class = GALAXY>, fillcolor="#e58139"] ;
685 -> 687 ;
688 [label=<gini = 0.0<br/>samples = 1<br/>value = [0, 1, 0]<br/>class = QSO>, fillcolor="#39e581"] ;
682 -> 688 ;
689 [label=<gini = 0.0<br/>samples = 36<br/>value = [36, 0, 0]<br/>class = GALAXY>, fillcolor="#e58139"] ;
681 -> 689 ;
690 [label=<r &le; 19.873<br/>gini = 0.145<br/>samples = 38<br/>value = [35, 3, 0]<br/>class = GALAXY>, fillcolor="#e78c4a"] ;
672 -> 690 ;
691 [label=<gini = 0.0<br/>samples = 1<br/>value = [0, 1, 0]<br/>class = QSO>, fillcolor="#39e581"] ;
690 -> 691 ;
692 [label=<r &le; 20.032<br/>gini = 0.102<br/>samples = 37<br/>value = [35, 2, 0]<br/>class = GALAXY>, fillcolor="#e68844"] ;
690 -> 692 ;
693 [label=<u &le; 21.491<br/>gini = 0.346<br/>samples = 9<br/>value = [7, 2, 0]<br/>class = GALAXY>, fillcolor="#eca572"] ;
692 -> 693 ;
694 [label=<z &le; 19.897<br/>gini = 0.444<br/>samples = 3<br/>value = [1, 2, 0]<br/>class = QSO>, fillcolor="#9cf2c0"] ;
693 -> 694 ;
695 [label=<gini = 0.0<br/>samples = 2<br/>value = [0, 2, 0]<br/>class = QSO>, fillcolor="#39e581"] ;
694 -> 695 ;
696 [label=<gini = 0.0<br/>samples = 1<br/>value = [1, 0, 0]<br/>class = GALAXY>, fillcolor="#e58139"] ;
694 -> 696 ;
697 [label=<gini = 0.0<br/>samples = 6<br/>value = [6, 0, 0]<br/>class = GALAXY>, fillcolor="#e58139"] ;
693 -> 697 ;
698 [label=<gini = 0.0<br/>samples = 28<br/>value = [28, 0, 0]<br/>class = GALAXY>, fillcolor="#e58139"] ;
692 -> 698 ;
699 [label=<u &le; 20.245<br/>gini = 0.175<br/>samples = 704<br/>value = [636, 68, 0]<br/>class = GALAXY>, fillcolor="#e88e4e"] ;
671 -> 699 ;
700 [label=<g &le; 19.407<br/>gini = 0.453<br/>samples = 101<br/>value = [66, 35, 0]<br/>class = GALAXY>, fillcolor="#f3c4a2"] ;
699 -> 700 ;
701 [label=<z &le; 17.503<br/>gini = 0.236<br/>samples = 66<br/>value = [57, 9, 0]<br/>class = GALAXY>, fillcolor="#e99558"] ;
700 -> 701 ;
702 [label=<gini = 0.0<br/>samples = 3<br/>value = [0, 3, 0]<br/>class = QSO>, fillcolor="#39e581"] ;
701 -> 702 ;
703 [label=<g &le; 19.33<br/>gini = 0.172<br/>samples = 63<br/>value = [57, 6, 0]<br/>class = GALAXY>, fillcolor="#e88e4e"] ;
701 -> 703 ;
704 [label=<redshift &le; 0.264<br/>gini = 0.075<br/>samples = 51<br/>value = [49, 2, 0]<br/>class = GALAXY>, fillcolor="#e68641"] ;
703 -> 704 ;
705 [label=<gini = 0.0<br/>samples = 46<br/>value = [46, 0, 0]<br/>class = GALAXY>, fillcolor="#e58139"] ;
704 -> 705 ;
706 [label=<g &le; 19.123<br/>gini = 0.48<br/>samples = 5<br/>value = [3, 2, 0]<br/>class = GALAXY>, fillcolor="#f6d5bd"] ;
704 -> 706 ;
707 [label=<gini = 0.0<br/>samples = 2<br/>value = [2, 0, 0]<br/>class = GALAXY>, fillcolor="#e58139"] ;
706 -> 707 ;
708 [label=<u &le; 19.873<br/>gini = 0.444<br/>samples = 3<br/>value = [1, 2, 0]<br/>class = QSO>, fillcolor="#9cf2c0"] ;
706 -> 708 ;
709 [label=<gini = 0.0<br/>samples = 2<br/>value = [0, 2, 0]<br/>class = QSO>, fillcolor="#39e581"] ;
708 -> 709 ;
710 [label=<gini = 0.0<br/>samples = 1<br/>value = [1, 0, 0]<br/>class = GALAXY>, fillcolor="#e58139"] ;
708 -> 710 ;
711 [label=<u &le; 20.076<br/>gini = 0.444<br/>samples = 12<br/>value = [8, 4, 0]<br/>class = GALAXY>, fillcolor="#f2c09c"] ;
703 -> 711 ;
712 [label=<redshift &le; 0.311<br/>gini = 0.32<br/>samples = 5<br/>value = [1, 4, 0]<br/>class = QSO>, fillcolor="#6aeca0"] ;
711 -> 712 ;
713 [label=<gini = 0.0<br/>samples = 4<br/>value = [0, 4, 0]<br/>class = QSO>, fillcolor="#39e581"] ;
712 -> 713 ;
714 [label=<gini = 0.0<br/>samples = 1<br/>value = [1, 0, 0]<br/>class = GALAXY>, fillcolor="#e58139"] ;
712 -> 714 ;
715 [label=<gini = 0.0<br/>samples = 7<br/>value = [7, 0, 0]<br/>class = GALAXY>, fillcolor="#e58139"] ;
711 -> 715 ;
716 [label=<u &le; 20.024<br/>gini = 0.382<br/>samples = 35<br/>value = [9, 26, 0]<br/>class = QSO>, fillcolor="#7eeead"] ;
700 -> 716 ;
717 [label=<z &le; 19.277<br/>gini = 0.105<br/>samples = 18<br/>value = [1, 17, 0]<br/>class = QSO>, fillcolor="#45e788"] ;
716 -> 717 ;
718 [label=<gini = 0.0<br/>samples = 17<br/>value = [0, 17, 0]<br/>class = QSO>, fillcolor="#39e581"] ;
717 -> 718 ;
719 [label=<gini = 0.0<br/>samples = 1<br/>value = [1, 0, 0]<br/>class = GALAXY>, fillcolor="#e58139"] ;
717 -> 719 ;
720 [label=<g &le; 19.724<br/>gini = 0.498<br/>samples = 17<br/>value = [8, 9, 0]<br/>class = QSO>, fillcolor="#e9fcf1"] ;
716 -> 720 ;
721 [label=<i &le; 18.46<br/>gini = 0.32<br/>samples = 10<br/>value = [8, 2, 0]<br/>class = GALAXY>, fillcolor="#eca06a"] ;
720 -> 721 ;
722 [label=<redshift &le; 0.273<br/>gini = 0.444<br/>samples = 3<br/>value = [1, 2, 0]<br/>class = QSO>, fillcolor="#9cf2c0"] ;
721 -> 722 ;
723 [label=<gini = 0.0<br/>samples = 2<br/>value = [0, 2, 0]<br/>class = QSO>, fillcolor="#39e581"] ;
722 -> 723 ;
724 [label=<gini = 0.0<br/>samples = 1<br/>value = [1, 0, 0]<br/>class = GALAXY>, fillcolor="#e58139"] ;
722 -> 724 ;
725 [label=<gini = 0.0<br/>samples = 7<br/>value = [7, 0, 0]<br/>class = GALAXY>, fillcolor="#e58139"] ;
721 -> 725 ;
726 [label=<gini = 0.0<br/>samples = 7<br/>value = [0, 7, 0]<br/>class = QSO>, fillcolor="#39e581"] ;
720 -> 726 ;
727 [label=<u &le; 20.88<br/>gini = 0.103<br/>samples = 603<br/>value = [570, 33, 0]<br/>class = GALAXY>, fillcolor="#e78844"] ;
699 -> 727 ;
728 [label=<g &le; 19.662<br/>gini = 0.245<br/>samples = 105<br/>value = [90, 15, 0]<br/>class = GALAXY>, fillcolor="#e9965a"] ;
727 -> 728 ;
729 [label=<r &le; 18.211<br/>gini = 0.041<br/>samples = 48<br/>value = [47, 1, 0]<br/>class = GALAXY>, fillcolor="#e6843d"] ;
728 -> 729 ;
730 [label=<z &le; 17.574<br/>gini = 0.5<br/>samples = 2<br/>value = [1, 1, 0]<br/>class = GALAXY>, fillcolor="#ffffff"] ;
729 -> 730 ;
731 [label=<gini = 0.0<br/>samples = 1<br/>value = [1, 0, 0]<br/>class = GALAXY>, fillcolor="#e58139"] ;
730 -> 731 ;
732 [label=<gini = 0.0<br/>samples = 1<br/>value = [0, 1, 0]<br/>class = QSO>, fillcolor="#39e581"] ;
730 -> 732 ;
733 [label=<gini = 0.0<br/>samples = 46<br/>value = [46, 0, 0]<br/>class = GALAXY>, fillcolor="#e58139"] ;
729 -> 733 ;
734 [label=<z &le; 19.047<br/>gini = 0.371<br/>samples = 57<br/>value = [43, 14, 0]<br/>class = GALAXY>, fillcolor="#edaa79"] ;
728 -> 734 ;
735 [label=<g &le; 20.131<br/>gini = 0.439<br/>samples = 40<br/>value = [27, 13, 0]<br/>class = GALAXY>, fillcolor="#f2be98"] ;
734 -> 735 ;
736 [label=<u &le; 20.867<br/>gini = 0.375<br/>samples = 36<br/>value = [27, 9, 0]<br/>class = GALAXY>, fillcolor="#eeab7b"] ;
735 -> 736 ;
737 [label=<redshift &le; 0.246<br/>gini = 0.353<br/>samples = 35<br/>value = [27, 8, 0]<br/>class = GALAXY>, fillcolor="#eda674"] ;
736 -> 737 ;
738 [label=<redshift &le; 0.206<br/>gini = 0.455<br/>samples = 20<br/>value = [13, 7, 0]<br/>class = GALAXY>, fillcolor="#f3c5a4"] ;
737 -> 738 ;
739 [label=<r &le; 19.415<br/>gini = 0.198<br/>samples = 9<br/>value = [8, 1, 0]<br/>class = GALAXY>, fillcolor="#e89152"] ;
738 -> 739 ;
740 [label=<gini = 0.0<br/>samples = 8<br/>value = [8, 0, 0]<br/>class = GALAXY>, fillcolor="#e58139"] ;
739 -> 740 ;
741 [label=<gini = 0.0<br/>samples = 1<br/>value = [0, 1, 0]<br/>class = QSO>, fillcolor="#39e581"] ;
739 -> 741 ;
742 [label=<u &le; 20.812<br/>gini = 0.496<br/>samples = 11<br/>value = [5, 6, 0]<br/>class = QSO>, fillcolor="#defbea"] ;
738 -> 742 ;
743 [label=<i &le; 18.6<br/>gini = 0.375<br/>samples = 8<br/>value = [2, 6, 0]<br/>class = QSO>, fillcolor="#7beeab"] ;
742 -> 743 ;
744 [label=<gini = 0.0<br/>samples = 5<br/>value = [0, 5, 0]<br/>class = QSO>, fillcolor="#39e581"] ;
743 -> 744 ;
745 [label=<redshift &le; 0.238<br/>gini = 0.444<br/>samples = 3<br/>value = [2, 1, 0]<br/>class = GALAXY>, fillcolor="#f2c09c"] ;
743 -> 745 ;
746 [label=<gini = 0.0<br/>samples = 2<br/>value = [2, 0, 0]<br/>class = GALAXY>, fillcolor="#e58139"] ;
745 -> 746 ;
747 [label=<gini = 0.0<br/>samples = 1<br/>value = [0, 1, 0]<br/>class = QSO>, fillcolor="#39e581"] ;
745 -> 747 ;
748 [label=<gini = 0.0<br/>samples = 3<br/>value = [3, 0, 0]<br/>class = GALAXY>, fillcolor="#e58139"] ;
742 -> 748 ;
749 [label=<u &le; 20.342<br/>gini = 0.124<br/>samples = 15<br/>value = [14, 1, 0]<br/>class = GALAXY>, fillcolor="#e78a47"] ;
737 -> 749 ;
750 [label=<g &le; 19.783<br/>gini = 0.5<br/>samples = 2<br/>value = [1, 1, 0]<br/>class = GALAXY>, fillcolor="#ffffff"] ;
749 -> 750 ;
751 [label=<gini = 0.0<br/>samples = 1<br/>value = [1, 0, 0]<br/>class = GALAXY>, fillcolor="#e58139"] ;
750 -> 751 ;
752 [label=<gini = 0.0<br/>samples = 1<br/>value = [0, 1, 0]<br/>class = QSO>, fillcolor="#39e581"] ;
750 -> 752 ;
753 [label=<gini = 0.0<br/>samples = 13<br/>value = [13, 0, 0]<br/>class = GALAXY>, fillcolor="#e58139"] ;
749 -> 753 ;
754 [label=<gini = 0.0<br/>samples = 1<br/>value = [0, 1, 0]<br/>class = QSO>, fillcolor="#39e581"] ;
736 -> 754 ;
755 [label=<gini = 0.0<br/>samples = 4<br/>value = [0, 4, 0]<br/>class = QSO>, fillcolor="#39e581"] ;
735 -> 755 ;
756 [label=<u &le; 20.848<br/>gini = 0.111<br/>samples = 17<br/>value = [16, 1, 0]<br/>class = GALAXY>, fillcolor="#e78945"] ;
734 -> 756 ;
757 [label=<gini = 0.0<br/>samples = 16<br/>value = [16, 0, 0]<br/>class = GALAXY>, fillcolor="#e58139"] ;
756 -> 757 ;
758 [label=<gini = 0.0<br/>samples = 1<br/>value = [0, 1, 0]<br/>class = QSO>, fillcolor="#39e581"] ;
756 -> 758 ;
759 [label=<r &le; 20.035<br/>gini = 0.07<br/>samples = 498<br/>value = [480, 18, 0]<br/>class = GALAXY>, fillcolor="#e68640"] ;
727 -> 759 ;
760 [label=<z &le; 17.745<br/>gini = 0.047<br/>samples = 460<br/>value = [449, 11, 0]<br/>class = GALAXY>, fillcolor="#e6843e"] ;
759 -> 760 ;
761 [label=<gini = 0.0<br/>samples = 179<br/>value = [179, 0, 0]<br/>class = GALAXY>, fillcolor="#e58139"] ;
760 -> 761 ;
762 [label=<z &le; 17.746<br/>gini = 0.075<br/>samples = 281<br/>value = [270, 11, 0]<br/>class = GALAXY>, fillcolor="#e68641"] ;
760 -> 762 ;
763 [label=<gini = 0.0<br/>samples = 1<br/>value = [0, 1, 0]<br/>class = QSO>, fillcolor="#39e581"] ;
762 -> 763 ;
764 [label=<i &le; 18.026<br/>gini = 0.069<br/>samples = 280<br/>value = [270, 10, 0]<br/>class = GALAXY>, fillcolor="#e68640"] ;
762 -> 764 ;
765 [label=<redshift &le; 0.226<br/>gini = 0.5<br/>samples = 2<br/>value = [1, 1, 0]<br/>class = GALAXY>, fillcolor="#ffffff"] ;
764 -> 765 ;
766 [label=<gini = 0.0<br/>samples = 1<br/>value = [0, 1, 0]<br/>class = QSO>, fillcolor="#39e581"] ;
765 -> 766 ;
767 [label=<gini = 0.0<br/>samples = 1<br/>value = [1, 0, 0]<br/>class = GALAXY>, fillcolor="#e58139"] ;
765 -> 767 ;
768 [label=<g &le; 19.948<br/>gini = 0.063<br/>samples = 278<br/>value = [269, 9, 0]<br/>class = GALAXY>, fillcolor="#e68540"] ;
764 -> 768 ;
769 [label=<g &le; 19.942<br/>gini = 0.169<br/>samples = 43<br/>value = [39, 4, 0]<br/>class = GALAXY>, fillcolor="#e88e4d"] ;
768 -> 769 ;
770 [label=<g &le; 19.933<br/>gini = 0.133<br/>samples = 42<br/>value = [39, 3, 0]<br/>class = GALAXY>, fillcolor="#e78b48"] ;
769 -> 770 ;
